<?xml version="1.0"?>
<opencv_storage>
<opencv_ml_ann_mlp>
  <format>3</format>
  <layer_sizes>
    48 72 48 32 10</layer_sizes>
  <activation_function>SIGMOID_SYM</activation_function>
  <f_param1>6.6666666666666663e-01</f_param1>
  <f_param2>1.7159000000000000e+00</f_param2>
  <min_val>-9.4999999999999996e-01</min_val>
  <max_val>9.4999999999999996e-01</max_val>
  <min_val1>-9.7999999999999998e-01</min_val1>
  <max_val1>9.7999999999999998e-01</max_val1>
  <training_params>
    <train_method>BACKPROP</train_method>
    <dw_scale>1.0000000000000001e-01</dw_scale>
    <moment_scale>1.0000000000000001e-01</moment_scale>
    <term_criteria>
      <iterations>1000</iterations></term_criteria></training_params>
  <input_scale>
    5.1904441991283910e+01 -2.4942644309059410e+00
    3.8554085458081786e+01 -2.5118362403006067e+00
    3.3234721789140117e+01 -2.4820267931259283e+00
    1.3249899255986485e+01 -1.1194589765304928e+00
    5.0102229465754169e+00 -5.9776002899276415e-01
    8.4640023091366778e+00 -5.4741322389224056e-01
    1.8853254066082336e+01 -7.4613767084908944e-01
    1.2543551303903632e+01 -4.9826188486826312e-01
    4.1299803284943827e+01 -1.3853037287812742e+00
    4.1613068704966871e+01 -1.5381086173801530e+00
    3.7416862367835158e+01 -1.7302595645616701e+00
    3.4841659481251263e+01 -2.3191345255547633e+00
    3.4075548383365174e+01 -2.7244857857859222e+00
    3.4421900568200996e+01 -2.7166114133774641e+00
    3.8041230682183738e+01 -2.6142783071596911e+00
    4.6734580561896934e+01 -2.3828382790650107e+00
    5.1904441991283910e+01 -2.4942644309059410e+00
    3.8554085458081786e+01 -2.5118362403006067e+00
    3.3234721789140117e+01 -2.4820267931259283e+00
    1.3249899255986485e+01 -1.1194589765304928e+00
    5.0102229465754169e+00 -5.9776002899276415e-01
    8.4640023091366778e+00 -5.4741322389224056e-01
    1.8853254066082336e+01 -7.4613767084908944e-01
    1.2543551303903632e+01 -4.9826188486826312e-01
    4.1299803284943827e+01 -1.3853037287812742e+00
    4.1613068704966871e+01 -1.5381086173801530e+00
    3.7416862367835158e+01 -1.7302595645616701e+00
    3.4841659481251263e+01 -2.3191345255547633e+00
    3.4075548383365174e+01 -2.7244857857859222e+00
    3.4421900568200996e+01 -2.7166114133774641e+00
    3.8041230682183738e+01 -2.6142783071596911e+00
    4.6734580561896934e+01 -2.3828382790650107e+00
    2.7895092252068929e+00 -1.8857843854287364e+00
    2.9521187993377778e+00 -1.9689046399818153e+00
    2.9870718149668396e+00 -1.9396854233203387e+00
    2.9569426995472794e+00 -1.9173931669698356e+00
    2.5941286890770305e+00 -2.0654770615477509e+00
    2.3650252851240059e+00 -7.8545369904443663e-01
    2.6712015641730509e+00 -7.9388223337355757e-01
    2.3344983434836282e+00 -1.6877420814616959e+00
    2.2305857043040089e+00 -1.5511567262536710e+00
    3.1999750228542787e+00 -4.8435320716542529e-01
    3.2143600877141187e+00 -4.9033289394675084e-01
    2.8701378161386693e+00 -2.4424035701428486e+00
    2.9873111133639716e+00 -2.0830187138351208e+00
    2.8956330885594936e+00 -1.8197672533321101e+00
    2.9560355051108300e+00 -1.7875730645303780e+00
    3.2370217750199206e+00 -2.5489124443311857e+00</input_scale>
  <output_scale>
    5.2631578947368418e-01 4.9999999999999994e-01 5.2631578947368418e-01
    4.9999999999999994e-01 5.2631578947368418e-01 4.9999999999999994e-01
    5.2631578947368418e-01 4.9999999999999994e-01 5.2631578947368418e-01
    4.9999999999999994e-01 5.2631578947368418e-01 4.9999999999999994e-01
    5.2631578947368418e-01 4.9999999999999994e-01 5.2631578947368418e-01
    4.9999999999999994e-01 5.2631578947368418e-01 4.9999999999999994e-01
    5.2631578947368418e-01 4.9999999999999994e-01</output_scale>
  <inv_output_scale>
    1.8999999999999999e+00 -9.4999999999999996e-01
    1.8999999999999999e+00 -9.4999999999999996e-01
    1.8999999999999999e+00 -9.4999999999999996e-01
    1.8999999999999999e+00 -9.4999999999999996e-01
    1.8999999999999999e+00 -9.4999999999999996e-01
    1.8999999999999999e+00 -9.4999999999999996e-01
    1.8999999999999999e+00 -9.4999999999999996e-01
    1.8999999999999999e+00 -9.4999999999999996e-01
    1.8999999999999999e+00 -9.4999999999999996e-01
    1.8999999999999999e+00 -9.4999999999999996e-01</inv_output_scale>
  <weights>
    <_>
      1.2044496670246549e-01 -1.5083160964676506e-01
      1.5122227103410151e+00 -6.9771151504081350e-02
      -8.7868954257163812e-01 9.4611394933470927e-01
      1.5298558587504028e+00 8.2882856936490168e-01
      -8.3934214470915525e-01 2.5508785346984375e-01
      3.7491594053677163e-01 -2.8318082600690300e+00
      3.9796577740975061e+00 1.5084564273026495e+00
      1.0148359909809164e+00 1.7854437254453794e+00
      1.7641674667882670e+00 1.9117641782011177e+00
      -1.6068518782798127e+00 5.1131092670869815e-01
      1.7618215913538440e+00 5.8544724177458896e-01
      2.5170768762239999e+00 6.3472538060292871e-01
      1.5070986250273641e+00 -1.2889498687388066e+00
      -1.8143708324139789e+00 6.7784145665684414e-01
      -3.5212577119850774e-01 3.1394822256550117e+00
      1.7856443501556103e+00 2.3933766375915217e+00
      1.2420375185473178e+00 1.5484167138120428e-01
      1.5138464657504080e+00 2.7315845526919866e+00
      -1.4041191187144314e-01 -1.8158977516934316e+00
      4.4438309823964234e-01 -1.4570803239782852e+00
      -1.8429069986719169e+00 -2.0275473564470898e+00
      3.3756309523011419e-01 -5.1592327290171547e-01
      -1.7244669215401833e+00 7.1428873095583323e-01
      3.0010985893491755e+00 1.7013249843871390e+00
      -2.5077246045869028e-01 -2.9576626738003884e+00
      -1.4148394450138366e+00 -2.4966218835065468e+00
      3.0925014075778656e-01 8.7292408298548196e-01
      1.8900078213053806e-01 -2.6412444896915960e-01
      1.0402926084611039e+00 -1.5102300257417531e-01
      2.7632851008718511e+00 3.3085350375594058e+00
      2.4672657450019040e+00 -5.7879436963087727e-01
      1.0353578964664634e+00 3.1158964911055200e+00
      -1.1760674881312747e+00 -1.6570584529468285e-01
      2.0428855616854911e+00 1.6293732209705880e+00
      3.6239569373214811e+00 1.1636599419361395e+00
      -3.3168855099646093e+00 1.1653711641166851e+00
      6.0492918731707079e-01 -1.3577619200914023e-01
      1.3122516951990675e+00 2.2548393870245840e+00
      2.4020330443068261e-01 -3.4971410835863026e-01
      1.1256290968040019e+00 -8.1906553326532205e-01
      8.1444639692684853e-02 -4.4394269145232218e-01
      1.8321166214048727e+00 -7.5679120189708937e-01
      1.1548543125905302e+00 1.0884461990087127e-01
      4.2416851902852054e-01 -3.5339129413569570e-01
      2.2934884837046181e+00 7.1198119289704376e-02
      -7.8233258874546596e-01 -1.5837497651390373e+00
      7.0023650939184512e-01 3.7028703611149977e-01
      2.2653407597370210e+00 1.6001302018683936e-01
      3.4910817872446187e-01 -1.5871545272577965e+00
      -2.1012102494293869e+00 -4.4873781480674513e-01
      -4.9580381266646228e-01 1.6971279002759374e+00
      -2.2761240894997866e-02 6.5816968839414824e-01
      2.3301585626679158e+00 -1.2748406416031361e+00
      9.9605761472384546e-01 9.2729806734450693e-01
      -3.2317936645652540e-01 1.3492748398226195e-01
      4.6742610752795327e-01 -2.5046452167475359e+00
      -1.9878340783224493e+00 1.4571734729012351e-01
      2.9350649404699214e-01 -6.9288536622933450e-01
      -9.8386804485032131e-01 1.0457036374025119e+00
      6.9207263508911354e-01 -3.1272122226402099e-01
      -5.2001357808299964e-01 -1.6894233277987874e-02
      -1.0055724763660754e+00 -1.7124881277842795e-02
      7.5483462165017301e-01 -2.7679834136604931e-01
      3.5196966468754121e-01 5.8067205057040649e-01
      -1.3510288570375608e+00 1.5701989684306432e+00
      -1.3157580221160898e+00 2.0246179448502977e+00
      -6.7973571293941437e-01 1.9774420311630130e+00
      2.6613323703282199e+00 2.6449219920706426e+00
      2.1010211011737061e+00 1.4571352891927165e+00
      6.4150144245310914e-01 1.2295614830672668e+00
      2.6271296340776460e+00 -4.6330334469420392e-01
      -2.1639699674317581e+00 -1.1076752018526312e-01
      -7.0639224823564051e-01 -2.4008312059696785e-01
      7.3910980826945483e-01 1.8436239800303129e+00
      -9.6905558553376003e-01 4.8783891213414454e-01
      1.2488983846741022e+00 -1.6544912847349727e-01
      2.8629627675994479e-01 -6.8371064730332076e-01
      1.8812294117308681e+00 3.5272825696058219e-01
      -2.1929269006382252e-01 -8.9385688879994896e-01
      -1.3835296602768310e+00 -7.4117133251159895e-01
      5.7803711193330576e-01 3.8885015858523919e-01
      -5.0240643029943255e-01 -1.0124382725370227e+00
      4.5290328594290558e-01 6.4609233431925017e-01
      1.7827531543345805e+00 -4.5030507929021113e-01
      -9.0113031670425359e-01 -1.1920152247364888e+00
      -2.1751420341408529e+00 2.5664418568873754e-01
      -1.0111253303921466e+00 1.4226096891965982e+00
      2.4336185567294610e-01 -8.6598928313155621e-01
      1.7933526901889703e+00 -1.0624963752613534e+00
      1.5087090436990864e+00 7.0822600560813032e-01
      -5.1095606847442898e-01 4.3118993174232023e-01
      7.9567972910612439e-01 -2.0493090789290860e+00
      -1.2709414099805370e+00 8.6265846144203118e-01
      -1.1636460654875700e+00 -1.2294862015978210e+00
      -1.8773913098066255e+00 1.8743025108746916e+00
      -3.8211698001738420e-01 -5.9051779486589850e-01
      -6.6536810432348781e-01 1.2193434423316925e+00
      -8.7388864641665798e-01 -5.5295132865369301e-01
      7.3148505543196485e-01 1.4702006208105753e+00
      4.2160793521503792e-01 1.1641179362349463e+00
      -5.2630219403178224e-01 1.3356488261815709e+00
      -2.1577269370177303e+00 1.2925951019287736e+00
      -2.3775600814385009e-01 1.7060543804588528e+00
      1.9644067310637634e+00 8.5231721054229315e-01
      2.1890625758102948e+00 1.4995181364319725e+00
      9.0269081715339317e-01 1.1679777173639396e+00
      2.2357608720812028e+00 -3.8102794095667503e-01
      -1.3471646468836174e+00 4.8668065872950672e-01
      -4.0100877872342455e-01 -5.1396381685551662e-02
      4.3701030249710104e-01 -2.5458306361622124e-01
      3.6877209976111758e-01 3.0298589598518899e-01
      2.5919265977106970e-01 -5.2171890218881189e-01
      -4.3822669436633338e-01 -4.1942941313153342e-01
      8.0433822507911132e-02 2.1576225648038455e-01
      -5.0507204033218767e-01 -3.6486044670253814e-01
      -4.9092402902011278e-01 -5.8568120590260925e-03
      -5.9359711099649409e-02 2.3295428804262486e-01
      1.0044095709098214e-01 -9.0179061717590125e-01
      3.7690700175495728e-01 -4.1685146881892420e-02
      2.6018365476683764e-02 1.9330266338178193e-01
      -4.5831602387824988e-01 -1.1990557566038387e-01
      -7.2364043773007647e-01 -7.2816220851347280e-01
      -4.1051744208662494e-01 2.1566850481513516e-01
      -7.3320515765719019e-01 -4.2172606821461894e-01
      -1.7484092944289473e-02 -4.4004575583641004e-01
      2.3937016785590531e-01 2.3457686013385651e-01
      4.2779253134453681e-02 7.6199819825166840e-02
      1.3201367378670422e-02 -4.1014109655126696e-01
      -5.5065042853752943e-01 1.6404774544044545e-01
      -4.1310188521336794e-01 -5.3933442288683653e-01
      -1.1897517682873255e+00 6.0579573728855352e-01
      -5.9639451130776233e-01 2.9327933397794148e-01
      -8.6086777628525152e-02 -1.4728859377346615e-01
      -2.9815812046710000e-01 -1.2797447876302481e-01
      1.2443613599670056e+00 6.3456983234581721e-01
      -7.1154969512507854e-02 1.2119239328861879e+00
      1.6369976318015336e-01 1.4735964400343315e-01
      -7.9298493372474743e-02 1.6815009890667659e-01
      -6.0287976097919127e-01 -1.2555054828289053e-01
      6.6212774794956714e-02 -1.7074446813562644e-01
      -3.6257897883848226e-03 2.0050586110464019e-01
      3.3668943515326788e-01 3.0792279216177065e-01
      6.7924427045867630e-01 -3.2376628748822089e-01
      -3.2827029554061848e-01 1.9063565638040125e-01
      -3.1698285204560023e-01 7.1492538584565901e-01
      -4.7563074159017554e-01 -2.0200359392767156e-01
      1.2261604455183639e-01 4.5936499231322592e-01
      -4.9437469153045427e-01 5.4713760477385465e-02
      3.7888680029799016e-01 5.8550744040374236e-01
      -2.4149544457063765e-01 -1.0180656945318027e+00
      -6.7431235541254841e-01 -1.4442796960126858e-01
      2.5054252851481940e-01 1.9772446917979547e-01
      2.4612863546445413e-01 1.3797622656720970e-01
      4.8042413982362003e-01 3.3326219484341668e-01
      4.2993745361337687e-01 -5.9559421241971855e-01
      -8.1809631916119285e-01 3.1287614432541139e-01
      -2.9996133643299744e-01 2.6687506303610831e-01
      2.8879685246266884e-01 2.2529275679652455e-01
      2.5804301397722912e-01 -3.0120177765378170e-01
      1.3883550512480519e-01 1.7490293020216580e-01
      -5.4438998642605152e-01 2.8931602076098340e-02
      -6.8098383822634367e-01 1.5647659006375242e-01
      5.0309922178501443e-01 -7.7122183494317964e-01
      -7.2398087731728944e-01 5.1709289910417089e-01
      2.1460576324061353e-01 3.3797014420488836e-01
      1.4184436863717617e-01 3.9087259467143404e-01
      -4.6191034605382358e-01 -3.8996977037997205e-01
      -1.0444598866139321e+00 3.5252242335410272e-01
      6.0391256602305143e-01 -2.7410204044851932e-01
      5.2678236425095970e-01 1.5947674974315422e-02
      -3.3612499879367108e-01 1.5216382727572653e-01
      -5.4955171434551675e-01 8.1126032739963516e-01
      -5.0717463596122052e-02 -3.3628335703441614e-01
      2.1220820752193927e-02 -4.6899562944244017e-01
      -7.9416535486474793e-01 -1.7692900182005111e-01
      -4.9255579376405684e-01 -2.1287789410998220e-01
      -3.2912065883054137e-01 -2.7964666122531717e-01
      -4.5649883833658000e-01 -6.3325835054523261e-01
      1.1729103597840651e-01 5.9662002967965899e-01
      1.7652384627805315e-01 1.5189059656406911e-01
      -2.4549267670410901e-01 3.2375449226993802e-01
      -4.3893773041986890e-02 -8.5856576678508434e-02
      -3.9222209412844738e-01 1.9148318286183025e-01
      -2.1876769506687874e-01 1.6622728501247144e-01
      -2.4577764617745634e-01 3.2105318010767336e-01
      -3.3196060051723675e-01 -2.2854472579993245e-02
      -5.9446784712989031e-01 -3.1483877444403013e-01
      -3.4655741178396721e-01 -2.0595947080401206e-02
      1.0827932316018633e-01 -9.5432967634887345e-02
      -7.0210768758288923e-03 2.2570205579282226e-01
      2.4971695587842088e-01 -3.4392353176661622e-01
      -4.6681013144105492e-02 6.7782713314958509e-01
      -2.9401427658855495e-01 4.7857644929634208e-02
      -7.0045444606926868e-02 3.1846887474215163e-01
      3.9690880403795238e-02 -2.4777310039546471e-01
      3.6159035398327960e-01 -5.7577096896320186e-02
      1.2073058953626202e-01 -1.6048578900524627e-01
      -3.6046210006506110e-02 1.4201482422219838e-01
      3.1603398830992380e-01 -3.9179201763472554e-01
      -3.9150921070906969e-01 2.1295273861274425e-01
      -6.2788213803398038e-02 1.9803111152283071e-01
      -3.8427045149884631e-01 -1.2684257452412823e-01
      4.8591815044251135e-01 -7.0253421379002132e-02
      -2.4067918277970937e-01 1.3287194988737205e-01
      3.7203956293936591e-01 8.2153789553540052e-02
      4.1255037837485083e-02 2.9977845120403640e-01
      -3.2338521741151904e-01 1.7192698317907790e-01
      -3.7032785195101986e-01 7.0904801053906119e-01
      -2.6234005354272755e-01 -4.5439635189158512e-01
      -2.6933852868855714e+00 -3.2790315230321593e-01
      -1.8212888068317859e-01 1.3922599945782987e-01
      -2.4864092656068071e-01 -4.2456629056696832e-01
      1.9979952579257585e-02 -2.8554338703985577e-01
      -1.3693380334409019e-01 -8.2269566894180732e-02
      4.4268075233378573e-01 6.9102455032186025e-02
      3.3654851635123750e-01 1.1302135948549229e-01
      3.0109538811816744e-01 5.6385554953829624e-02
      2.9545845458019922e-02 -8.0005856998288494e-01
      -5.3590056995967661e-01 -2.7736037933007718e-01
      -8.8798159565091336e-02 1.3760020118839573e+00
      1.9465668655060719e+00 4.5323508102286020e-01
      -8.9345333746340183e-01 -1.8238855687892630e-01
      5.9369973953511468e-01 -6.8014423668950963e-01
      7.1334562742588070e-01 4.6146747058179921e-01
      2.6040857610841373e-01 -5.3176946066376118e-01
      2.3869351892744044e+00 -3.5372143811396783e-01
      2.3629740384009171e-01 -2.8288319004365181e-01
      1.5022350480527960e+00 1.0295897567005495e-01
      2.1335028401320225e-01 1.0766042038664010e+00
      1.5472803160112669e-01 -6.9579427796833182e-01
      9.3748045712467448e-02 -4.4746401611358760e-01
      -1.0043915484663977e+00 3.0854795233941040e-01
      -7.2954699585810856e-01 -1.7758069258683673e-01
      3.7694256903085915e-01 -1.1955027064165158e+00
      2.0799819439854347e-01 5.7154451844145283e-02
      3.1360265503602658e-01 1.0314057291142016e+00
      -1.4699324972556448e-02 -7.1660632906269317e-01
      3.0585395339322745e-02 -1.5720735240926165e-01
      6.7951938372226273e-01 9.0466109762229796e-02
      6.0805224458806739e-01 -5.0122316933439670e-01
      3.3161049790385522e-01 1.7001445093882124e+00
      -2.3173066505549902e-01 -7.9025825796761682e-03
      1.2975608915151100e+00 -5.0793983120072783e-01
      -4.1753759524547412e-01 5.0584339579286808e-01
      -4.0119848627751908e-01 -7.4153060077772948e-01
      -1.3248817842756086e-01 -4.6974810684609236e-01
      1.5992727636451251e-01 -9.0702140105300544e-01
      3.5166238432275287e-02 5.5206382860329095e-01
      -9.4616088431010181e-01 -8.3126006367019867e-01
      -4.8995248687429292e-02 5.1757455625854522e-02
      -1.1428812283283452e+00 1.5064198362695032e+00
      5.6701386161099276e-01 -3.4493152467872490e-01
      7.7680739651217379e-01 1.2735694199323938e-01
      -2.7581053255544413e-01 -3.0552945091658013e-01
      3.6569850436336262e+00 -9.4278842834710652e-01
      -2.6564521062265800e-01 -1.3228662137855349e+00
      1.5900815395933012e+00 6.0386982572814785e-01
      -2.3124176590634557e-01 -1.1172339611148905e+00
      -3.9347957860874865e+00 -1.0397147659312778e+00
      1.4304555586723160e+00 5.1249509094081958e-01
      6.4224599032252061e-01 -2.2840875816468201e-01
      5.9028042622213905e-01 -5.8614488344631444e-01
      6.2338880744943281e-01 -1.8594854843755232e-01
      -6.3027524504609875e+00 4.8466783378042735e-02
      6.1953819248181430e-01 5.3524930929467973e-01
      3.7229513634424849e-01 -2.3082869698963409e+00
      2.9346310169693723e-01 -5.1556387138645010e-01
      -2.0227232429082931e+00 8.5436194821223344e-01
      9.4157931995588007e-01 -3.2229005371754327e-01
      -6.6201714915855900e-02 -6.1377693131294917e+00
      4.7450625356131676e-02 -5.3838782800174223e-01
      -5.2924623589541719e-01 8.0290882041757405e-01
      3.2136056754386549e-01 1.0837281000074921e+00
      3.9107426606894502e+00 3.1212946709658840e-01
      7.8775226356527761e-01 -2.7490381551056609e-01
      -4.0440034472469044e-01 -7.9550579039246261e-01
      3.0153181285711705e-01 6.4706662020733596e-01
      2.1432395738866611e-01 1.9423765042046465e-01
      1.8547316477431272e-01 -1.3636802329692939e+00
      -1.5390777540564934e-01 -1.6605801853938054e+00
      -7.2248764045869285e-01 -1.9238122309055686e-01
      -6.0147658802381243e-01 -6.3235320627503433e-01
      -1.6774307340536461e+00 1.2180009844870379e+00
      9.0114679516571028e-01 7.2276905293378191e-01
      -5.4240302408087526e-02 -5.6651359061013506e-01
      -2.8148790437921301e-01 -2.7465879410667476e-01
      -8.1294356499889204e+00 8.1190322177903951e-01
      5.0193910278095200e-01 -7.9377089619542274e-01
      2.3060787885711806e+00 -6.4739220416381460e-01
      -3.3185168791070202e-01 -3.1467091423782051e-01
      -3.2039773509578234e-02 -3.1314593448834551e+00
      -2.8609451359174191e-02 9.7204707991584527e-01
      2.6950845759412436e+00 2.2235316740246333e-01
      -8.2567155218921351e-01 -2.5727317630475203e-02
      1.8805131749344532e+00 2.2475731104575654e+00
      2.8510780797338882e+00 1.5218167032192420e+00
      5.6240015032025048e-01 -5.0731662406813660e-01
      -4.8240288236035873e+00 2.4581829354590159e+00
      6.3231406745068097e-01 7.0140840518083269e-01
      1.4249599114338694e+00 -6.4372633811614732e-01
      1.2174795487859229e+00 1.2163851164577038e+00
      1.7851334515205457e+00 1.6896963657238724e+00
      3.7478750750810969e-01 -1.0577471084107681e+00
      1.4918932658040007e+00 1.3335697870461911e+00
      -2.4969102841355046e+00 1.1781095018126024e+00
      2.2149005507435759e-01 7.6519919508949796e-01
      -8.2606608440799589e-01 1.7078833705139866e+00
      1.2131602410417790e+00 2.1005926177268188e+00
      1.4464233959051065e+00 -2.8163156689893007e+00
      -4.4659140138507539e-04 1.0423101824099128e+00
      2.2403251489050975e+00 -2.2107501175412929e-02
      2.9027222492468687e+00 -2.5449105091684605e+00
      -4.1000942358246784e-01 -1.5313457325258182e+00
      2.2338536676852913e-01 5.2678123299954394e-01
      -2.7299767132010517e+00 -3.1036882490098772e+00
      4.7097768885690527e-01 -4.3904788947113014e+00
      -1.9363640191552547e+00 -4.2081535793222696e-01
      3.1697195942279541e+00 -1.2272342907199882e+00
      2.5257916328186498e+00 -9.4224313455924735e-01
      -1.7310237620371540e+00 1.8320292075804951e+00
      -1.6297428094794533e-01 -1.1629962815430879e+00
      -2.3266613978252496e-01 -4.0952897645287384e-01
      -2.9450037836343723e-01 3.2018264991711440e+00
      9.6440566359240876e-01 -1.7449202065808285e+00
      5.8671074694571057e-01 -8.2720449578906841e-01
      9.5464814046143098e-03 -1.6159854872681108e+00
      -2.4384153696020912e+00 -1.1587528180381055e+00
      2.1751474839910229e-01 2.3771953342173666e+00
      5.2282857459364596e-01 -1.6513915372396101e-01
      -9.7951533440829652e-01 7.2759415971209607e-01
      3.0749096690087696e+00 3.2735311150596909e+00
      5.1962731947116947e-01 1.0467783088160338e+00
      -1.8511913351768698e+00 -3.3809874337784479e-01
      -2.7647657214213193e+00 3.8993529253847972e+00
      -5.6028802702651181e-01 6.8041405651462716e-01
      2.9783320970355680e+00 -1.0214953346620164e+00
      -4.1949504755695799e-01 2.4007605002931212e+00
      1.2856749576612581e+00 3.4446440450081388e+00
      3.1689611958729125e-01 -1.1070342118846084e+00
      3.1860918201533170e+00 3.5254685440104561e-01
      -4.3449151758056690e+00 2.4466398354926833e+00
      -1.3177938982930559e-01 3.6199337453391665e+00
      6.1946098341255762e-01 1.2670469444557220e+00
      1.5546109184907742e+00 1.7941303825965311e+00
      1.0356232312036948e+00 -2.5093792828155266e+00
      -2.5613782966174279e+00 3.7838591898208751e-01
      1.1658543204506242e+00 1.0174759395083968e-01
      5.9692581618911267e-01 -1.1622975644329074e+00
      -7.0712203401677964e-01 -2.0516051190500959e+00
      -6.8197391119080708e-01 -1.5659366581261777e-01
      -4.4387774724735332e+00 5.9489258849348425e-01
      8.2479634544376623e-01 -2.3126654713800049e-01
      4.2030839492084904e-01 -8.9924181731104846e-01
      4.8769770126004168e+00 -1.2455609047062288e+00
      6.8230423606767576e-01 -3.4655476396184191e+00
      -3.5116296114768555e+00 -1.0694290193071669e+00
      -1.3278400987487022e+00 -3.3904577995565888e-01
      1.4520435385760019e-01 1.1651611908288846e+00
      1.4794168321171786e+00 -1.2779849225618352e+00
      2.0099558015046637e+00 -2.7721545542048731e-01
      4.0435645170793871e-01 -9.2689645472677706e-01
      3.0115621355023776e-02 -1.5832158137588468e+00
      -3.6221259910914778e+00 1.8254368486763313e+00
      7.0553508207534740e-02 2.6339441290547319e+00
      -9.4362306451454991e-01 -4.9585051689932441e-01
      -1.2076041275967730e+00 1.3895639973029050e+00
      1.0243610965607686e+00 1.3955669062969265e+00
      -1.4908441315736778e+00 -1.2815328749342609e+00
      -2.0675501895387072e+00 -4.9901579358052978e-01
      2.0140386750322459e+00 2.5520984469982886e+00
      -7.4388309366693894e-01 1.0019281086699359e+00
      1.7967990687902016e+00 -1.5894644697007456e+00
      -2.6903610514936732e-01 6.0041784500947126e-01
      6.7562691325238333e-01 2.4777199410435231e+00
      3.3011776500799506e-01 2.0513075739490474e-01
      3.6493652937306309e+00 -2.5896712632626889e-01
      -1.9627717785635532e-01 1.1782698187606711e+00
      -7.6628481349714422e-02 2.0375663733607086e+00
      -1.2119160175514444e-01 1.3155761733186020e+00
      1.2047699944130472e+00 -6.4237755842060462e-01
      5.0573313226260319e-01 1.0343457513372127e+00
      -3.4573871571817665e+00 3.2492476261509495e-01
      6.9046984971751235e-01 -1.9355903392279822e-01
      -1.0380291276582028e+00 1.6050932102863183e-01
      -1.2372322533540825e+00 -1.2432869394966317e-01
      -4.6866940791493600e-01 1.1205751107953277e-01
      -4.2601326440612919e+00 9.9915901593627066e-01
      1.3992784595664374e+00 2.2076260306881093e-01
      1.3151275355803866e+00 -1.1785479079254058e-01
      2.4919261835126827e+00 9.9823071891658033e-01
      -3.4482403446994653e-01 -2.6800277507282710e+00
      -1.4632985141720636e+00 -3.1912958080737690e+00
      -1.6054716348753328e+00 1.1994955356192094e+00
      4.1200688834977066e-02 5.3291770278904238e-01
      1.6114161136998659e-01 -1.4343382077277880e+00
      3.7404846699240935e-01 2.7007995904231524e-01
      -3.2100828635144629e-01 -6.9377159549277756e-01
      -5.6788618458659901e-02 2.4195978325986722e-01
      -2.7897289578176201e+00 1.0605137647437435e+00
      -9.6143272983804554e-02 -7.8815485446027525e-02
      -3.9526804512084670e+00 -7.8636598695603954e-01
      -5.3661804239730015e-01 5.5343601135950882e-01
      1.0909117985070953e+00 3.1077647715987267e-01
      -2.8294938818848094e+00 -2.2094662166912364e+00
      -1.4406929853044066e+00 -3.4230471905221257e-02
      2.4991383045799047e+00 -1.0938214365137375e+00
      -1.7161554456227071e+00 6.1212771172666258e-01
      8.3556498109982535e-01 -1.0497935139298988e+00
      -7.1881099303147888e-01 -2.9148316634433719e-01
      2.5635611649602097e-01 9.5556567233849099e-01
      1.1769720703179065e-01 7.0636161927236790e-02
      1.2582403753359888e+00 -4.3793804048102047e-01
      1.6183638358281567e+00 5.1562386076380629e-01
      -4.1103364254729985e-01 1.9136047477986080e+00
      -2.7275762147998278e-01 1.4198436523363043e+00
      4.3674422028256382e-01 -1.2502950376579260e+00
      1.4635587727275703e-01 2.1573156032569587e+00
      -1.4773708614594292e+00 -1.7982451671985880e-01
      -5.8970730084597278e-01 -1.7803734383335310e-01
      -4.2793686291391637e+00 7.6913135121805232e-01
      -5.2670475273078265e-01 -1.0952985322706316e-01
      -3.7810241970779490e-01 1.2233187317234377e-01
      3.2298725490524871e-01 3.8961285276777546e-01
      9.5794096748511393e-01 -1.9712485366354965e-01
      1.1047999556269570e+00 9.4404285742441885e-01
      3.7468590147001851e-01 4.5164334679094453e-01
      -7.9782559972236311e-01 -1.7928101788069258e-02
      -4.4210558984758447e-01 -2.9433213830041263e+00
      1.4700417819210951e-01 1.3165628009874630e+00
      1.4079895745395649e-01 8.4687653133135798e-01
      6.7972429422219105e-01 -1.5715741774449925e+00
      8.3215675895253238e-01 -1.8064517046500878e-01
      8.4559097682809420e-02 -5.1628567839845085e-01
      1.4059128474448528e-02 1.1811182770357158e+00
      5.1778650752643131e-02 -5.7011830425927823e-01
      -3.3672447925823762e-01 -1.2588978730428673e+00
      -1.3045311006892983e+00 -1.7742374319518024e+00
      6.0328457905004040e-01 1.8755614276675023e+00
      1.1969046134143548e+00 -1.0809657903800622e+00
      -1.3974017843675808e+00 -1.7309681311254110e+00
      -2.1395949475944237e-01 -4.3639321454916502e-01
      4.8287053106728312e-01 -1.4695633013091300e+00
      -1.1027673947198635e+00 5.2496067112578659e-01
      1.6726278619308910e+00 -7.8324218213433694e-01
      6.2943854702369531e-02 -1.0124494928469641e+00
      -2.2535180449860021e-01 -3.9424090521120292e-01
      -1.9157151285269464e-01 -2.4269218060557476e-01
      -1.0475207093990953e+00 -2.8336471221006193e-01
      -6.9381380232168310e-01 4.0741048623187598e-01
      -2.1344322927779844e-01 5.6178877854115084e-01
      -1.0818585981732667e+00 1.3554158617279479e+00
      7.0237780948165818e-01 -1.2416063439876572e+00
      -5.1950765913021424e-01 6.8878242171485859e-01
      -4.4342296039821194e-01 -1.1292913112682611e-01
      4.9848076862734764e-01 -4.8138982338732067e-01
      -7.1089968380948199e-01 -5.9734964774192834e-01
      -3.3202367937358257e-01 2.6706444374804983e+00
      2.7476749138237774e-02 3.5948153319766946e-01
      9.4087928979230484e-01 -5.5178543154709758e-01
      7.6117697496475878e-01 -1.2396210485734189e+00
      4.8115670295791751e-02 1.0115505286396493e+00
      -6.2076227743183543e-01 -3.0108558338867492e-01
      1.0954186805632464e+00 -5.5844841531405683e-02
      -3.5328871940803097e-01 9.3844961448799100e-02
      1.4142481739562827e+00 1.1735254576893044e+00
      -1.8566313298149573e-01 -6.9722495069969648e-01
      1.9999014111162767e+00 -1.9142905871890576e+00
      -7.6271154111589701e-01 -4.6028185008878630e-01
      6.0677500535839890e-01 -6.2186836657771050e-01
      -3.7496634683035636e-02 1.7337183771032145e+00
      -1.3543465244483285e-01 -1.1642250882709320e+00
      -2.7637219686966759e-02 -8.2486735687008328e-01
      -1.5467060158951160e+00 -2.3893599102710725e+00
      7.9218636730029846e-01 3.0562110642300429e+00
      2.4161170935314886e+00 1.6395418067807621e-01
      -1.1671052916446025e+00 -7.8115840144730020e-01
      -1.0963082627979281e-01 -6.4939989732114078e-01
      -1.7186540821976288e+00 -1.0128181910141918e+00
      -1.5190277616976391e+00 7.9524786353274790e-01
      2.6936863050122506e+00 -7.8122763158386921e-01
      3.4946845691450729e-01 -1.7122374846926582e+00
      -9.6266262335847036e-02 -4.5730697629172029e-01
      -6.2729960448344468e-01 -8.1810344907333896e-02
      -1.0178261979106829e+00 -2.8424876021379691e-01
      9.3064174997376670e-01 6.9055020419732194e-01
      8.9422127846697272e-02 1.3628141338158677e+00
      -1.3567966713330843e+00 1.5152706441315265e+00
      5.4387190918302364e-01 -1.4542555001182651e+00
      -3.5897981845479160e-01 -6.5433369368201033e-01
      -1.1252120864561339e+00 -3.6472591089505280e-01
      1.1315658507764501e+00 -4.5076772760031492e-01
      2.6384784243190600e+00 -6.1573758125800504e-01
      -9.3482844110659069e-01 8.4394872173419000e-01
      9.9979243271272208e-02 6.2925539750363457e-01
      1.1860399610165484e+00 -8.8881206050043049e-01
      9.8142552804256100e-01 -1.6713362335211848e+00
      -2.7952500636945199e-01 1.0162810769870141e+00
      -9.1240657515244095e-01 -2.6914232682599748e-01
      2.1094197941020241e+00 7.9176925673473753e-01
      1.5368128307383435e+00 4.9209160046582029e-01
      1.2300971228959010e+00 6.6378982429443789e-01
      7.0630026683329739e-02 -5.7738754649751289e-01
      3.0541551958101927e+00 -2.2625808129872738e+00
      -1.1754889765895185e+00 -9.1492229964182403e-01
      1.2823692675973813e-01 -1.4212281737762096e+00
      4.6710404592405963e-01 1.5956999657722406e+00
      5.9857108587822860e-01 -7.6883068683485234e-01
      5.1723997771304053e-01 -1.5445273972718787e+00
      -3.7088821688810669e+00 -8.8934386791776276e-01
      1.4859687318122250e+00 3.9936168056000838e+00
      2.6357140012755402e+00 6.4269736551619983e-01
      -3.1388169320435528e+00 -8.6439081880811264e-01
      -1.1044365308525572e+00 2.0620292278081506e-01
      -2.6698433165599553e+00 -8.1923312030302375e-01
      -2.7766020349477221e+00 9.3518732008043348e-01
      3.5813877932731599e+00 -7.5244898029568796e-02
      4.4755951993433851e-01 -2.7638980007391103e+00
      1.2902343834874269e-01 -5.8627258746408606e-01
      -3.2219965879040879e-01 2.7048697585750275e-01
      -1.2501255006769292e+00 -5.4981848140092149e-01
      1.0757367716661033e+00 -8.5949411426640490e-02
      -1.3620390025500690e-02 2.8633844947005698e+00
      -9.5118020469505737e-01 6.4840869134333268e-01
      1.0076387643838731e-01 -2.1025465484780201e+00
      3.3087230092398562e-01 -5.1886991758474399e-01
      -1.3553362691899284e-02 -7.9620106578461636e-01
      8.0766904004470996e-01 -3.6287478938469279e-02
      5.8086998878963874e+00 3.7808993297025406e-01
      -9.2447071540106984e-01 -9.7098647629636603e-01
      8.2524218354759993e-01 -6.8603442813837423e-01
      2.7561940704422563e+00 1.7690883147459937e+00
      6.8068245891221035e-01 -1.5345352160830108e+00
      3.1143653532643549e+00 1.0661790685316417e+00
      2.4476086060382998e+00 -2.4593906172206792e-01
      5.8215048741371413e+00 1.4801335127907700e+00
      1.7284291333110728e+00 -8.4025573130051212e-01
      1.0026110916231803e+00 5.7886697395924192e-01
      5.8594326079966408e-01 -3.1902334743100405e-02
      4.0836894680728797e+00 -6.3479016911758268e-01
      -7.6184585448557307e-01 -3.5740680783887413e-01
      -2.7467476074491457e+00 -1.6766195143532587e+00
      7.4156570654192744e-01 -6.9709697788992220e-01
      -3.0315500006024521e-01 1.6252148699530162e+00
      1.1792833869034012e+00 1.8522240785352850e-01
      3.7048519057933027e-01 1.0311561023889937e+00
      1.5402186586685187e+00 1.2540721402998907e+00
      3.6658597315350567e+00 2.2999341320626492e+00
      3.9573044246272451e+00 1.9656896935017263e+00
      -3.5633630352882215e+00 6.1141714651491530e-01
      -2.3756174460744619e+00 8.1738604712495166e-01
      -2.5391112233751256e+00 8.2859077777625223e-01
      2.3562753825752547e+00 8.7350311801295280e-02
      1.8015523183761200e+00 2.1929633559391243e-01
      1.4769853829502275e+00 7.6813863042447184e-01
      -1.0043591035400774e-01 1.5285253265960694e+00
      6.2139312609884667e-01 -4.8451399261691508e+00
      -1.2139366066474813e+00 2.0807034566738153e-01
      1.2511686311774843e+00 2.4683446499993025e+00
      -6.3757725403681353e-01 5.2546905994384496e-01
      1.0394603768941231e+00 8.8703288380614453e-01
      1.8962168248918614e+00 -4.5509411195321885e+00
      -6.0364802384866778e-01 3.7970176904285891e-01
      -3.8335466698073345e-01 5.8417096652736522e-01
      3.8549039004034817e+00 3.2610935644542329e+00
      -8.7869721923564637e-01 -2.8083174588779625e+00
      -5.0608776195642480e-01 -4.6519350563583341e-02
      5.8786930016279892e-01 1.4281133421699080e-01
      2.3916619972222161e-01 -6.4638314013354348e-01
      1.5359426149616577e+00 8.1912683878046522e-01
      5.5272728725070399e+00 3.7129406352509884e+00
      2.0968485044379976e+00 -1.0303078090440461e+00
      -6.6162505224832802e-01 6.8808449907061286e-01
      -4.5442190733726406e-01 -3.0277958551060030e-01
      8.9094757515359579e-01 1.1514714782669186e+00
      3.1193201541298610e+00 -3.5472862565292131e+00
      1.6575495800745710e-01 4.4298009149278244e+00
      1.3381020987420186e-01 -2.0213297214033321e-01
      1.5097926057348612e+00 -8.0521279560398659e-02
      -8.4283740800470541e-01 9.4879559346994546e-01
      1.5788627335331138e+00 8.0702145933503122e-01
      -8.1431943468672452e-01 2.9227662192312487e-01
      3.9545082723495567e-01 -2.8427413669909960e+00
      3.9480630364875595e+00 1.4613553033389235e+00
      9.7198874925456735e-01 1.8017422028989929e+00
      1.7531019451902272e+00 1.9294483127441402e+00
      -1.6769606691295520e+00 5.1259087562290162e-01
      1.7432892270629616e+00 6.2341846304550874e-01
      2.5782919913811173e+00 5.6712168251738371e-01
      1.4368967912901871e+00 -1.2988339860481417e+00
      -1.8841626198381722e+00 7.2659853157309306e-01
      -4.2625709354800090e-01 3.1234856493346164e+00
      1.7507595745423159e+00 2.3700160941545221e+00
      1.2553261553206581e+00 1.1180477036099214e-01
      1.5068083451198353e+00 2.7425435792112300e+00
      -1.3053098490956011e-01 -1.7843222747994383e+00
      4.9194785228657700e-01 -1.5194589775572689e+00
      -1.9113838619630394e+00 -1.9680888801888934e+00
      3.5969860031027201e-01 -5.2380335305478254e-01
      -1.7449743452403299e+00 6.8132277191991331e-01
      3.0156573655293348e+00 1.6988750334172127e+00
      -3.1038370061861009e-01 -2.9364084271400066e+00
      -1.3990205154745539e+00 -2.5100558385861187e+00
      3.0519681791055575e-01 8.2198855208370569e-01
      2.2360827822149781e-01 -3.1228831227186099e-01
      9.8675670275518701e-01 -1.3614048359512826e-01
      2.8084017721266887e+00 3.3527238739902683e+00
      2.5216479092099355e+00 -6.0123908831281248e-01
      9.9269715415132553e-01 3.1321481302545120e+00
      -1.1782131760869881e+00 -1.6655638176775506e-01
      2.1046841653724995e+00 1.6449074791574121e+00
      3.5800459729819196e+00 1.1851639347545169e+00
      -3.3310730106404547e+00 1.1288267981547220e+00
      5.9697431936704426e-01 -8.5043962460755074e-02
      1.2898537765681568e+00 2.2644927994905806e+00
      2.1741190998616775e-01 -3.5630801445529459e-01
      1.1235220939715629e+00 -7.8818926948902468e-01
      5.1881454737134930e-02 -4.8075144315288892e-01
      1.8462943738883595e+00 -7.1885925541808937e-01
      1.2032893303262657e+00 1.2282668972607057e-01
      4.6970873143948272e-01 -3.2103604597920954e-01
      2.2408260162044122e+00 1.1387912068415926e-01
      -7.5314979275728555e-01 -1.5335105809588281e+00
      6.4832286791860627e-01 4.3338488804797354e-01
      2.2964019590015172e+00 1.7801374602319950e-01
      4.0413684542360273e-01 -1.5860315538585072e+00
      -2.0727104157032090e+00 -4.0733521109731752e-01
      -4.8000265748868615e-01 1.7530003893101465e+00
      -2.9337899424891220e-02 5.7687758852788218e-01
      2.3570149176746522e+00 -1.2249968266642131e+00
      9.9905108981343627e-01 9.0909311853334895e-01
      -3.4045207332704380e-01 1.4787621446876570e-01
      4.6819668424627919e-01 -2.4948033533956155e+00
      -1.9885456332675884e+00 1.4438197193003963e-01
      3.1659547522908932e-01 -6.8000619513104710e-01
      -9.7617694652108533e-01 1.0568734526953463e+00
      6.8876435035368888e-01 -2.6564615854744239e-01
      -5.1928031063292079e-01 8.8506121111960549e-03
      -1.0482898281248094e+00 -2.9781754895044955e-02
      6.9505118712735714e-01 -3.4708841421267161e-01
      3.0793192809644215e-01 6.1850848287694327e-01
      -1.3497887196083629e+00 1.5053291693805879e+00
      -1.2628599426123273e+00 2.0315778186645890e+00
      -6.9091807940924721e-01 1.9552967608519989e+00
      2.7225819404781677e+00 2.6705838557452468e+00
      2.0988896345328349e+00 1.4536952127873226e+00
      6.8088520271241948e-01 1.2811889314034646e+00
      2.6437632170011010e+00 -4.1362117070890803e-01
      -2.1064450907304990e+00 -1.1155349505416234e-01
      -7.0453114535361461e-01 -2.8942262906440247e-01
      7.3606701768955640e-01 1.8244942213784010e+00
      -1.0222285030451106e+00 4.8407933808242432e-01
      1.3007879210565376e+00 -1.6223962821239449e-01
      3.3397399262023314e-01 -7.0951772588150153e-01
      1.9367101167323926e+00 3.9687131745720783e-01
      -2.3601612889059526e-01 -8.9397260139795542e-01
      -1.3154406095880053e+00 -7.8603170566309588e-01
      6.2328725054005052e-01 4.1809187400031744e-01
      -5.5513072183401890e-01 -9.8255631367348939e-01
      4.2052156175444450e-01 6.3943080907092842e-01
      1.8010110927439114e+00 -4.5695979360436223e-01
      -8.2637918394986476e-01 -1.2087699024851009e+00
      -2.1713129181652127e+00 2.4725971223876198e-01
      -1.0310590719420520e+00 1.4291043402949757e+00
      3.0651195142141369e-01 -9.0367069872969463e-01
      1.7817779945397436e+00 -1.0623641466462854e+00
      1.4630840497642528e+00 7.0426865373473702e-01
      -5.0224849278869377e-01 4.3139412391836074e-01
      8.5793860659140209e-01 -2.0515803932324039e+00
      -1.2722169696841366e+00 8.1155505561000951e-01
      -1.1629629731685136e+00 -1.2002380609099592e+00
      -1.8697081975937513e+00 1.8695715334063721e+00
      -4.2272205442460004e-01 -6.2741050799371589e-01
      -6.1593431084442662e-01 1.1946251523725078e+00
      -9.2306204037348327e-01 -5.2545118071555863e-01
      7.6194350720179671e-01 1.4563305744826127e+00
      4.5367184738568667e-01 1.1671119268438239e+00
      -5.1141400309786322e-01 1.3277568431667055e+00
      -2.1859380165964022e+00 1.3093577589792724e+00
      -2.6278695099536198e-01 1.7317176688600324e+00
      1.9348179137571273e+00 8.5746237962608984e-01
      2.1621919368498790e+00 1.5239985511518759e+00
      8.6080478230226731e-01 1.2005687675082375e+00
      2.2544117382574131e+00 -3.5355233392569518e-01
      -1.3760943920992206e+00 5.2692697297912539e-01
      -3.7896988094538375e-01 -2.5805270839954982e-02
      4.2120090415421352e-01 -2.6871648335643533e-01
      3.5101496021258050e-01 2.2463420306192422e-01
      2.5591592089837739e-01 -5.8854204960738432e-01
      -4.4132407408184743e-01 -4.3098209257563985e-01
      1.3266702147455553e-01 2.0762619400208476e-01
      -5.0666869579093765e-01 -3.5897487079820145e-01
      -4.9141209347730908e-01 5.1649084170648708e-02
      -6.4251728225744473e-02 2.1381004403868981e-01
      1.3102154375684413e-01 -8.5291924086820881e-01
      3.9206288592177552e-01 -1.8759464572211969e-02
      5.8252075147810934e-03 1.2507530488801766e-01
      -4.7834445590134034e-01 -1.1202901464114048e-01
      -7.2133085141467945e-01 -7.7156121802625410e-01
      -4.0952184195694102e-01 2.4989835332516308e-01
      -7.7190179969289641e-01 -4.4819881976584258e-01
      -3.5650752709317786e-02 -4.4568173036802483e-01
      2.6449699586915348e-01 1.9060923165506410e-01
      5.5981483016029406e-02 5.1194084411618490e-02
      4.3767739513355525e-02 -4.0974301580436345e-01
      -5.7117544990713476e-01 1.9948393121675620e-01
      -3.8764549325886649e-01 -4.8252469135932063e-01
      -1.1745383614763276e+00 6.2510712544395075e-01
      -5.2271436893409950e-01 2.9072813086281113e-01
      -1.1803897439011310e-01 -1.3600075630236783e-01
      -3.1603629658514765e-01 -1.0866526895008788e-01
      1.1806398974283447e+00 6.5964802203382444e-01
      -9.7100136991353003e-02 1.2072852130964447e+00
      1.5073130793233422e-01 1.3820139541288345e-01
      -8.7187829668648048e-02 1.4016295928943856e-01
      -6.7236017963097849e-01 -1.2377254467562261e-01
      1.9374723856104576e-02 -1.9457750574879601e-01
      6.1342869466556815e-02 1.8723267636166713e-01
      2.8840127761566148e-01 2.7344455793551781e-01
      7.0842354330577217e-01 -2.9186032925128885e-01
      -3.4678689209812896e-01 1.1554737166447385e-01
      -2.6696209932115778e-01 6.6813449541354131e-01
      -5.3200031462800934e-01 -2.0287664687526855e-01
      6.8907839866060860e-02 3.7986216120580213e-01
      -4.9203001576747080e-01 6.5193121086991199e-02
      4.4280392277357250e-01 5.9233129429036735e-01
      -2.0157195692325869e-01 -1.0272042578273850e+00
      -7.1044762424102459e-01 -1.7470290390687560e-01
      2.3395874506197112e-01 1.3592167055340873e-01
      2.9258793337440125e-01 1.3017066166441829e-01
      4.5839174425739876e-01 3.2556355865674225e-01
      4.3912835530367456e-01 -5.9371386794139902e-01
      -8.7105686155863371e-01 2.5315423661613240e-01
      -2.8657566756392222e-01 3.1489653066067580e-01
      2.2459755460118966e-01 2.8472230353872469e-01
      2.7386053313230913e-01 -3.0322493143393353e-01
      1.5239390690391530e-01 1.2986549751918156e-01
      -5.5994389512081888e-01 2.2747127740799952e-02
      -6.8403044425947990e-01 1.5734285714357615e-01
      4.5606173266732153e-01 -7.3353529675621210e-01
      -6.9009424511949724e-01 5.3652427289471871e-01
      1.8671304321015658e-01 3.9071637375289991e-01
      1.2469362179148019e-01 3.6240879056293479e-01
      -4.9449889637615591e-01 -4.3884572999687488e-01
      -1.0344570732359923e+00 3.0856862208421915e-01
      5.5050495288764967e-01 -2.5152549697545973e-01
      5.3022414021159014e-01 1.5647426120121689e-02
      -3.4078426639650139e-01 1.0615899583879741e-01
      -5.4009844939832541e-01 8.2093876729242854e-01
      -8.9167098875762088e-02 -3.8095480614216892e-01
      5.8211419293155070e-02 -4.5967904147939559e-01
      -8.0947666792970063e-01 -1.0274525823706625e-01
      -4.7901271976980581e-01 -2.0255133215511167e-01
      -3.3836747407773932e-01 -2.8005357944421405e-01
      -4.3268504989699930e-01 -6.0466718244058459e-01
      1.2207308818876977e-01 6.0769717524563160e-01
      1.8556573933617374e-01 9.5963801508842136e-02
      -2.4413984636692515e-01 3.3554691753915211e-01
      -3.4162044774094603e-02 -8.0707594587963088e-02
      -4.1789582996832447e-01 1.7254009882612453e-01
      -1.6332564094976645e-01 1.7388247490971540e-01
      -2.7544507570263904e-01 2.5922807992116031e-01
      -3.0302495485000014e-01 -4.3320171952717451e-02
      -5.3149279187231646e-01 -2.8051305619350392e-01
      -3.0423803567382329e-01 -5.8992753316026367e-02
      8.9336806177494579e-02 -1.0967672009942464e-01
      -6.7499302372743568e-03 1.8783622997703786e-01
      2.7571802329686729e-01 -3.9904015449574387e-01
      -5.2988973449389916e-02 6.5179938157196826e-01
      -2.7789777568107066e-01 8.3097852604132286e-02
      -1.0291905189338654e-01 3.2101226537962263e-01
      4.4692757583093733e-02 -2.3939381174246441e-01
      3.6811859539859865e-01 -6.2596468090013402e-02
      1.0298341364816879e-01 -2.2902168706903817e-01
      -4.2302239601508293e-02 1.4456544614203790e-01
      3.3081911726310109e-01 -3.8246001824782244e-01
      -3.6996865382209027e-01 1.8431046657092129e-01
      -1.2219677442771752e-01 1.7825008044649765e-01
      -3.2966652634228077e-01 -9.8455013262170696e-02
      4.9552313127113140e-01 -3.7241278663762548e-02
      -1.8984057373367524e-01 1.3228783745959280e-01
      3.7089557255484595e-01 6.0813490892169537e-02
      1.6530081549213056e-02 3.2440497243725031e-01
      -3.2625085406019466e-01 1.7326089721597493e-01
      -3.1523409570989697e-01 7.2648632563508742e-01
      -2.3435957818162809e-01 -4.7044403267399937e-01
      -2.7238780145016044e+00 -3.8709803752764566e-01
      -2.4330355519348382e-01 1.9365475214270128e-01
      -2.3361598872291128e-01 -4.0606178109672503e-01
      8.9142708228556536e-03 -2.9684341139956688e-01
      -1.7150091558758110e-01 -1.3832829466555627e-01
      4.4222756041795269e-01 5.6048592180049296e-02
      3.2697408888554080e-01 1.0312925871023272e-01
      2.6511522178666541e-01 3.6965259220674174e-02
      6.6606985561012494e-02 -8.4188935065632553e-01
      -5.3212658376452571e-01 -2.8419254129829608e-01
      -5.5302025367053621e-02 1.3717073818805250e+00
      1.9205862049748332e+00 4.7123423651735458e-01
      -8.9513339414143822e-01 -1.8151924939135911e-01
      5.2548172698503204e-01 -7.2679710280345677e-01
      7.4411129655056230e-01 4.3961395940848513e-01
      2.9967421989386883e-01 -4.9628210213753843e-01
      2.4300573476060325e+00 -2.9769804665743482e-01
      2.1190072933897883e-01 -2.6194718519849547e-01
      1.5252308249587119e+00 9.7515062291844812e-02
      2.0843099755141978e-01 1.0356369126507807e+00
      1.1225818942720663e-01 -6.9173304569553806e-01
      1.1957746016686345e-01 -4.5428002412179130e-01
      -9.8672650589139754e-01 2.8976506134156260e-01
      -7.2708091430459809e-01 -1.1262306418212206e-01
      3.5764079015237188e-01 -1.2563309102462141e+00
      2.0728544532626117e-01 5.0613640404570497e-02
      2.6134905142904524e-01 1.0628992425334620e+00
      -3.0340893103888631e-02 -7.7199721970758550e-01
      -1.8178598073489927e-02 -1.3583991876897922e-01
      6.5739613180114997e-01 5.5879199704501885e-02
      5.5588673243534470e-01 -5.0705008251075834e-01
      3.0802530320703636e-01 1.7125938239544394e+00
      -1.7999514733196512e-01 9.6818091429391340e-03
      1.2517719165971122e+00 -4.5233193881366707e-01
      -4.3314595175090637e-01 5.1191233311805295e-01
      -4.1134251947385969e-01 -7.8694266267546820e-01
      -1.1226538638799516e-01 -4.6506040622573896e-01
      1.3239734622288718e-01 -9.4815692323927503e-01
      6.5497659437808164e-02 5.9211829494785040e-01
      -1.0063160293377014e+00 -8.4651943088151749e-01
      -1.7948441188087739e-02 1.2147909864410832e-01
      -1.1135234775081357e+00 1.5214135859208300e+00
      6.1751461471955105e-01 -3.6461523392352591e-01
      7.6872068286653250e-01 1.6932998834197918e-01
      -2.3896193514412470e-01 -3.3906238440862779e-01
      3.6848320803034786e+00 -9.6037711504820911e-01
      -3.0116044626942434e-01 -1.2953657172394446e+00
      1.5434665641074377e+00 5.6728060390335000e-01
      -2.5585774184604509e-01 -1.1009310219064412e+00
      -3.9525226220041776e+00 -1.0525822689018536e+00
      1.3886303763117944e+00 5.0012557049924067e-01
      6.1339267635799910e-01 -1.7439771131724910e-01
      6.2553055773244126e-01 -5.7789084297756366e-01
      6.3794746928428336e-01 -1.2376051613666084e-01
      -6.3008761271056963e+00 4.4805820610240618e-02
      6.1747547677930936e-01 5.4350788233013803e-01
      4.1215066807602752e-01 -2.3169661330925901e+00
      3.3345500299838826e-01 -4.8284517684736861e-01
      -2.0263296981667467e+00 8.7551547018702391e-01
      9.8917171312749608e-01 -3.1158810235955803e-01
      -3.1090895219299777e-02 -6.0776372950216837e+00
      6.6002265865755916e-02 -6.0658129394237548e-01
      -4.9514894278258609e-01 8.3280641212820350e-01
      3.9431405812191050e-01 1.0938252460550262e+00
      3.9131869342128618e+00 3.8296082085888250e-01
      8.6296086098436375e-01 -2.0879405325254741e-01
      -3.5017661888230933e-01 -7.8934598100053510e-01
      2.9711578910106118e-01 5.8196190517876933e-01
      2.5441204873715245e-01 2.0484650419711986e-01
      1.3857578577428584e-01 -1.3447120310702492e+00
      -2.0184226698557414e-01 -1.7019820955651064e+00
      -7.2418116490821771e-01 -2.0278334433215642e-01
      -6.4833919821288233e-01 -6.3403724275044127e-01
      -1.6523318553565893e+00 1.2263300004638693e+00
      8.9501729973695954e-01 7.3308243062897838e-01
      -6.3354715162582176e-02 -5.6855971736203559e-01
      -2.9898087400979351e-01 -2.7652654649892799e-01
      -8.1122592888786542e+00 8.2501519707897597e-01
      5.4895638975424488e-01 -7.8429408070751172e-01
      2.3498003674374179e+00 -6.3939760156958980e-01
      -2.9658074470148216e-01 -2.9072089248643357e-01
      -1.8750694511554731e-02 -3.1576741031033255e+00
      -1.7717850500461402e-02 9.8366352196075935e-01
      2.7008863709046951e+00 1.9154414203591658e-01
      -8.7947059921341864e-01 8.9903958260523012e-03
      1.8885429660574098e+00 2.2966023488296305e+00
      2.9148732945316764e+00 1.4984179707413425e+00
      5.2697548588859577e-01 -5.1314472939122802e-01
      -4.8210857480003728e+00 2.4530545319447334e+00
      5.8562543931550970e-01 6.5893173357077639e-01
      1.4125305616779011e+00 -5.9676061843526207e-01
      1.2653434603928484e+00 1.2348210326297391e+00
      1.8063299993514785e+00 1.7633314791106420e+00
      3.2969093341006067e-01 -1.0011300424007974e+00
      1.4753014189524238e+00 1.3088415558093400e+00
      -2.4923889143686311e+00 1.1912353921572472e+00
      2.2101768486895401e-01 7.1665355874099246e-01
      -8.1150040963145065e-01 1.7202755306460980e+00
      1.2197395884264737e+00 2.0805689455370469e+00
      1.4567987364442427e+00 -2.8436601394057002e+00
      -8.4540081854561772e-03 9.8363038591575380e-01
      2.2462045461228235e+00 -6.3573252519695311e-02
      2.9451354610972884e+00 -2.6117840337740827e+00
      -4.7022228630944729e-01 -1.5664951015144668e+00
      2.0350382966083511e-01 5.5594071069015361e-01
      -2.7000381107017439e+00 -3.1318068226412454e+00
      4.3201107876517331e-01 -4.3958592264300060e+00
      -1.8729309058653765e+00 -3.7541115277397447e-01
      3.1169221238159266e+00 -1.2335903262427146e+00
      2.5008818828016723e+00 -9.3469925015437583e-01
      -1.7737352922464760e+00 1.8156696011996256e+00
      -1.5466783917370622e-01 -1.1358040879902742e+00
      -2.1553482878640054e-01 -4.3001599494192716e-01
      -2.9494372631889665e-01 3.1525612766976812e+00
      1.0423118159751108e+00 -1.7691596537259850e+00
      5.2965996918810165e-01 -8.7719142134136152e-01
      4.1024782911601547e-02 -1.5953442523508745e+00
      -2.3774296910637158e+00 -1.1194846680050379e+00
      1.8975312527057275e-01 2.3582712978483484e+00
      4.4477397117552042e-01 -1.7813483883572720e-01
      -9.2801058642788248e-01 7.8253769675708762e-01
      3.1209512538957678e+00 3.2664467839100206e+00
      5.3401539072279947e-01 1.0190520164247252e+00
      -1.8213637692231157e+00 -3.4246659952811337e-01
      -2.7218370730884733e+00 3.9273094151431676e+00
      -4.9562625362098045e-01 6.7891265330467576e-01
      2.9755264945480508e+00 -1.0137316452192149e+00
      -3.9506031682260445e-01 2.4204515220172715e+00
      1.3197343810327893e+00 3.3661339434334749e+00
      3.6376132523895277e-01 -1.0727316100555724e+00
      3.1717309224694459e+00 3.0099475342416970e-01
      -4.3461146109383684e+00 2.4678003956772656e+00
      -1.1112968703841875e-01 3.6260805737623483e+00
      5.9530127480847839e-01 1.2963055047190088e+00
      1.5778919437620442e+00 1.8520519600662579e+00
      1.0447022926775837e+00 -2.5206163693862011e+00
      -2.6353022688459413e+00 4.4157087860148325e-01
      1.1580888560288711e+00 1.3628707730985887e-01
      6.3826702189934270e-01 -1.1965741658526905e+00
      -6.8636799306676877e-01 -1.9973160632073141e+00
      -7.0554355144043723e-01 -1.0108605100001355e-01
      -4.4122698153717472e+00 6.2107197745980203e-01
      8.0999458245324341e-01 -2.0935138568376543e-01
      3.9014005337388213e-01 -9.5812663669595100e-01
      4.8740402979266371e+00 -1.1907914317630723e+00
      6.9150043923999460e-01 -3.4322911919261561e+00
      -3.4656203476355230e+00 -1.0795171470258229e+00
      -1.3178440120634418e+00 -3.4271499713024789e-01
      1.2824974290774763e-01 1.2028340129002233e+00
      1.5377274040582287e+00 -1.2968672121129188e+00
      1.9739505320195390e+00 -3.2052528298531097e-01
      3.4796795331675506e-01 -9.3123102141164393e-01
      -8.6711288859823259e-03 -1.6051616484950586e+00
      -3.6381289120900995e+00 1.8580670884338832e+00
      1.0802910809301373e-01 2.5722319330795771e+00
      -9.7150952724507444e-01 -4.5834136957076416e-01
      -1.1945410361499107e+00 1.4367379563481530e+00
      1.0493975724003930e+00 1.4641840211324153e+00
      -1.5267093951237216e+00 -1.3402693644359287e+00
      -2.0520118476843270e+00 -5.2080502930968864e-01
      2.0189251732959419e+00 2.5037044407949400e+00
      -7.3288319034103311e-01 1.0526504674032142e+00
      1.8286198633310411e+00 -1.5768605022030628e+00
      -2.7258959480012218e-01 5.7939164639793583e-01
      6.5078474773956252e-01 2.4490199297723634e+00
      3.0466148722717878e-01 1.8225937128834827e-01
      3.6702872184569624e+00 -2.3146375034245084e-01
      -1.7620834192581561e-01 1.1292311258588277e+00
      -1.3604437657240162e-01 2.0337582616421890e+00
      -1.8134241569750748e-01 1.3877523634730660e+00
      1.1529913957632063e+00 -5.7902864609206217e-01
      5.3129135212283063e-01 1.0440671697039270e+00
      -3.4768648816326371e+00 3.3346308783622913e-01
      7.2158217740910646e-01 -1.8204611079366922e-01
      -1.0203102258959236e+00 1.4152442160191545e-01
      -1.2197316658668298e+00 -1.2547968073505203e-01
      -4.5196117842031885e-01 1.3780495921831731e-01
      -4.2600853393813578e+00 1.0274778523132826e+00
      1.3801294577750782e+00 2.3430497677095577e-01
      1.2855885555204405e+00 -1.1511641045303797e-01
      2.5598762424735000e+00 1.0110854957054218e+00
      -3.6476487989285894e-01 -2.6785192722093325e+00
      -1.4664989799956647e+00 -3.2413360597884919e+00
      -1.5949964046990752e+00 1.1931956805224726e+00
      4.1553784585327637e-02 5.1072089038983526e-01
      1.8315396948943910e-01 -1.4749132814862065e+00
      3.5968621058999306e-01 3.3905057205829398e-01
      -3.5738589912851271e-01 -7.0329524368038532e-01
      -1.0852432089992296e-01 2.0336271219034846e-01
      -2.7424951597765306e+00 1.0389010724501870e+00
      -6.9967233486935662e-02 -1.1589159191086300e-01
      -3.9400471790598530e+00 -8.4933955992244625e-01
      -4.9392618396299398e-01 5.5083271424591940e-01
      1.0454060899972553e+00 2.5609809977712039e-01
      -2.8983038017190412e+00 -2.2116054777029408e+00
      -1.4627720027596480e+00 -5.7065466238071655e-02
      2.5110609705919051e+00 -1.0309826394997395e+00
      -1.7046503154420345e+00 6.4112258905513508e-01
      8.4241608187980033e-01 -1.0295937862535098e+00
      -6.9510792340655325e-01 -2.9297168436344895e-01
      2.1700447903873307e-01 1.0134046240703829e+00
      8.1764198145571204e-02 8.5777475112532586e-02
      1.2470235994519028e+00 -3.7520030166194285e-01
      1.6142310716258745e+00 5.2162070552638917e-01
      -4.1173832596614884e-01 1.9634547461622847e+00
      -2.7873063776789408e-01 1.4392314233818420e+00
      4.5656822665510294e-01 -1.3016254145494921e+00
      1.5023332986673871e-01 2.1476531227631339e+00
      -1.5108775733618205e+00 -1.7489020356460191e-01
      -5.8767477554963066e-01 -2.0562596274533310e-01
      -4.3112847239191048e+00 7.7505161598147365e-01
      -5.7012052020468440e-01 -1.2164437979888570e-01
      -3.8271143694272214e-01 1.5237300923821556e-01
      3.2469271884056539e-01 4.0916060859018299e-01
      9.9616956346344299e-01 -2.0106586928641723e-01
      1.0754574348902093e+00 9.7482323020535255e-01
      3.1821598290790892e-01 4.2757327988512761e-01
      -8.1145251087713688e-01 -6.1772791219127210e-02
      -4.6311048298839724e-01 -2.9073609666109070e+00
      1.1374377070073217e-01 1.2702917628752621e+00
      1.6079407765403170e-01 8.4291037936118174e-01
      6.7793688756879877e-01 -1.5762390849793571e+00
      8.0170522666081878e-01 -1.5688786535390331e-01
      1.3447222555792615e-01 -5.0884816008731171e-01
      -2.9697694684386228e-02 1.2286171853859904e+00
      6.4677820800196267e-02 -6.1582463305966029e-01
      -3.4503630467864860e-01 -1.2597552498297941e+00
      -1.3164554909340558e+00 -1.7949104413381758e+00
      5.9877830008633859e-01 1.8604471202876989e+00
      1.2155005615493164e+00 -1.1103563298686510e+00
      -1.4558740453141967e+00 -1.7652872353377436e+00
      -2.4191768919762269e-01 -3.9532771192938054e-01
      5.0064302905328284e-01 -1.4849815580962544e+00
      -1.0383416241552195e+00 5.1062685413100217e-01
      1.6763657166922896e+00 -7.5462157698883692e-01
      5.8933551560286547e-02 -1.0653496665480988e+00
      -2.6594559650660815e-01 -3.8494219031290461e-01
      -2.5191445943682556e-01 -2.1732755247518482e-01
      -9.9827932815544440e-01 -2.9879057887047650e-01
      -6.7774445766818325e-01 4.2466843326297993e-01
      -1.9710370354663373e-01 5.7833964531854765e-01
      -1.0574194332974005e+00 1.3039511141636480e+00
      6.4561118491369296e-01 -1.2484759487027020e+00
      -4.9519843371848798e-01 7.3323729584051289e-01
      -4.4218429712675433e-01 -9.6780110537902420e-02
      4.5805764819196765e-01 -4.9626738159371753e-01
      -7.1568492799033601e-01 -6.0917737323615817e-01
      -3.3655571837372233e-01 2.6558426336106091e+00
      4.8642076823700822e-02 3.3070445176513003e-01
      9.7300280260718219e-01 -5.5907148318854305e-01
      7.5261972311775138e-01 -1.2592967238739157e+00
      7.3614558240467365e-02 1.0333662316740249e+00
      -5.9407497996937353e-01 -2.8007949888389477e-01
      1.1388509716540620e+00 -2.2261810878042718e-02
      -3.7652873179555157e-01 1.0527011373708421e-01
      1.3654107067206274e+00 1.2340500290323972e+00
      -2.5304896992098030e-01 -6.4559142980022066e-01
      2.0051024994188227e+00 -1.9110273688179471e+00
      -7.7160144239195627e-01 -4.6413113855680604e-01
      5.9890195243186883e-01 -5.8702996330371127e-01
      -7.7853990361095290e-02 1.7511804906944883e+00
      -1.0328583706822377e-01 -1.1388348438997165e+00
      -4.7972793745284410e-02 -8.0352073567202731e-01
      -1.5852907743252584e+00 -2.4106000999219042e+00
      8.1436226391056721e-01 3.0393902486726416e+00
      2.4436555608510413e+00 1.2186281938029997e-01
      -1.1690760248989198e+00 -8.3905312565269863e-01
      -9.6005729473725127e-02 -6.0470982264032092e-01
      -1.6999956096147406e+00 -9.4998249814155866e-01
      -1.5174805038199453e+00 8.0878147090113661e-01
      2.6664372918533390e+00 -7.2366155611637051e-01
      3.9622843831847182e-01 -1.7549719912402859e+00
      -1.1120162020177587e-01 -4.6895961101059719e-01
      -6.5504006406275272e-01 -1.1999298568939816e-01
      -1.0571371764873603e+00 -2.6890594087067571e-01
      9.9848544266017658e-01 7.2694446591952655e-01
      1.1816140320583420e-01 1.3941495117719163e+00
      -1.3784535212082032e+00 1.4835770734736031e+00
      5.4256918278014998e-01 -1.4421613655805376e+00
      -3.8137091252788163e-01 -6.8759659593711153e-01
      -1.1170194553621311e+00 -3.1692457262351204e-01
      1.1094042346868507e+00 -5.0862732777434350e-01
      2.6351506594621474e+00 -6.2438596817538161e-01
      -9.5983598980415985e-01 8.2160595573825412e-01
      6.5718872840421397e-02 6.1848252190545505e-01
      1.2547759299515102e+00 -9.0765305087781700e-01
      9.8147350276979695e-01 -1.6681919877230014e+00
      -2.8658662170850202e-01 1.0059465902110989e+00
      -9.3552949317073175e-01 -1.9083469891032653e-01
      2.1102731924266855e+00 8.0794087477686138e-01
      1.5781915274282488e+00 5.3923811733024918e-01
      1.1646054774636039e+00 6.4856875697864769e-01
      5.7069964611723423e-02 -5.9455418633027857e-01
      3.0445306126640848e+00 -2.1932670559283922e+00
      -1.2568973652975257e+00 -9.1001113781383669e-01
      1.1575025947709211e-01 -1.4181762465875445e+00
      5.0560574847194284e-01 1.5413757241512021e+00
      6.1237975080813867e-01 -8.1082538795879400e-01
      4.8111023832214050e-01 -1.4852868301277267e+00
      -3.6461264130597288e+00 -8.9655698212802637e-01
      1.4905878022436936e+00 4.0185771561789201e+00
      2.6279921048789467e+00 6.4698780096456399e-01
      -3.0990126943098693e+00 -7.9539432665191856e-01
      -1.1064619056720617e+00 2.0435497798447938e-01
      -2.7044658474082510e+00 -8.2114597563088265e-01
      -2.7599218415877629e+00 9.1899397786725490e-01
      3.5117899613524854e+00 -9.3010669433880172e-02
      4.2015896739248759e-01 -2.8166284344056365e+00
      1.0275819446368245e-01 -5.9849177118347885e-01
      -3.4814247501753071e-01 2.9072128965648436e-01
      -1.2737597722822305e+00 -4.8530729562871561e-01
      1.0962622309325951e+00 -6.0724354938479164e-02
      1.5247278356870784e-02 2.8538367078989393e+00
      -9.4868541002412077e-01 6.9254933566343979e-01
      1.0762132996117137e-01 -2.0728875427650881e+00
      3.5914174676210020e-01 -5.7014396772640452e-01
      6.0914774722748768e-03 -7.9570889392571864e-01
      7.4030482482459559e-01 -4.3569047621107554e-02
      5.8068343986047530e+00 3.7747534116362425e-01
      -9.5645742043449022e-01 -9.5511013977803405e-01
      7.5480180105322126e-01 -6.7255303901215158e-01
      2.7722343734554009e+00 1.7590078796803370e+00
      6.2992446217083164e-01 -1.5645125282816474e+00
      3.0676796748353459e+00 1.0153392433788913e+00
      2.4431462291096282e+00 -2.7053300860533813e-01
      5.8091692260978869e+00 1.4783526995476606e+00
      1.6865898324738742e+00 -8.3604748625390357e-01
      1.0186744597199138e+00 5.8508641358481184e-01
      5.9735852941945644e-01 -7.1755984558731140e-02
      4.0442862089458238e+00 -6.7763151523797760e-01
      -7.7538402421909680e-01 -3.8555911641393470e-01
      -2.7079208827421870e+00 -1.6953300963460771e+00
      7.2755033639839461e-01 -6.3990540861103395e-01
      -3.4508627534400038e-01 1.6092700430342644e+00
      1.1168642830074096e+00 2.0523749081775428e-01
      3.7222777471185142e-01 1.0056940025111649e+00
      1.5044971332742252e+00 1.2643922861248642e+00
      3.6579248870461694e+00 2.3023188852996936e+00
      3.9365209565907562e+00 1.9674990805081525e+00
      -3.6135805308908160e+00 5.6406017567175948e-01
      -2.3327455253953122e+00 8.0760948250257547e-01
      -2.4695948207489877e+00 8.6537791199464764e-01
      2.3224452631887744e+00 8.9350482186515381e-02
      1.8397439532291029e+00 1.9967036039227717e-01
      1.4877673671639897e+00 7.0169708250116880e-01
      -9.5862732039626627e-02 1.5243985935623385e+00
      6.1035076270617317e-01 -4.8381834412900622e+00
      -1.1446008552762093e+00 1.8191611129287039e-01
      1.2657797832261579e+00 2.4182409476805526e+00
      -6.4057890277617224e-01 4.9550707198505600e-01
      1.0109725686990267e+00 8.5214120366469004e-01
      1.8520872022778292e+00 -4.5993092266955937e+00
      -6.2764744257886640e-01 3.8434469232510249e-01
      -3.3537892981730072e-01 5.9656070713696974e-01
      3.8737339880530204e+00 3.2873183169143947e+00
      -9.2905427609675839e-01 -2.7941006284454102e+00
      -5.0051223332966155e-01 -6.2615587320579591e-02
      5.5058840608919801e-01 1.1956320208634380e-01
      3.0137962469690865e-01 -6.6605582443257527e-01
      1.5582459790560288e+00 8.5092417179190927e-01
      5.5652715584698820e+00 3.7059830071056981e+00
      2.0564575677697179e+00 -9.8608935863740710e-01
      -6.4509909827985812e-01 7.4934820314997130e-01
      -4.6378617839646263e-01 -3.0399019136008182e-01
      9.1328189522149894e-01 1.1456696765662435e+00
      3.1478376140273197e+00 -3.5140954382283636e+00
      2.3170460851073643e-01 4.4906903646621075e+00
      3.0755353210239957e+00 -2.0244339515657145e-01
      -1.7122487054956883e+00 1.4729870325200984e+00
      -2.0680094321620097e+00 2.0833952447200383e+00
      -2.6321443014711904e-01 1.9848593183699583e+00
      4.3519897119208366e+00 -4.0292848946801393e-02
      2.5179263343499261e+00 -2.9433547947439669e+00
      -9.2999019911270675e-01 -2.5117062015234546e+00
      6.3954175235966249e+00 -8.1157588088511001e-01
      5.3591643298889826e+00 -5.2816821414183612e-01
      2.0585467388051546e+00 8.2131423670385151e-01
      2.2797223585994875e+00 8.8114892429709435e-01
      -2.9590553596692704e-02 -2.1182993136481643e+00
      3.9347168305284210e+00 1.0683513076929416e+00
      -1.4537963364833686e+00 3.2450337025857512e+00
      9.7824611353942892e-01 1.9451119305927109e+00
      3.5390953863163608e+00 6.3762789086986471e+00
      -3.3167786082879380e-01 -1.4500783094450223e+00
      -6.0347151204100069e-01 -1.0258223786267240e-01
      -1.3536647516720011e+00 -9.2397857475363121e-01
      7.7593494639106461e-02 -2.5861986932537445e-01
      -7.8104032126357070e-01 -9.5926552249596980e-02
      -5.0103839274996975e-01 4.0077730977114054e+00
      -3.4316677485153657e+00 -3.4523185777465387e-01
      -1.9898538340541905e+00 8.2513701028343600e-01
      -1.3661445108933337e+00 3.3125823479406860e+00
      1.4850571665252728e+00 1.3718662898904774e+00
      -3.6623676332553110e+00 -6.0902443203952572e+00
      1.4588532587501983e+00 3.9272756395939856e+00
      -1.9391116872707816e+00 1.0608416547468555e+00
      -2.5854925545397687e+00 3.6488845063718918e+00
      -6.6901550889676002e+00 8.6341997498936762e-01
      -3.5398430191118851e-01 4.5126889318532006e+00
      1.7905184763188950e+00 2.2653722184607901e+00
      -4.2011045361585042e-01 -1.7161849794155086e+00
      -9.2148110303078035e-01 1.5311511620209486e+00
      -2.2108621473963841e+00 -8.3160792875878908e-01
      -1.0669419915691587e+00 2.1388875834288099e-01
      -1.1905879080953666e-01 -1.9134752987756778e+00
      -2.4395725489584628e+00 5.6561564361020999e-01
      6.2876143297037457e-01 2.3450890302149490e+00
      7.4913054360149678e+00 1.6568322253795280e+00
      -1.1907378241202062e+00 -5.8278576420045720e+00
      -7.2085194207783532e-01 -1.1487865929110155e-01
      6.8042011804231324e+00 1.1088434267441565e+00
      9.4128998688173016e-01 1.0254317291868686e+00
      4.7076715535567831e-01 4.4853232981479749e+00
      3.2259479107131512e+00 -4.2941939250112243e-01
      4.5934579461731478e-01 -4.3826966754799945e-01
      1.7558477523105618e+00 1.9242622472616173e+00
      2.4570172530225046e-01 3.4674167313215243e+00
      -4.1555949456447938e-01 4.6786106191668037e-01
      3.5064174455928412e+00 -1.0514999298822316e+00
      -2.8030883786729066e+00 -1.3450820604279170e+00
      4.2433657879426781e-02 3.0721692820754307e+00
      4.1046659144623449e-01 5.9736903114196005e-01
      5.5295516767173636e-01 6.2178066284935840e-01
      8.7085431877175179e-01 2.8096963409816234e-01
      -1.9653315242416243e+00 8.8108932192439626e-01
      6.0746701793646851e-01 9.4428607002190290e-01
      -7.0349058561873734e-01 5.7356614132408290e-01
      4.3500971335117844e-01 -1.2970195487019305e+00
      1.9729185620393683e-01 -1.3888111797433820e+00
      -4.6649929090687543e+00 -3.3053971906808068e+00
      -4.8147182496799151e-01 2.7690394962113518e+00
      -1.2701360384240654e+00 2.2110083929583635e-01
      2.4122531873954882e+00 6.4295756295615891e-01
      -2.4620970682735481e+00 -1.4305457572116329e+00
      -3.4480699014329064e+00 4.2201329655708237e+00
      -1.1747968749089370e+00 -4.9729405746771871e-01
      6.1521448332968665e-01 -3.0979749468028689e-01
      1.8048494373373054e+00 -6.9610743896611182e-01
      5.2058530224473409e-01 1.0443210503971509e-01
      -2.3435128376139240e+00 -1.5018755646588573e+00
      2.6797881123654799e-01 3.6026657810784579e-01
      -8.1480362363777403e-01 2.8262650652412415e+00
      1.1145981638482358e+00 6.8800585481033494e-01
      8.7989447329384640e-01 -2.3753096059638440e-01
      2.3457620269348528e-01 -1.9410065309919251e+00
      -2.1923387707652942e+00 -1.0918416904177073e+00
      -1.0073691718298821e+00 -5.7848640305833132e-01
      -2.8299306122586287e-01 2.1066111161332191e+00
      1.4251846095799305e+00 6.5317933604139800e-01
      2.1232708997117955e+00 1.9980231349183819e+00
      -5.4249694434902351e-01 -1.8615910181018660e+00
      -1.3643269063634345e+00 3.3950829432097873e-01
      -2.4150644301983643e-01 7.8147435202541929e-02
      -1.0495004656178792e+00 1.9146999358078933e+00
      1.4286742680663858e+00 -1.0837976420790967e+00
      1.4873374089590730e-01 -3.2338004215434943e+00
      -4.5241202968741595e-02 -5.8997517416956649e-02
      -2.3430804250859376e+00 8.3876302497978306e-01
      -6.1760187063171379e-01 -1.2041672019908214e+00
      -5.2836761933696852e-01 2.2098920438217142e+00
      -3.0253782367604432e-01 -1.2255525881506364e+00
      -2.1849375217213951e+00 6.9168112828989425e-01
      -3.1186131783278164e+00 1.4452347896043023e+00
      -1.9538509205788230e+00 1.9337470254801554e+00
      2.2010160243614177e-01 -1.6811380041471167e+00
      -2.3889446619831789e+00 2.2672556542296536e+00
      2.3469663569117412e+00 6.3315376881239507e+00
      9.6984762714831241e-01 8.5132783756422081e-01
      1.2479467235557731e+00 2.7995705603506735e+00
      -6.5363209477760051e+00 1.2732387646785481e+00
      6.5779071144290535e-01 3.2120293910197600e-01
      1.5686584023765173e+00 1.5663209382002414e+00
      9.8784223885749234e-01 -4.2911960565610496e-01
      -9.1632711108978981e-01 5.7116540244715752e-01
      -1.9169916551590143e+00 1.8817925070439498e+00
      1.4773647135691397e+00 -1.2939238571974172e+00
      2.3129813239473873e+00 -3.4505927852825073e-02
      -4.5801216079655072e-01 -1.2359097268511168e+00
      -7.0456924237065721e-01 1.4297133497984920e+00
      -1.7846474265365528e+00 -4.4623106969439510e+00
      -1.5367195519004873e-01 3.0770091939942685e+00
      -5.3487381291943734e+00 -4.5542227469989109e+00
      -3.5300615263539042e-01 -4.2731005211690896e+00
      4.7483847731543953e+00 -7.1873287666201879e-01
      3.0249641723603666e+00 6.5755741868279260e-01
      -6.2201278800819115e-01 1.1633852780090288e+00
      -3.2447286001624309e-01 -8.2147617505506010e-01
      3.0245017644343868e+00 -3.3030320650300236e+00
      -4.0183775348810986e+00 1.4611406923494630e+00
      3.7418664142527097e-01 -5.9249870318962750e-01
      -5.2144138166767862e-01 3.7285576606398210e+00
      -5.2073078966292030e-01 2.9049188175030354e+00
      1.0270979874356614e+00 -1.9625343308400773e+00
      -1.1802375800923088e+00 1.5239659637247511e+00
      -7.9243330405132839e-01 -3.1272352704186943e+00
      -3.5176644148001937e+00 1.2824506332516452e+00
      -1.5703025368099155e+00 -2.8247671268111376e+00
      -2.3296999769213250e-01 -1.2152533562169567e+00
      2.1337642851699439e+00 -8.6155353517722888e-01
      -1.4679864360792712e+00 3.8159885734447956e+00
      1.0038334829402317e-02 2.2161160030702418e+00
      -1.1911918918297006e+00 -1.4886995800852050e+00
      7.4004114537513055e-01 -1.9814846015603393e+00
      1.1329677603894457e+00 -1.3709574881875061e-01
      -3.9588261942853791e+00 -1.0011966823608911e+00
      2.3941961029856884e+00 2.3939613442566468e-01
      1.2299606231239255e-01 -1.1507044160553843e+00
      -2.1648021280444735e-01 -1.1910922632626532e-01
      -5.1918736652658859e-01 1.9662140095477634e-01
      -1.5680976314352293e+00 1.6434852755271459e+00
      -2.3273520242973942e+00 -3.8819688839954583e+00
      -1.7384286515074916e+00 1.6820480218683014e+00
      -9.6772770192644442e-01 -3.4172101275795180e-01
      -7.7183844054183848e-01 1.4964839333529401e+00
      2.0224695262776700e+00 9.1999427684143720e-01
      2.4530301492610427e+00 1.2242545585733093e+00
      9.1918859066609226e-01 -2.8197187475774537e+00
      -2.0603822934052216e+00 -1.4597171408506207e+00
      7.4666665546947242e-01 2.1028575013126489e+00
      2.2115341408159864e-01 1.0432675138487466e+00
      2.3318283011939200e-01 1.3846794699612128e+00
      3.5310864362560004e+00 -3.2129393258863914e-01
      -5.9876705576430211e-01 -2.3792100996894588e-01
      -1.0660532549285604e+00 -4.0021141372662200e-01
      8.6231750864320056e-01 5.9939847269959901e-01
      -2.1456407563871571e+00 1.4100683453161722e+00
      1.3739592923116181e-01 -1.9592092208384675e+00
      -1.7843706547400182e+00 -1.8882970486810841e-01
      2.8439168981720570e-01 1.5625499057914896e+00
      9.3189444771571206e-02 -2.7914583159630739e+00
      1.2296844454420559e-01 -1.1028315879109611e+00
      1.3042535933005583e+00 5.9588661704680745e-01
      1.6341230587252764e-01 8.5422806591991829e-01
      -2.0667046062964856e+00 2.4823624867450653e+00
      -7.2450921335984209e-01 1.3990421564715714e+00
      8.0450745532346257e-01 5.9136971687025330e-01
      1.0844208079359445e-01 -9.6560206274479354e-01
      -1.4589593531144756e+00 1.9384747665672573e+00
      1.2503998482144732e-01 4.7497604579670105e-01
      -8.6622666444564123e-01 1.0565585191502278e+00
      1.1622432788507580e+00 1.9664025217975167e+00
      -1.4810529038639708e+00 -1.1204725286913411e+00
      -1.6048805689972527e+00 1.7917034087612876e-01
      8.9544413678117207e-01 1.3189068179620218e+00
      1.7323267020120177e+00 -9.1382960295328747e-02
      5.2083573753086732e-01 1.8001035016623976e+00
      -5.1366981973895975e-01 2.5616406034872696e+00
      3.4944978141820060e-01 8.1548136577473895e-01
      -6.4771352089450374e-01 7.4643371268770120e-01
      -1.4008362401367609e+00 -3.9284726607379716e+00
      1.1635503405580312e+00 3.3389789498778327e-01
      3.7052311748173148e+00 8.5576023058980377e-01
      1.7438937714128449e+00 -9.8536491888143463e-01
      -1.4186547185749609e+00 1.1076909604043137e+00
      2.3550139311886129e+00 1.3189059014830469e+00
      3.7677115327915058e+00 -2.3762400134083506e+00
      -5.3530154507952732e+00 9.8700556468053180e-01
      7.3322853833960949e-02 -3.4042122313391815e-01
      1.9282596052202188e+00 2.3668210389806169e-01
      1.0842076183477578e+00 -1.4600909256973715e+00
      1.8415923602105382e+00 1.4355470177335856e+00
      -8.1783467542920696e-01 -8.7794850283452597e-01
      3.7700547034650717e-01 6.5866344625074158e-01
      -8.0558740661476047e-01 5.7848383443795959e-01
      3.0449306492275113e-01 2.6861858799773977e+00
      -1.4302215946979415e-02 -1.0965782396954413e+00
      -1.9598811203314523e-01 -1.2799771201112804e+00
      2.3687766265693790e+00 -6.5346873581554010e-01
      -7.9713373164076795e-01 4.9693403741964370e-01
      5.7782166671574950e+00 1.6738838356603349e+00
      -7.4337280950093976e-01 -3.2317609738993842e+00
      5.7819767207929784e-01 -6.6235766649505368e-01
      6.2692099112352670e-02 1.6153112415748618e+00
      -7.8696044852867264e-01 -3.4357414937181225e+00
      -2.4478778371915541e-01 -1.4165955598500957e+00
      -3.7816358803375367e+00 4.8926954420579521e-01
      -3.8665159829983536e-01 -9.9218488620423384e-01
      3.1160324785529365e+00 -4.1343745397145015e-01
      -9.4961704250045498e-01 1.3410749007748197e+00
      2.6376316973450273e+00 8.7988587484748904e-01
      1.2995607629423678e+00 -5.6062189720712019e-01
      2.5914551207892318e+00 4.3549274531410759e-01
      1.5989399381713283e+00 -1.9485717721318498e+00
      2.1356149718041495e+00 -3.5137978026597122e-01
      3.8773907265724677e-01 3.9149278101369039e-01
      -1.8031531833416834e+00 -3.4983849554259163e+00
      7.7059938234701564e-01 8.5119902575925099e-01
      1.6448786982653592e+00 -9.5016926847853234e-01
      3.5279242321292021e+00 -1.5995163312219263e+00
      -1.6547082851582804e+00 -6.1725523719994324e-01
      9.5660097174303660e-01 -7.5538052648667156e-02
      1.6436379546221467e+00 -1.8692651698945610e+00
      -6.7299208815649414e-01 7.9785717868147488e-01
      1.7518379429061577e+00 1.1516875931866710e+00
      -6.2619808202588456e-01 -1.3746441388293245e+00
      2.0581457864536623e+00 -6.5055008192961461e-01
      4.6473036049405264e-01 1.5931447604298699e+00
      -3.5822583456459917e-01 1.0044296545308119e-01
      1.2931266642188630e+00 4.5767343686011019e-01
      -9.4492661697033697e-01 2.0224069017611495e+00
      1.0249103966912196e+00 2.8251752923309414e-01
      -1.5075801273307747e+00 -7.6327763963448692e-01
      3.4028818919095155e-01 -2.5447890402013145e+00
      6.3957864636377093e-01 1.3310914405805296e+00
      -1.0559414378947287e+00 5.5289742678341625e-01
      3.7909341428736538e+00 6.1021497455361706e-01
      -6.1908391423337088e+00 -3.1548107524019517e+00
      -9.4748855018043110e-01 3.9324908741525761e+00
      -2.1137520504719273e-01 2.7156315207829191e+00
      -1.9676349220213358e+00 -2.2341448373114576e+00
      1.2650544491760674e+00 4.4098986800053169e-01
      -3.6674934637640400e+00 1.8440733083552334e+00
      -2.2274539994922629e+00 2.9553183559572677e-01
      7.0192800072129313e-01 -1.4909266946630166e+00
      -7.4098845504759303e-01 2.5027159448100966e+00
      3.3635618707811985e+00 3.2903643886614624e+00
      9.0715342807446475e-01 5.9838883794945716e-02
      -1.9478837220708543e+00 -4.3888705464639999e-01
      -1.7998066739212629e-01 -7.7452224845246942e-01
      -2.2101471642910600e+00 -2.4723403345496360e+00
      1.2147529847814209e+00 -1.9790573046160747e+00
      -1.9300835847327327e+00 2.0385543602250866e+00
      2.4904232495476727e-01 1.5167419194107727e+00
      1.5597922383263946e-01 -2.1602685551307084e+00
      -3.5771636548534258e-01 2.1261923526999262e+00
      -1.2217034400794053e+00 -2.2432725652444954e+00
      -1.9169664294489193e+00 -1.1219251216651824e+00
      -7.0636625614156889e-01 2.1813747377519968e+00
      2.1138496345449034e+00 1.1366583762181584e+00
      -3.5623613403070287e-01 2.6275966008922174e+00
      9.6859650268176140e-02 -2.2562889927023244e+00
      -9.8181562909173170e-01 3.2366867022736440e-01
      -1.0188958161545958e+00 1.8426154114437834e+00
      -1.3869012531040816e+00 1.9786873235320386e+00
      1.4799080576121246e+00 -1.0225013730219592e+00
      -1.4111550253639107e+00 -1.0852390260298526e+00
      5.0560460406610108e-01 -1.4011681429530976e+00
      -3.2873921782068090e+00 3.2926493683856726e+00
      -1.4111089464671145e-01 -5.6438433916251074e-01
      -1.3503961214114013e+00 1.3928176209681922e+00
      -1.7982090182580479e+00 -8.8409033484178257e-01
      -2.0943860940047623e+00 -6.1334095365357477e-01
      -2.2463133400497867e-01 2.2074407032011112e+00
      -2.4724886196379350e+00 2.1439423333888361e+00
      -2.6280813980001028e-01 -3.1254160163983025e-01
      -2.3995968311125728e+00 1.4002280343358917e+00
      3.5026454272970224e+00 2.8468603458490405e+00
      1.5229419218829841e+00 8.0703495634706734e-01
      -2.8824130668874401e+00 1.8653463445982224e+00
      -2.3439644352629889e+00 -1.8164480484986720e+00
      -1.7566641672285939e+00 7.6004249263598644e-01
      -4.3976010839723090e-01 8.6149600688920913e-01
      -1.7303446910566128e-01 1.1243041920301991e-01
      -1.5853693645671584e-02 -8.5679762436413287e-01
      -3.5318137140156067e+00 8.3570726512792859e-01
      -2.8063554625133387e+00 -2.0098312317970191e+00
      4.3670742213544047e+00 -2.1275626465967434e+00
      -2.3919199746572217e+00 1.5468989860239262e+00
      3.0775404698339726e+00 1.6346415776103049e+00
      8.3392032078328560e-01 -2.7094043872695708e+00
      -2.1061461519189995e+00 1.1072764377361988e+00
      1.4952100858533266e-02 -9.8043197863133424e-02
      -1.3687664542213500e+00 4.0740142344189151e-01
      -1.1189788923734787e+00 2.5448491583858583e+00
      -8.1137885127498699e-01 1.9814969068577934e-01
      -1.2387995150295847e-01 1.2131483172287083e+00
      3.9209167422296375e-02 1.0123695031953974e-02
      -1.9306030908240279e+00 1.5537433844894550e+00
      -4.1292991539153192e+00 6.1775090273710698e-01
      -3.2268658882996353e+00 2.4005700121605908e+00
      3.8124534515804998e-01 -4.1165262223107781e+00
      -2.7039151881126111e-01 -7.0149756987823975e-01
      4.0496362757946400e+00 1.3019836980290492e-01
      -1.0421863114353218e+00 4.9221732938675000e+00
      1.1252910435929575e+00 1.4946703268675990e-01
      -3.9511554313079200e+00 -4.6660858281244816e-01
      -2.5823279107406782e+00 -4.7642724607491793e+00
      -1.2666077395482114e+00 3.3486154877425824e+00
      6.2145080767080996e-01 2.2741062358300108e+00
      -1.0742007308463393e+00 3.5439090119020417e-01
      -4.4784254868590665e+00 -1.2244103709833583e+00
      -1.0151685082439545e+00 3.1841947681698892e+00
      1.4254285980934562e+00 2.2188698802313458e+00
      7.7595414805557039e-01 -8.4191066442095230e-01
      -1.9972997177334963e+00 2.2766454707532771e+00
      -2.6892062601977069e+00 -9.0257988842797232e-01
      -4.4692273195991195e-01 4.8560061613765837e-01
      -1.6152295414281970e+00 -1.1615826209032452e+00
      2.8568820642778450e+00 5.0260048064608345e+00
      1.9467568031903288e+00 -4.4015828096918428e+00
      -2.0578142708878278e+00 1.9176380518630465e+00
      1.8193605890560320e+00 -7.6733862118466478e-01
      8.1333819085321479e-01 -1.5031914430730939e-01
      -1.1488896221820859e+00 2.0110938541261603e+00
      -5.6305374082768966e-01 1.3042071754492002e-01
      -1.0412281010450815e+00 -2.4274571034285644e+00
      -1.9917542657740446e+00 5.0937250346095233e+00
      -1.5373183108852315e+00 -2.8392264394260094e+00
      -2.7254341046844561e+00 -2.3127898509175453e+00
      -2.0149531485814847e+00 1.6604362359029248e+00
      1.4924729209864087e+00 -2.0119390477081134e+00
      -4.1654118602796695e+00 1.8476879262780280e-01
      6.5234698951866366e-01 6.1932807124858469e-01
      1.6549120817980321e+00 -2.0252173470689137e+00
      -9.9007731363373064e-01 1.4785751260631697e-01
      -3.9214957806479572e-01 -5.6796093441293138e-01
      9.7808247963902362e-01 1.4613180491210696e+00
      2.7482531242088091e+00 -7.7028647725669730e-01
      1.9470011787505936e+00 -2.4133910337284887e+00
      -3.2106462104537842e-01 2.6802838750961400e-01
      3.7533785851733403e-01 -9.3383721245977908e-02
      -1.1931230379741879e+00 -1.9395100370696858e-01
      -1.6094792596736331e+00 5.1406965873320032e-01
      -2.4816995583495172e+00 3.7273769844680699e-01
      3.1259654734292526e+00 3.1160187718547645e+00
      -9.2435087777056291e-01 2.9298838379454089e+00
      -1.6126977641139226e+00 -2.1087402737277312e+00
      -4.0996972699465223e-01 8.2920925289700531e-01
      -1.9969712183605846e-02 -6.6179245690353516e-01
      4.0263418484073128e+00 -2.2673909511028310e+00
      -4.4597751386449005e+00 -9.8680931754917944e-01
      2.2460120269904438e-01 3.8472271162039096e-01
      7.9831460082033223e-01 -2.2775361874655746e+00
      -1.2953933768626265e+00 -2.7266991914828909e+00
      -7.9124619636253279e-02 1.5839910188614068e+00
      -1.0063551580051298e+00 -9.7393011908662519e-01
      2.5456632455455031e-01 1.3918579330832401e+00
      2.8280214570011442e+00 -1.1503210118425438e+00
      -5.9641894873996248e-01 -1.7876388391737281e+00
      -1.5086317894188987e+00 -8.1400764907911982e-01
      1.0368523348952907e+00 1.1297294095717583e+00
      -3.1374714498064802e+00 -2.7046934125206903e+00
      -2.6757314492533242e+00 6.5958499313449410e+00
      5.2531456929338871e-01 -3.2573055062140766e+00
      -1.0757738116010904e+00 -3.1381134779072855e+00
      -7.0051989609799592e-01 2.9389892708041474e+00
      3.3949448683083663e+00 1.9451767898295302e+00
      -2.9702587789724064e+00 2.4664304476478076e+00
      -1.0920911823137698e+00 -9.1382784647199033e-01
      1.6007151502228205e+00 1.2244037727861166e+00
      1.0206038402564293e+00 1.7224167066848053e+00
      -2.7838334819650312e-02 1.2782493810011980e-01
      1.8383870577133798e+00 4.5944990189993812e-01
      -5.1279932348931245e-01 1.8053032601607457e+00
      -5.1411494728967744e-01 3.0928315498462294e-01
      -2.1054647791797745e+00 2.4906718184319323e+00
      9.1350033608058590e-01 1.0679115366964935e+00
      1.7696374298727982e+00 2.0531313924317218e+00
      -1.5164321233900084e+00 3.1465443381053868e+00
      -6.3191828030094555e-01 8.5015214118594529e-01
      2.5273555625248241e+00 1.0409367013473465e+00
      -2.5111407600461111e+00 4.6019990723963957e+00
      8.3445800821402816e-01 -3.8595898872622558e+00
      -2.0339716892156541e+00 3.9818357474241610e-02
      1.8828700214995913e+00 -6.4369400139285482e-01
      3.2557672765015901e+00 -1.8120788313337055e+00
      -4.4197839565649094e-01 -4.1449485452884099e-01
      3.7440772343393518e+00 -1.9589283255660368e+00
      -1.4534499905885896e+00 -4.5138411861105983e+00
      -3.0647420359599198e+00 -1.9069469150908753e+00
      2.1419342519888751e-01 -8.3629368732759179e-01
      -1.9488614298446114e+00 -2.1092142569124758e-01
      -3.3596722424595737e-01 -3.6798894657454878e-01
      -7.5595469951929384e-01 1.0642012044864586e+00
      -2.3857651412648995e+00 1.2244183044216474e-01
      -8.9751805978000943e-01 1.2089047716178516e+00
      1.5182711511527274e+00 4.3965593590598112e-01
      7.3221502521431647e-01 8.2791841289427781e-01
      3.1544035835488510e-01 -2.1586077449162899e-01
      -1.8051987304035075e-01 1.3641214930611142e-01
      -4.2003411067051633e-01 1.0267049000837269e+00
      -9.4468243872320834e-01 1.3688652292951276e-01
      -9.4675385117976585e-01 1.3304364171080079e+00
      9.5354259193665791e-01 -8.4373522913009313e-02
      -3.6326466825201353e-01 -6.3713686765543531e-01
      -6.0181289104661662e-01 -3.1586071252114639e-01
      2.4175867487902511e+00 5.7908386728688099e-01
      -1.8143341419399386e+00 1.0330100378344380e+00
      -1.9420524477221805e-02 -1.4495557382489559e+00
      -1.0397620204992073e+00 -2.3668066098160589e-01
      -1.6526378644478961e+00 3.1469405065517821e+00
      -5.1565852582499205e-01 -6.3587744516141992e-02
      2.2059784281541139e-01 -8.4864546753781511e-01
      2.6731508639476806e+00 4.5458826925053003e-01
      -3.8447389352192390e-01 2.3612944281073460e+00
      6.4700714632425466e-02 9.4779846527241407e-01
      1.8936471724160711e-01 1.1019406382677852e+00
      1.6940093627175562e-01 1.0603847666458830e+00
      2.4089730966722653e+00 -5.4490312635816307e-01
      -6.1835854247564137e-01 1.7210798506886564e+00
      3.9259934724137246e-01 3.3553608683690306e-01
      3.4191877375525753e-01 7.3598987742720845e-01
      3.1826415821428848e+00 1.5674948172309042e+00
      -3.2873591029807231e-01 -4.5900915836894701e-01
      -7.4614788856367764e-01 -2.1406127182216657e+00
      6.1813654806320562e-01 7.0502476922903912e-01
      1.6771821333123915e+00 -2.6217880303447783e+00
      1.8898443552570778e+00 -4.9145906596522360e-01
      -2.1212261237135077e-01 1.1963456443476457e+00
      1.2544678029297203e+00 -5.3737355129494802e-01
      1.4994622281295864e+00 -1.2160061089939513e+00
      -1.7618099984164198e-01 -2.0139294505307457e+00
      -3.6097029637655437e-01 1.9864471685227290e+00
      -8.3539795743368295e-01 -1.5196560457544982e-02
      7.5462142163004609e-01 -2.9443796466944478e+00
      -1.5917274903670460e+00 1.9895385291959324e+00
      -3.4912607184376463e+00 -2.2294535007192580e+00
      2.7894488004451929e+00 -2.4832909760549127e-01
      3.6218381032573704e-01 1.8274548538640003e+00
      1.6982115938317617e+00 1.1954840494622282e-01
      3.6874822486678414e-02 3.8847654649798585e-02
      -6.1442617784211007e-01 -1.0635000988734840e+00
      -3.1391184728233461e+00 3.1033608913140132e+00
      6.2873624675750750e-01 4.7901349479157862e-01
      1.6157466859527350e+00 8.8492208512690007e-01
      -3.4245893699419487e+00 2.4610943298352832e+00
      5.2651208675730254e-01 1.9529664051102613e+00
      6.6015830832655886e-02 -9.3477063749811395e-01
      -3.4903177049743972e-01 -1.6476923000433594e+00
      -2.4806494202499403e+00 1.0618540590310803e+00
      6.9075563607484403e-02 -2.6095701433728102e+00
      2.7352552072164524e+00 -3.5488054332490310e-01
      -2.6050328324032301e-01 -3.3357558959251694e+00
      1.4736496742908500e-01 -5.1844344898298695e+00
      3.0069140591470944e-01 1.6587205448428413e+00
      -3.4966214041647428e+00 1.7998734505516665e+00
      -1.3203571625698927e-02 -4.1733231641248585e+00
      -1.3906929048671353e+00 1.6697393558622167e+00
      5.1089477066941757e+00 -1.6959899772918479e+00
      9.6031613213431199e-01 -2.7502105183831169e+00
      -1.8425444655950849e+00 -3.4466981892200068e+00
      5.2493137346731333e-01 1.0209690755264613e+00
      -1.2440152489024630e+00 6.1050089783198147e-01
      9.6319855769253393e-01 2.4943968758909647e+00
      -7.7923696897380257e-01 -3.6933339478419729e+00
      -7.5678175138054593e-01 -8.2272342148675126e-02
      2.1161180480301991e+00 -5.7938782532675992e-01
      -1.4451379935398556e+00 8.9131868369963585e-01
      3.3055636065854621e-01 -5.5605891201727786e-01
      -6.8082618915705089e+00 1.0993887533671122e-01
      -5.3894494248084568e-01 2.3433203996607697e+00
      -1.7333193076431535e+00 -1.3917318161154757e+00
      -7.8999886324902011e+00 -1.5315992057552847e+00
      -2.3118395551374809e+00 8.5134575040751295e-02
      -6.1494706340865535e-01 -1.0411483867343186e-02
      2.9426613882184309e+00 -1.5729880598374182e-01
      1.0386041171568896e+00 -1.7766243681854904e-01
      -3.4416992665909785e+00 2.5480020298705891e-01
      -2.3112685072356429e+00 2.0529622358840900e+00
      -6.5311441045240171e-01 2.5096314935701114e-01
      1.7966310359554882e+00 -6.7122057207056529e-01
      -8.1159936728366722e-01 5.9509519263684496e-01
      1.7694334745458091e+00 2.3895416124688693e+00
      3.4386560536978983e-01 -1.2165921975650373e+00
      3.5629117126142007e-01 -1.2847304782098417e+00
      -2.8343531105999600e+00 1.1893187338393592e+00
      -2.1426206361259017e+00 -2.7759124501431587e+00
      -6.8934567169124106e-01 4.9650796365347244e-01
      -1.9077637801738461e+00 4.2571619271754520e-02
      3.2575227942724561e-01 2.8500224822849751e+00
      -1.8135298211527617e+00 -1.7648840882943251e-01
      -9.7521903870057380e-01 4.4583519145553270e+00
      -2.3608332721830327e-01 1.7590518456400780e-01
      2.0514979254302239e+00 -7.9479447756592214e-02
      -1.9359270048685999e+00 -7.6153867047375090e-01
      -2.3251335285342800e+00 -6.6901300111000450e-01
      -1.9199127974830517e+00 -3.3153854165155030e+00
      -3.1078066669009774e-01 1.0180874511929769e+00
      4.2520578803392345e-01 1.4503925549288428e+00
      1.3636840792482792e+00 1.1154773004163276e+00
      4.5442377356578889e-01 -2.7213068256768130e-01
      -1.4623449131773072e+00 -1.1337012464405625e+00
      -1.7696471203925535e-01 2.3424342089780001e+00
      8.0017845119239062e-01 2.1850572766015182e+00
      8.7251735149373932e-01 -3.2568837811196789e+00
      -6.8512638613194428e+00 -9.4278979877715108e-01
      1.1700926795244764e+00 9.3393602049812852e-01
      -8.3788028782878066e-01 -2.5224327639218114e+00
      -3.7629083034564301e+00 3.1251773699055091e-01
      -3.3251138591985749e+00 1.5275763052328488e+00
      -1.1153580611764540e+00 -1.2352903295629123e+00
      2.4846186927911011e+00 1.3992737575265091e+00
      4.4081930410462844e-01 -7.6106694709004419e-01
      -2.6253650513109474e+00 -2.2114146291500303e+00
      6.2389757426871550e-01 4.0272045594055261e-01
      -9.0077412864001782e-01 1.0764832549146739e+00
      -6.4649999129107827e-01 -2.0918873026825340e+00
      2.7649257366194431e+00 -1.3225666891409080e+00
      8.6060296754879806e-02 1.2374466179152825e+00
      -1.5573383443391386e+00 -1.7733830687051124e+00
      -1.0367437621631719e-01 -2.1940599511621763e+00
      6.8244292805874629e-01 1.7402657489438829e+00
      4.4648260583417354e-01 1.8041256752182797e-01
      -1.3121616122090549e+00 5.6492671171523234e-01
      -2.9445075848020883e+00 1.8967056590656231e+00
      -1.5215400948210436e+00 5.0856974692166981e+00
      6.0433509102287297e-01 -1.2447477764419812e+00
      2.7087905674819166e+00 4.2012511411701565e+00
      1.4591535740138679e+00 -2.2343328973585902e-02
      1.7757310880439774e+00 1.0165077909317375e+00
      -2.6312085010422437e+00 9.7928801137092825e-01
      -3.0803294623885726e+00 2.3090728399453107e+00
      8.8247154437102837e-01 -2.8570325162875085e+00
      2.7082787722670507e+00 1.9726687385672788e+00
      7.7598186417559067e-01 -7.3218006715488471e-01
      4.6980204315541352e-01 8.5436356858900420e-01
      -1.1449460377915948e+00 1.8971089793941052e+00
      1.5236199395958931e+00 7.9191981515775459e-02
      -5.6866636286832728e-01 -1.3317237402116451e+00
      -1.6968984234485531e+00 -1.3340514210856131e+00
      1.1969174078404861e+00 1.8165038445045381e+00
      4.4308240732780907e-01 3.8756225105251080e-01
      -8.7799774570749534e-01 1.2041364292684244e-01
      2.4844082861194625e+00 3.4897679126041905e+00
      5.1327047839232243e-01 1.0470508353092212e+00
      1.3238234926129868e+00 -9.5785534922248916e-01
      -2.9607764214261616e+00 2.3944808683048717e+00
      -7.5568416656963866e-01 -5.7390425531212874e-01
      3.7762008479581808e+00 7.7360336512396644e-01
      8.4576308874672101e-01 3.9147430826116464e-01
      8.4451828454357580e-01 2.4642444265561045e+00
      -9.2918523956694099e-01 2.1315140920895290e-01
      2.7684596986280346e-01 3.6868957354329310e-02
      -5.0168461639963313e+00 2.8036373558118699e+00
      2.1741068440907685e-01 5.6987267568538975e+00
      3.6260881795501965e-01 -3.8344310274049259e-01
      3.3667683219245848e-01 -1.1499905139657590e-01
      1.0857065265148604e-01 -2.9794178796785391e+00
      -8.5334060124023214e-01 -8.5168806899430689e-03
      2.9275406118322915e+00 7.8133198318637265e-01
      5.1645130038395743e+00 -9.7571991163287608e-01
      7.6886379682966366e-01 -4.3238127755381113e+00
      2.5439189309401766e-01 2.7217403067547596e-01
      -2.0198951879295883e+00 -6.4598623182334003e-02
      -6.6504303455506986e-01 -4.3951198983949880e+00
      7.4554266624755350e-01 -6.5981057181780725e-02
      6.3635247598317601e+00 2.2290693092411742e-01
      4.1455266569675846e+00 -2.4874500395778334e+00
      -2.9090891113731576e+00 -3.1290891138574328e-01
      -2.4541470358124324e+00 -3.3763020260543053e-01
      1.5794795515570679e+00 -2.7637093259657064e-01
      6.1711411118072332e+00 -1.9590230788066183e+00
      9.7251454503768620e-01 -1.6470707960416739e+00
      7.6181382872668646e-01 -2.4985352216221464e+00
      2.7461056092937688e+00 -2.1888330594679770e+00
      -2.1348027974792805e+00 -1.0810806013879941e+00
      1.8428340255712470e+00 2.6198530069691879e+00
      1.4522323258161822e+00 -8.3086583689024118e-01
      -7.4864900681621632e-02 1.6853410643814932e+00
      2.4703577148737468e+00 1.6630461247628336e+00
      -2.3158896570536683e-01 6.8706098916127320e-02
      -8.4644223651875239e-01 -1.6195480915577993e+00
      -2.0764726240098441e+00 -1.2560618018782677e-01
      -2.1925236667515433e-01 1.6411543473419521e+00
      3.8407854689074594e+00 -1.7101055407862169e+00
      3.6784538473177081e-01 6.7642283828440897e-01
      -1.8042073008549515e+00 3.1143693237560910e-01
      -1.3723968653275955e+00 7.5957795844880693e-01
      2.3500435451948207e-01 -8.4824953301371264e-01
      4.2090875806976880e-01 -3.8721414623987011e-01
      3.3663535652342169e+00 -2.6182741347762867e-01
      -1.2135685287397111e+00 3.0847406421005572e+00
      3.5073285540622310e+00 -1.4595509930138137e+00
      -1.8245068937856597e+00 -1.9155047408423354e+00
      -1.9902967061763090e+00 -2.6372792203558806e+00
      1.9592642065344319e+00 2.3416849013522532e+00
      3.6590595516773514e+00 -1.5643749979625532e+00
      -1.5346715378232292e+00 -1.2988841271219025e+00
      -3.1439257154502798e+00 1.3485851946246088e+00
      -7.5064512809279349e-01 4.5748027491405115e-02
      1.3851839760869615e+00 -1.6119096391348287e+00
      -1.2122256173036270e+00 1.1576422001801863e+00
      -5.1821150193992613e+00 1.4393468964611067e+00
      9.4787812806174843e-01 -1.5863612850847433e+00
      -1.2432289617855248e+00 1.6469514277468276e+00
      1.8640790628073250e-01 9.1227717548796805e-01
      2.1783288440297430e+00 3.2293446594017445e+00
      3.6044363229496312e-01 -3.3514753601616216e+00
      -2.0088546981317904e-01 -5.8854902863317704e-01</_>
    <_>
      3.3651311450391219e-01 4.4731553249116185e-01
      -4.5392996277349285e-01 -3.2461526747810505e+00
      1.1364951515130066e-01 -1.3343778727756750e+00
      3.9535692231513425e-01 3.5875491607613091e-01
      -1.0879423588373534e+00 -2.5117882964922567e-01
      -4.2793343892759128e-01 4.7173607531055445e-01
      1.2283456230994991e+00 -2.6287163239771172e-01
      3.4065522864289627e-01 1.4743524847050737e+00
      -3.4415965376070229e-01 4.5099045075052396e-01
      -1.6234513682547831e+00 -1.3979503592852152e+00
      9.2717645016067729e-01 -4.7430660701245125e-01
      -1.2321285281923111e+00 8.6120463782663137e-02
      -1.1586007655092911e+00 -5.1836344653706207e-02
      -3.4120759490486030e-01 -3.8714469584177896e-01
      5.7679202234617832e-01 -1.3539476012930538e+00
      7.7806512338782025e-02 -1.3650201229272823e+00
      4.5729601226739530e-01 2.1623260716744954e+00
      -9.5639619828562428e-01 3.5860698483171277e-01
      2.3707070839864894e-01 2.5589812910213794e-01
      4.2682162921770006e-01 -2.6746624137587767e+00
      -6.9059975292422882e-01 -1.0065769521446442e+00
      3.2544973876376315e-01 -1.2274268318339250e+00
      4.2993490630703296e-01 -1.3482751889611233e+00
      1.4365167956713680e+00 -3.9882670831936828e-01
      -6.5105298449157267e-01 1.2376936950680262e+00
      -1.2252358811566915e+00 -9.2309749191606971e-01
      1.3267729549862879e+00 -8.7392380601122832e-01
      1.2683569429219594e+00 4.5296617881680162e-01
      6.8444221838133013e-01 -1.4409024914412485e+00
      2.4732089611657260e-01 1.2532951439402593e+00
      -1.0169830034838313e-01 3.2325603571558753e-01
      1.3281067797175476e+00 1.2595585956736242e+00
      -6.1113222816142398e-02 1.2257607035209701e+00
      -1.9843898192368381e+00 -1.2261940159669613e+00
      1.9979923807338543e-01 -1.1462092881953410e+00
      1.2586279208139524e+00 -7.1523855928961289e-01
      -3.4613307229506773e-01 -2.3287441474407114e-01
      3.7502028654634512e-01 -1.4312794452708737e+00
      9.4681431823005890e-01 -6.8295031196719524e-01
      -2.5338206988450684e-01 -1.1221845612525605e+00
      1.1376993368791350e+00 -4.0698957877617614e-01
      -2.9657607861509111e-01 -1.0177584426330727e-01
