<?xml version="1.0"?>
<opencv_storage>
<opencv_ml_ann_mlp>
  <format>3</format>
  <layer_sizes>
    57 57 36 20 10 10</layer_sizes>
  <activation_function>SIGMOID_SYM</activation_function>
  <f_param1>6.6666666666666663e-01</f_param1>
  <f_param2>1.7159000000000000e+00</f_param2>
  <min_val>-9.4999999999999996e-01</min_val>
  <max_val>9.4999999999999996e-01</max_val>
  <min_val1>-9.7999999999999998e-01</min_val1>
  <max_val1>9.7999999999999998e-01</max_val1>
  <training_params>
    <train_method>BACKPROP</train_method>
    <dw_scale>1.0000000000000001e-01</dw_scale>
    <moment_scale>5.0000000000000001e-03</moment_scale>
    <term_criteria>
      <iterations>10000</iterations></term_criteria></training_params>
  <input_scale>
    4.9113933532383150e+01 -2.3187737906573549e+00
    3.6299676748621742e+01 -2.3289921911103466e+00
    2.8958049698236934e+01 -2.1447226187235522e+00
    1.5548083395019699e+01 -1.2718035398058296e+00
    4.5835427174812180e+00 -5.9358679528373959e-01
    7.1519036973472243e+00 -5.0959403218740995e-01
    1.6771357605542139e+01 -6.7396425905038115e-01
    1.4657136079139208e+01 -5.5203183775509834e-01
    3.0281324288579221e+01 -1.0116569927548631e+00
    3.3732913935855237e+01 -1.2225584538414402e+00
    3.3710106960948430e+01 -1.5206382485842389e+00
    3.1422343258862110e+01 -2.0392011575839586e+00
    3.0138078728300492e+01 -2.3444113312324766e+00
    3.2057654652746542e+01 -2.4779963446444380e+00
    3.5356715783031184e+01 -2.3853505090509302e+00
    4.4095543649885208e+01 -2.2117629724415435e+00
    4.9113933532383150e+01 -2.3187737906573549e+00
    3.6299676748621742e+01 -2.3289921911103466e+00
    2.8958049698236934e+01 -2.1447226187235522e+00
    1.5548083395019699e+01 -1.2718035398058296e+00
    4.5835427174812180e+00 -5.9358679528373959e-01
    7.1519036973472243e+00 -5.0959403218740995e-01
    1.6771357605542139e+01 -6.7396425905038115e-01
    1.4657136079139208e+01 -5.5203183775509834e-01
    3.0281324288579221e+01 -1.0116569927548631e+00
    3.3732913935855237e+01 -1.2225584538414402e+00
    3.3710106960948430e+01 -1.5206382485842389e+00
    3.1422343258862110e+01 -2.0392011575839586e+00
    3.0138078728300492e+01 -2.3444113312324766e+00
    3.2057654652746542e+01 -2.4779963446444380e+00
    3.5356715783031184e+01 -2.3853505090509302e+00
    4.4095543649885208e+01 -2.2117629724415435e+00
    2.2782323223331913e+00 -1.1064687544014276e+00
    2.9409506738294753e+00 -2.4521199543290559e+00
    2.4036653769778860e+00 -1.5969276588481178e+00
    3.0141441374195099e+00 -2.5317286187626928e+00
    2.3589428510073978e+00 -1.0759486796787803e+00
    2.4034930926492750e+00 -1.8265164088723467e+00
    2.4801411740923891e+00 -1.3655581958515666e+00
    3.0337567179578806e+00 -4.7688703445318631e-01
    2.4358548282604500e+00 -1.0178183359090145e+00
    2.2187262111255026e+00 -1.5722806142633550e+00
    2.3279895227385787e+00 -1.6666441094001638e+00
    2.5919121959526485e+00 -1.2248455223653600e+00
    2.6977740731113187e+00 -6.2334074969195619e-01
    2.3159764916691832e+00 -1.2063719984416585e+00
    2.6943432331355326e+00 -2.1336203321703890e+00
    2.2627080840908276e+00 -1.6241888937550928e+00
    2.4790646015939175e+00 -1.0436826434708606e+00
    3.8659738129096892e+00 -3.2357097984994820e-01
    2.4408886876454567e+00 -9.6556149399755509e-01
    2.6943846738306143e+00 -2.2388907580454984e+00
    2.3048318612638687e+00 -1.1427616318334803e+00
    2.9250414430069993e+00 -2.4389520155166449e+00
    2.3406393657622586e+00 -1.4371421678123404e+00
    3.0768356056139829e+00 -2.6025989084117671e+00
    2.3519580791356733e+00 -1.4560062862546765e+00</input_scale>
  <output_scale>
    5.2631578947368418e-01 4.9999999999999994e-01 5.2631578947368418e-01
    4.9999999999999994e-01 5.2631578947368418e-01 4.9999999999999994e-01
    5.2631578947368418e-01 4.9999999999999994e-01 5.2631578947368418e-01
    4.9999999999999994e-01 5.2631578947368418e-01 4.9999999999999994e-01
    5.2631578947368418e-01 4.9999999999999994e-01 5.2631578947368418e-01
    4.9999999999999994e-01 5.2631578947368418e-01 4.9999999999999994e-01
    5.2631578947368418e-01 4.9999999999999994e-01</output_scale>
  <inv_output_scale>
    1.8999999999999999e+00 -9.4999999999999996e-01
    1.8999999999999999e+00 -9.4999999999999996e-01
    1.8999999999999999e+00 -9.4999999999999996e-01
    1.8999999999999999e+00 -9.4999999999999996e-01
    1.8999999999999999e+00 -9.4999999999999996e-01
    1.8999999999999999e+00 -9.4999999999999996e-01
    1.8999999999999999e+00 -9.4999999999999996e-01
    1.8999999999999999e+00 -9.4999999999999996e-01
    1.8999999999999999e+00 -9.4999999999999996e-01
    1.8999999999999999e+00 -9.4999999999999996e-01</inv_output_scale>
  <weights>
    <_>
      3.2694266055627871e+01 -1.7535937058336671e+01
      -1.5555332146879815e+01 3.0549474305225095e+00
      -3.7314072117600723e+01 2.1392338480516582e+01
      9.7799274624151753e+00 -2.1170434994271496e+00
      -1.5982284224737919e+01 -1.7544903783154320e+00
      5.7918978309144675e+00 -3.3285915275961910e+00
      -5.9007707248313563e+00 3.4587189601938895e+00
      -3.9313543859162557e+01 7.4867665829366432e+00
      -7.0571508600413875e+00 -2.5537962473459332e+00
      -2.3377278923013616e+01 -1.5486727915782872e+01
      4.9100762781700844e+00 1.5199353603150907e+01
      1.5133937295776562e+01 -2.1136595170179344e+01
      -9.0229091557536751e+00 1.5244075390214574e+01
      4.3380107992804966e+00 -5.1056036350007659e+01
      -2.2548358316431422e+01 -3.2612242347681494e+01
      -5.4649469178189403e+00 1.9501906466345588e+01
      1.7513645915192683e+01 1.7887516226252526e+01
      1.1714253757497440e+01 -1.2424926596502104e+01
      -1.7474107533617275e+01 5.1840784352828493e+00
      -1.7447725205968872e+01 1.8873147813955065e+01
      4.2119712371129516e+00 -1.9186897988003992e+01
      5.1579395138520967e-01 -2.0540537584870513e+01
      2.0222630072637067e+00 -8.0193638042058224e-01
      -6.0958515696003257e+00 -7.6768816326541574e+00
      1.4398545655194717e+00 -3.1225764789427089e+01
      -3.6527537199118775e+01 -1.1427733907005166e+00
      2.3831899141895638e+00 -6.3767998349855792e-01
      2.1675672127132398e+01 1.2136531247130143e-01
      -7.5471461305470742e+00 -2.2394122170154990e+01
      -3.4985776451836990e+01 -2.6010159737304459e+00
      1.8732098087171669e+00 -1.5338153741163211e+01
      2.5245337265314323e+01 -2.9550051823184148e+01
      -4.5019240363874333e+00 -1.1969438827534839e+01
      -1.4190126233863309e+01 -1.9091802982634228e+01
      7.1978186821774548e+00 -4.1762315763052724e+00
      1.5324430132525139e+01 -9.9679630683488245e+00
      6.3231156853467478e+00 -7.3108072543435112e+00
      9.4153853762686666e+00 -3.3295205260527347e+01
      -3.6250371891764360e+01 4.7774213589169268e+00
      1.7890762856732692e+01 4.1058679661979653e+01
      -7.9430293787657025e+00 -1.8377754747269435e+00
      5.8595688221821118e-01 -1.2854336430737542e+01
      -1.9696012956865751e+01 -2.4158157743815298e+01
      -5.9237996301384044e+00 1.1086138706255326e+00
      7.8328858385145930e+00 -8.0531179707042142e+00
      1.8311401046259558e+01 5.4343780320138020e+00
      6.4319778700337116e-02 -7.8545243090684345e+00
      1.8707173177545688e+01 4.5600038173146276e+00
      -1.4011814942838805e+01 6.2557625109797534e+00
      1.4013457958914224e+00 8.0876064924719593e+00
      -1.6958202165527062e+01 -7.8475154376677303e-01
      2.8507523009561879e+00 -2.1932434232776831e+01
      7.8558866257366011e+00 7.3841461574451035e+00
      -1.4193782164426885e+01 -2.2492786736717090e+01
      -7.7688904237074308e+00 6.7333455255156967e+00
      -2.3876051862696340e+01 -1.8562883633496526e+01
      -1.6207864459546808e+00 -1.3797374783796772e+00
      -2.7706989294437520e+01 -7.3797276800999967e+01
      2.0814413390333275e+00 -7.1404313575624396e+00
      -2.2203207665801902e+01 1.0778063145553233e+01
      -2.9173106568538532e+01 -4.4202922320494578e+00
      -4.5612368717407934e+00 -3.2486611542315245e+01
      -1.7065997783839112e+01 6.3091179586489350e+00
      -1.5055579376900315e+01 1.7172539479365756e+01
      5.5262095735366783e+00 2.4769596312773707e+00
      -7.6562432178310917e+00 2.1326665296839796e+01
      -9.4883131409580574e+00 -4.1921308698003683e+00
      -6.6800421246644692e+00 4.6651304587879734e+00
      -1.5351535679401186e+01 9.2707721853928842e+00
      9.2138407905994093e+00 -1.3015975788509833e+01
      -1.7478073847896884e+01 -8.5747817809309019e+00
      -8.6616632013701746e+00 -6.0509981999008611e-01
      1.4062284756307823e+01 3.7818138675807274e+00
      -1.8580836551821054e+01 1.1085431684835994e+01
      -2.4119684505155065e-01 5.3426276640592762e+00
      -9.9096613489346250e+00 4.0012846799977408e+00
      -7.7017914458075021e+00 -2.0035434108377078e+01
      1.0017927574738835e+01 6.2604570085757416e+00
      1.4811444953057478e+01 -5.5749573788800300e+00
      -1.0788550659384835e+01 1.5353067878615205e+00
      -2.4042542655281313e+01 1.4347794042746896e+01
      1.8986076263354910e+01 -8.1337724584755460e+00
      -1.0089038405953923e+01 -3.4973583132241384e+00
      1.2314658031589900e+01 -3.2336935348356597e+01
      -3.1560551830642815e+01 1.0991265595587545e+00
      -8.4590773824719534e+00 8.5302715014445074e-01
      -2.5772939981821562e+01 6.0916022588669616e+00
      8.5992449840306566e+00 -1.0912929665451692e+01
      1.4435776553629918e+01 -1.0985163166108450e+01
      3.0842144139144456e+00 -4.8062998081635548e+00
      -2.6108889264103013e+01 -8.9609380681228039e+00
      4.1310536654368128e+00 -3.9771494153350346e+00
      6.3683082499651782e+00 3.3074200952615582e+00
      1.1402426324269999e+00 -3.5571131647314114e+00
      1.2855568577810786e+01 -2.1903458672560294e+00
      6.0970700079045648e-01 -1.0099464014928762e+01
      9.0677259062810993e+00 -1.8935990070177240e+01
      3.2769079329775215e+00 3.2040888692039121e-01
      -1.0099680747897420e+01 -1.1268071707390979e+01
      -1.7676408561575638e+01 -4.6957353880009229e+00
      1.6576259897705947e+00 9.9379793685366575e+00
      6.6071424067989171e-01 -2.0985328332255082e+00
      2.5996901615280041e+00 5.3485464033345009e-01
      7.1228575107421950e+00 -5.1809406082508713e-01
      -8.1090837913369853e+00 2.5796771347382652e+00
      -1.4356824708686865e+01 1.7610300493383768e+00
      3.4538251657634285e+00 1.5935586441085942e+01
      -3.1802969785998663e+00 -9.7343781316262206e+00
      1.4319539782687143e+00 -2.5202953038723459e+00
      1.4930818649252153e+01 7.2970718530281209e+00
      -3.5453526119172146e-01 -2.3759839794298668e-01
      9.8926106391213919e-01 1.0292443553484173e+01
      -1.9016109519852705e+01 -1.0291880850148431e+01
      -1.4241513519916107e+00 -1.1752386578627339e+01
      -2.5948372107185897e+00 1.3724939654858305e+01
      6.3698154552409103e-01 6.9731804618663347e+00
      1.1271089561815536e+01 -5.5185763750875552e+00
      8.1291792206797222e+00 -9.4644407249646587e+00
      3.0355192311693515e+00 1.6156230350550675e+00
      1.8702372247559476e+00 -2.8841294165171854e+00
      5.4185611312422326e+00 8.0249918801669864e+00
      1.1191409689736950e+01 -3.6368984121480272e+00
      2.7328390852613635e+00 -5.2965404451099127e+00
      -6.7301252179844804e+00 4.8271020392005317e+00
      -1.0045534369323454e+01 1.2413503879754925e+01
      4.4430154796485155e+00 2.8323229673650778e+00
      -6.9171475410900731e+00 -8.4608122598126734e-01
      4.3825574006902068e-02 -5.1800162761958921e+00
      4.0310164413655274e+00 1.1266897818757435e+01
      6.2943728874363405e+00 -9.6844002207078450e+00
      5.0299373438750576e+00 -3.0430628307835557e+00
      5.1371271129532881e+00 -5.8095574840013722e+00
      3.6071865714375601e-01 -1.6867856744773235e+01
      1.4316698781821922e+00 -1.1272015530831386e+01
      4.0477002014551982e+00 8.9951066090798086e+00
      8.2843081515169779e+00 9.6268366842753288e+00
      -5.9549679384471839e+00 -1.6037289483370039e+00
      6.9203526123249128e+00 3.5666706396522310e+00
      4.5062187095982527e+00 6.6291318638555445e+00
      9.9951803924837108e+00 9.2323057294847253e+00
      5.4259624077998074e+00 -1.4176794233190273e+01
      1.2773106000038506e+01 7.9171225904581197e+00
      -1.7384699019691002e+01 8.1579443769237727e+00
      1.6170009010985158e+01 -3.1754969999252131e-01
      1.3548246002975417e+00 6.3911031764148323e+00
      -2.7101731720258533e+00 2.3870658124537534e+00
      -1.5715502062897502e+00 1.8944950108795482e+00
      1.9546688985791407e+00 1.9127464115949688e+00
      1.9844323817565759e-01 1.5358830915101434e+00
      1.8010049470963292e+00 5.0432937872834582e+00
      -4.6647771110237413e+00 -2.9916402248968947e+00
      -2.5237406587538844e+00 5.6333719646796432e+00
      6.4400037250850906e+00 -3.1572335247643166e+00
      4.7562195993275234e+00 -3.9791654712112603e+00
      2.7626034946958544e+00 7.6652904847584002e-01
      -1.4005811501676755e+00 -2.7446602916970081e-01
      1.0855565694841898e+01 3.7270589527033926e-01
      7.9301846971135399e+00 2.9181229890585141e+00
      -1.7160720342532512e+00 5.0177775274673806e+00
      -2.8445966066919364e+00 1.1433611917517799e+00
      -1.5874345545222582e-01 5.6620022088254662e-01
      -5.8121931272321108e+00 -5.5686074044701819e+00
      -4.1479955518895428e+00 1.7776674997860984e+00
      5.7277113476200494e+00 6.9139457440965204e+00
      4.7236543308732903e+00 -4.9442247830572468e+00
      -6.0353185745209021e+00 1.6723562795249738e+00
      1.3544312468917127e+01 7.9401233644044558e+00
      2.8581504409866940e+00 3.7809211998519814e+00
      4.3035299044059441e+00 -1.0976526013700156e+00
      -3.9797282614512314e-01 2.8497135058096128e+00
      1.8919357636873876e+01 -1.0608024862289160e+01
      3.0905704719592794e+01 1.7243618919108414e+01
      4.7209505923031037e+00 1.0156017292273736e+01
      1.4027624719609822e+01 1.8090273370411249e+00
      3.0097942463493816e+00 5.2926490524657170e+00
      1.2216592295473256e+00 1.5215933986825825e+00
      9.1208016537848042e+00 9.6653197378352953e+00
      -1.4555727285984339e+00 -6.2402580671145760e+00
      -3.5752990539295406e+00 -4.3072769365609220e+00
      -6.1250345396900014e+00 -7.4207996399906833e+00
      1.9962005077628582e+01 1.1527970169365855e+00
      3.3501342866459813e+00 -2.6053962384406018e+00
      -3.1076628639509462e+01 6.6451043862599812e+00
      9.7340802250159231e-01 5.5519212297114420e+00
      -1.1230201498695662e+00 6.6101040021970519e+01
      -2.9631467798772482e+00 8.7578992934190614e-01
      -6.9077399818518463e+00 6.6900065445495258e+00
      1.2345835179645753e+01 -5.1056879132448243e+00
      -7.0228082458166989e+00 2.8669323892203757e+00
      1.0493331805906310e+01 6.4071760238625686e-01
      -1.0204314879077769e+01 1.7117231682267949e+01
      -1.9268515614429580e+00 -1.3537068254809954e+00
      -1.3576843653802448e+00 -7.2545370651353753e+00
      -1.2629413908616743e-01 -1.3849081940466824e+01
      2.3928445614304783e+00 -8.4594079261035215e+00
      1.0907424476853276e+01 -3.2813050572210520e+00
      1.3683126716056890e+00 -2.0172745230663791e+00
      3.2245352685296504e+00 2.1769119137272273e+01
      1.7011139028556141e+00 3.8684899240401727e-01
      3.2100700008687633e+00 -3.0741329846391205e+00
      1.6850357073298625e+01 2.6463337595110952e+00
      1.3546134438738070e+01 3.8064762717830575e+01
      -5.1279721707511703e+00 7.0160343821493729e+00
      1.0840711476262932e+01 1.3856204173415538e+00
      9.1481063844244730e+00 2.1018988381853266e+01
      7.5680568347368693e+00 4.9000733839881701e+00
      -1.1775155659715628e+01 -1.1268343581528249e+01
      2.4579094116144574e+01 -5.7703594352004508e+00
      -1.6771525190258032e+01 1.3459338356496934e+01
      -4.6779782108816514e-01 8.7837244125993781e+00
      -3.3260398558576179e+00 -2.9242121238167549e+01
      1.9100485744391769e+01 3.8744740168389278e+00
      7.2495528632009796e+00 -3.6191018624610010e+00
      -5.2459098390536871e+00 -1.2684722269636346e+00
      -7.9267719126413176e+00 -1.0124085439596026e+01
      1.0246119887316467e+00 1.2960517175757154e+01
      -6.2592886980696436e+00 -2.3269409983029572e+00
      -6.3888953668217088e+00 1.0563757178363621e+01
      -3.1139057709945823e+00 -6.6585053351554402e-01
      1.7297757960543606e+01 -5.7333774175420338e+00
      -2.5876064138232909e+01 1.0310483884487474e+00
      3.8558187317909218e+00 2.8852676866031461e+00
      -1.6038034072368024e+01 6.9438676131056116e+00
      -1.9695541858245718e+01 -2.3416986545174893e+01
      1.1830160366222195e+00 3.1697420426916980e+00
      -1.1008047334133328e+00 4.9828145992435005e+00
      1.5973279297190967e+01 2.6566937889489481e+00
      -9.8708687091176692e+00 7.3897601095442389e-01
      3.1032212940420912e+01 2.5089955269080090e+01
      3.3054401012433671e-01 1.0657682610608529e+01
      -7.0211175722831376e+00 -1.1228612098471547e+01
      7.6380448959483234e+00 1.4138443677348716e+01
      -5.3018029295048281e+00 1.9440915314667322e+01
      1.8814269036409630e+01 -1.1218396265284259e+01
      7.6507163014255397e+00 -2.2272514550040331e+01
      -1.9370920689905194e+01 3.4933951937453607e+01
      -1.2460538295909713e+00 -1.4753557168849225e+01
      2.0414431646030796e+01 -1.0009578702321817e+00
      1.9175786365010595e+01 -1.8882123102937580e+01
      -5.9908826603524510e+01 1.2017104310058091e+01
      5.6068559725666880e+00 1.8322200777881552e+01
      8.0490555326894491e+00 -1.1560773536207419e+01
      7.9673663704743731e+00 -1.7372586348125754e+01
      -1.4136200681653717e+01 6.2433096914678354e-01
      2.3704591618079871e+01 -1.6509124654629268e+01
      -2.3502677459586970e+01 4.1003098459281349e+00
      8.7138762084401105e+00 -7.6339546544439845e+00
      6.8108308381734952e+00 3.8653527613443771e+01
      -2.1615018698914483e+01 -2.8108455659612268e+01
      -2.1192046394760993e+01 1.3964882546445473e+01
      1.1543622555935551e+01 -2.5330785041056686e+01
      1.3954239150714132e+01 -1.7084055812160546e+01
      -2.7241819850651908e+01 3.4568106548054722e-01
      -1.5167220381748839e-01 -8.3671004289888753e+00
      -2.5780403996689454e+01 4.7044595982437393e+01
      -2.3169301044077674e+01 -6.2492037509276976e+01
      5.1869095295980777e+01 2.9705964658205012e+01
      2.2372217211819347e+01 -1.2780788291886906e+00
      6.0947086778281223e+00 -1.5520547004796799e+00
      -2.9003615328055363e+00 4.2153350563300673e+00
      1.8022081272218873e+01 5.2328612107138177e+00
      3.3206829791110898e+01 1.8752631005291895e+00
      2.6829870583415234e+00 4.8982490368586316e+00
      -1.5764456175840168e+01 -6.0760876757278410e+00
      -8.8444069171318844e+00 -3.3751933632802014e+00
      -1.9629801742042631e+01 1.9762554856738088e+01
      2.0856705767167028e+00 1.9662057574021166e+01
      -2.5869674881599533e+01 -6.8552113903892106e+01
      -1.3111539644591758e+01 2.0154936864354781e+01
      1.3027544914316950e+01 9.1080354104073500e+00
      -6.6146886027633132e+00 5.5312115450979098e+00
      -2.3261742456141992e+01 -1.5034912406690456e+01
      -1.6931092918483823e+00 -1.0825854520561546e+01
      -6.0980979399990787e+00 -1.5999428069695131e+01
      2.6110001839481622e+00 1.0067340796939972e+01
      1.8662779685376190e+01 -1.5125247930033283e+00
      4.0561696481748157e+00 -4.4200777578521278e+00
      -2.6122815636954677e+01 -1.0666592509088536e+01
      -1.6896537354822883e+01 1.7592408203272317e+01
      -2.6410249279597952e+01 1.9315492515108339e+01
      -1.3637065054462068e+01 -2.9697695856854491e+01
      -4.7063711904821526e+00 2.9814589985534905e+00
      6.2013113826356581e-01 -2.8758588842683743e+01
      2.0545333562209969e+01 -1.2411431408342317e+01
      -3.4032712970950629e+00 6.7282192782885886e+01
      2.9574569191361331e+01 -1.0937223708929446e+01
      7.6020331071360161e+00 -4.1835538047594397e+01
      -2.9820349895471669e+00 -8.3654745020156192e+00
      7.2147055515667247e-01 5.2988318685008098e+00
      5.0277280248281420e+00 1.4529353754311249e+01
      -3.7740222360313527e+00 -2.3240107369489596e+01
      -5.9338877060965345e+00 -2.2418433951532421e+01
      5.2778073719255785e+00 -1.8761124041146317e+01
      9.4708445828770582e+00 1.0886354339332698e+01
      2.4077758401575895e+01 2.6263414251395507e+00
      1.6407097633787121e+01 -3.3728514815259075e+01
      9.9987620764441871e+00 -2.2005440197091882e+01
      1.9649760918496014e+01 -7.6012747698630134e-01
      -6.8848104468989717e+01 -5.3928811114486415e+00
      1.1376307267522092e+01 -2.7557585917849359e+01
      -1.8015623903145379e+01 2.6692414140106053e+00
      -1.1523372891795585e+01 2.1581084147189333e+00
      -3.3008185054906519e+01 1.5839840558488033e+01
      2.8007754920874440e+01 2.8237548740357511e+01
      5.6712853082394288e+00 1.6165399936276060e+01
      -1.2309927764827455e+01 -3.4126169536289086e+00
      -1.5967162374652499e+01 -1.6354025786360509e+01
      1.9839574173534317e+01 2.9738569708816264e+01
      1.2222246558982906e+01 -1.4491829440747120e+01
      -2.4205643565970195e+01 -1.1540446280439360e+01
      1.4461776671666106e+01 -1.7831633294468613e+01
      -3.4682944458199550e+01 3.7455982868883908e+01
      -9.2418056688839076e+00 -8.1090767173625498e+00
      4.3915088793725950e+01 -1.6146319777264328e+01
      -1.1184258074601724e+01 7.5989716974849619e+00
      -3.0046203829803297e+01 -2.2622559157372617e+01
      -8.6552062853856100e+00 -1.4497241098448690e+00
      1.2350757204109247e+01 1.1629673650459736e+01
      1.2929731752512673e+01 -1.7179460384245605e+01
      -1.2827318108721354e+01 5.9297866302226776e+00
      -4.6794803238955032e+00 -1.2172583476034511e+00
      -2.9899645806881839e+01 2.9082801469796813e+01
      4.7771080799099774e+00 2.9319627011884930e+00
      7.4792575069303782e+00 9.2064204015958833e+00
      -2.0923765702321827e+01 9.2889536404572723e+00
      -6.0196164410967148e+00 7.6465904500296391e+00
      -2.4655980730749900e+00 -1.2314735452411121e+00
      2.4540328522875638e+00 1.7478791655995626e-01
      3.7131104458571547e+00 -9.3150858070475131e+00
      -1.0982060243410389e+01 -1.1785651018675814e+01
      5.1096360116909469e+00 -2.1310822643063329e+01
      2.6499015254546300e+01 3.7863783811672476e+00
      2.4555980090468033e+01 -3.7251614023657829e+00
      -3.3089786315692486e+01 -1.1216630173739073e+01
      5.2639081407867252e+00 1.9300070238634500e+01
      -2.2580974947129717e+00 1.1559786754054905e+01
      3.2686772328427793e+01 8.4296873449233112e-01
      -7.5127524841687281e+00 -8.1867440856688312e+00
      3.2872063074006279e+00 8.5757509915722405e+00
      -4.9886259829493458e+00 -6.1097942647554158e+00
      -4.9588685822938117e-01 -1.7319170611650431e+01
      -9.3809762857742207e+00 1.8123323507903649e+01
      -5.2043104313406793e+01 -1.4282271033448792e+01
      -7.2106776475511980e+00 -3.5608427059440977e+01
      -1.6435810916440047e+01 1.6158994365348047e+01
      -1.9878783149390397e+01 2.2515335408445343e+00
      2.7512456952459785e+00 -1.9423137432522517e+00
      -1.4285435659851725e+01 1.1201395745174491e+01
      3.4120981705071842e+00 -2.0283514253036415e+01
      -5.4283618642789495e+00 -1.4186293858711444e+01
      1.4357988137370844e+01 1.6358188150324484e+01
      -2.2202205937645073e-01 -2.3790521257297930e+00
      7.6743492233667787e+00 -3.7405916557154875e+01
      1.3554474876359797e+02 -3.9405835388874957e+00
      2.8828213145440076e+00 -1.9082014403521459e+01
      2.5602831022232394e+01 -1.6127556699608480e+01
      1.0620543194411807e+01 -4.2928133919505500e+00
      -1.6089874252026526e+00 7.1144651194303010e-01
      -4.2355552102034835e+01 -3.0261173937845003e+00
      -3.8122322505744806e+00 4.9818878649104983e+00
      -6.4139016986029169e+00 1.8384103940563364e+01
      -4.1786765364873399e-02 -4.8568492294776240e+00
      -3.9591504550530310e+00 1.7128568023661317e+00
      1.6732941518468884e+01 -3.5110084428377912e+00
      9.7195259491113184e+00 2.4886526586805580e+01
      -1.8113749145712880e+01 -5.5335939669295628e+00
      -6.9050035892316135e+00 9.3184054319962062e+00
      -6.1903141583732655e+00 1.8622157449391654e+01
      -4.5866420639233567e+00 -2.9459098270800488e+00
      -6.6666390125398536e+00 -9.4719016104959071e+00
      9.5652490793369349e+00 -3.5719047161659539e+01
      -3.6705484337467475e+01 -1.1494920817146983e+01
      -1.7215601549705923e+01 -3.1734465180081834e+01
      3.2598285906505979e+00 -9.4198053056206668e+00
      -1.7721893375896425e+00 -3.3341012020986001e+00
      -9.5750380617384288e+00 -1.2701270594486992e+01
      4.7545243295651831e+00 -1.0860894690399618e+01
      9.7417241085393069e+00 3.4549153682051741e+00
      9.6387755417888670e+00 1.9155864961190596e+00
      2.1911155033524420e+01 2.4303786714136915e+00
      -6.9707944213455022e+00 -4.3499739173508454e+00
      -1.9334089718002001e+01 3.6352866956774314e+01
      -1.4151759747378533e+01 -8.6560773049214723e-01
      -1.1112701612475817e+01 2.6816811557910793e+01
      9.8548628205612889e+00 5.9527408959476338e+00
      -1.9773030359685333e+00 -1.6636547163384576e+00
      6.0018770294493251e+00 -1.8503560274193489e+01
      5.2627959631005421e+00 1.3014992927383544e+01
      6.0821078529749952e+00 -1.6963759334255922e+01
      2.4222839308368563e+01 5.4290355810934292e+00
      5.7458675305514859e+00 -4.4573373780545813e+00
      9.0599010065278449e+00 2.2142602072430670e+00
      -4.4798878067261967e+00 -2.8091075076235863e+00
      2.5574601162826767e+01 -1.7992486836984639e+01
      -7.7485252063184245e+00 7.1689759715056125e+00
      -1.6279801157794489e+00 -1.0989806700398379e+01
      -1.3043329827368092e+01 -1.7850302000773330e+00
      -5.5767845242040714e-01 4.1531893823865653e+00
      -1.4011604981499843e+01 1.5937724810945513e+00
      -2.8869200811246969e+01 -3.1006386826525482e+01
      -1.7748517566105431e+01 -1.6026456979720272e+01
      -4.3387064320342205e+01 2.8787034029594198e+00
      8.9165652381110683e-01 -4.8714391785719551e+00
      -1.1086382790537147e+01 -1.2430757366607057e+01
      -6.8421900862751546e+00 -6.5991233871638544e+00
      -1.2615057192343873e+01 4.2986278453882214e+00
      -1.2938389934247040e+01 2.7567416356754886e+00
      1.5606237475699754e+00 1.9766023150458651e+01
      -2.5447067273957337e+01 -1.5330220367326465e+01
      4.0392115136840054e+00 6.1341051909104189e+00
      3.1516565489976788e+01 -2.5129013844583948e+01
      -1.6569150892105270e+01 -1.2146218402838660e+00
      4.8116044165274097e+01 9.3149922580645388e+00
      -4.6670181982002239e+00 -2.5835817826873995e+00
      -4.5740872302325668e+00 1.6821228946648802e+01
      -1.1305309055207562e+01 1.1422297440371185e+01
      2.6868684647475924e+01 -3.0043651427321265e+00
      -2.7215792138148661e+01 3.3295940545498240e+01
      1.4163340631290273e+01 2.8585074260361047e+01
      8.5890135035342627e+00 1.1346320555442073e+01
      -2.3914225841400636e+01 -8.1740791572696434e+00
      8.2859058750852714e+00 2.4740712965356337e+01
      -1.8454106290851147e+01 -8.4674533519889756e+00
      1.2749857308160045e+01 -4.0091249607205892e+00
      -2.4140735972172944e+01 -2.7365739168215349e+01
      4.3440629061262186e+00 1.5012921663829065e+01
      8.1668220304987411e+00 -1.2022330061952752e+01
      4.0234212646719234e+00 1.2247863755867956e+00
      -1.5395491290094467e+01 -2.4364671442085555e+01
      4.0082577565224389e+00 -1.5343644120349516e+01
      2.5625650874971511e+00 3.6500959626289231e+00
      -1.6772449985736617e+00 -8.6305303671003113e+00
      3.5733344184642228e+00 -1.3322446176840195e+00
      -5.8241071794040744e-01 -2.2339936903177879e+01
      -4.9521589758976257e+00 -1.6850781594009803e+01
      1.1720393692799194e+01 -1.1186144944045633e+01
      8.0877743515777833e+00 -4.3891939707788950e+01
      -9.1077185747585609e+00 1.3148260825287407e+01
      4.9681677771162063e+00 3.0210904790429723e+01
      -2.1781108394667346e+01 -7.9932275835832716e+00
      2.1223345835913268e+01 1.7778834788314050e+01
      -1.5158892399847078e+01 -7.1163962004106613e+00
      -8.4977381478832186e+00 1.1773295891125988e+01
      3.6710704029732398e+01 -1.0352586164121961e+01
      2.1419773716491203e+01 3.1807899629449814e+01
      -2.6449882573464066e+01 -2.5393429752380065e+01
      1.1439364065782117e+01 2.9307289818765906e+01
      3.7570576371326752e+01 1.1375906145188194e+01
      -4.0481076093613471e+00 -1.2339510366632858e+01
      -1.3273247979257413e+01 2.1413223354717658e+01
      1.2282216016583460e+01 -1.8430504140696744e+01
      -3.9679761684578990e-01 -5.1289220527471011e+00
      -9.8554450477775273e+00 -3.7103236276838835e+01
      -3.0023084357053410e+01 5.9690256360000156e+00
      8.3479541144111948e+00 2.8193188066364483e+00
      3.6434617283076198e+00 1.2957990113867421e+01
      3.2706031792407352e+01 -1.7576104952496294e+01
      -1.5544586232791071e+01 3.0880218317646158e+00
      -3.7283799577422521e+01 2.1418960063950795e+01
      9.7859894001650058e+00 -2.0660036532294064e+00
      -1.6001384767901399e+01 -1.7769354544342368e+00
      5.7952443391206563e+00 -3.3167995399658947e+00
      -5.9303902318765926e+00 3.4170223638986408e+00
      -3.9314103194027020e+01 7.4870893075578486e+00
      -7.0713192117964514e+00 -2.5731557768708369e+00
      -2.3344875498287390e+01 -1.5443744197580880e+01
      4.9704351128537958e+00 1.5219541743565504e+01
      1.5137083872358843e+01 -2.1084333704172433e+01
      -9.0199709833394284e+00 1.5223135176881156e+01
      4.3827067994513991e+00 -5.1097369112083740e+01
      -2.2538315433343438e+01 -3.2581555733043537e+01
      -5.4772943674303658e+00 1.9496995579836089e+01
      1.7557305254637527e+01 1.7887857163586435e+01
      1.1734546814978481e+01 -1.2452670641819871e+01
      -1.7475522213231944e+01 5.2279800558054266e+00
      -1.7462307928182771e+01 1.8909904891463633e+01
      4.1963338806555761e+00 -1.9154953870541789e+01
      5.0269855456417856e-01 -2.0569887666888675e+01
      2.0179603751255515e+00 -8.1687898343786025e-01
      -6.0289238015429412e+00 -7.6634400212130585e+00
      1.4465687892843428e+00 -3.1187924321075684e+01
      -3.6484233703490538e+01 -1.1796466849129932e+00
      2.3825797940343909e+00 -6.7016289698102605e-01
      2.1662144620183458e+01 1.1165041435109679e-01
      -7.5382727580874773e+00 -2.2401125026834382e+01
      -3.4989259570950558e+01 -2.6160115971970854e+00
      1.8523480790872922e+00 -1.5287564754239362e+01
      2.5249842848654794e+01 -2.9553452624482176e+01
      -4.5005067763298259e+00 -1.1989743385453968e+01
      -1.4171737838658649e+01 -1.9079561882995559e+01
      7.1977210942279273e+00 -4.2330585922973709e+00
      1.5380187243029281e+01 -9.9357837533877049e+00
      6.3732823834795145e+00 -7.3116955999526771e+00
      9.4269381329209097e+00 -3.3304797746599064e+01
      -3.6271157708651614e+01 4.7681696252719004e+00
      1.7891109373896974e+01 4.1060577564853531e+01
      -7.9346273511007119e+00 -1.8488516611036807e+00
      5.4775764641990632e-01 -1.2820395698645429e+01
      -1.9724015581785615e+01 -2.4145840197440027e+01
      -5.8796915488513726e+00 1.0975309911168503e+00
      7.8785389783859801e+00 -8.0662176505269798e+00
      1.8328043098972120e+01 5.4156862081736836e+00
      8.1153388774399621e-02 -7.8399791614944139e+00
      1.8697337526703219e+01 4.5321862767407373e+00
      -1.3975986911046801e+01 6.2238509021802972e+00
      1.4464567809994353e+00 8.1107517498698911e+00
      -1.6926167643389846e+01 -7.8739783528549012e-01
      2.8427576076618859e+00 -2.1898583351444064e+01
      7.8663516198531402e+00 7.3475327793912477e+00
      -1.4149415236467782e+01 -2.2482623104668555e+01
      -7.7578410089209324e+00 6.7376905940931646e+00
      -2.3890488048850550e+01 -1.8545274385691133e+01
      -1.6339052847392315e+00 -1.3623764554203728e+00
      -2.7705350921955414e+01 -7.3804929699996691e+01
      2.1112589157524191e+00 -7.1703762828041153e+00
      -2.2230992653613367e+01 1.0766275159508705e+01
      -2.9151329669416537e+01 -4.4157546530278724e+00
      -4.5707689930077899e+00 -3.2545032471116727e+01
      -1.7051583699228015e+01 6.3140816470819319e+00
      -1.5103868985664594e+01 1.7189815945984936e+01
      5.5327021972426493e+00 2.4727360508034328e+00
      -7.6844106452036147e+00 2.1289616400080639e+01
      -9.5192012996765580e+00 -4.2440481032636539e+00
      -6.7306315298119035e+00 4.6648087448637368e+00
      -1.5404291461294028e+01 9.2602432294728256e+00
      9.2268338920942661e+00 -1.2988365677719065e+01
      -1.7485526552614783e+01 -8.5640665697756528e+00
      -8.6418057917349600e+00 -5.7488037911521506e-01
      1.4033624135521924e+01 3.7589238827760814e+00
      -1.8559045657933599e+01 1.1060900933368531e+01
      -2.1759784180752789e-01 5.3086955623586407e+00
      -9.9277623429293929e+00 4.0116448311292254e+00
      -7.6923660628003399e+00 -2.0020078161090229e+01
      9.9727715146951503e+00 6.2816613170722810e+00
      1.4799807786932888e+01 -5.5815638557627238e+00
      -1.0830834797547496e+01 1.5168689243328688e+00
      -2.4020133836922565e+01 1.4342919450906349e+01
      1.9029944915395184e+01 -8.1574337888499766e+00
      -1.0108069409559048e+01 -3.4526828083360992e+00
      1.2324164859638287e+01 -3.2373360418470646e+01
      -3.1553725579257208e+01 1.0973674560114790e+00
      -8.4659526493004549e+00 8.7242850834157892e-01
      -2.5766963430052630e+01 6.0982937651685454e+00
      8.5978409033742107e+00 -1.0920143450028258e+01
      1.4462950361961145e+01 -1.0975964419964178e+01
      3.0841834400226600e+00 -4.8304200748246799e+00
      -2.6087375741726540e+01 -8.9552545131733403e+00
      4.1055208469555238e+00 -3.9787769552366852e+00
      6.3962082290841362e+00 3.3326735137178813e+00
      1.1128286625822170e+00 -3.5559759362261558e+00
      1.2906879731358281e+01 -2.2203216950450821e+00
      6.2911523115766721e-01 -1.0080670695631381e+01
      9.0954047026669436e+00 -1.8963003961509376e+01
      3.2658670611176590e+00 3.0400963270835429e-01
      -1.0116547213601248e+01 -1.1250710979827753e+01
      -1.7654753103633276e+01 -4.7417540852582043e+00
      1.6590914597262243e+00 9.9159387309650509e+00
      6.1471639465456163e-01 -2.1447859684563855e+00
      2.6266628663955842e+00 4.9801574673835736e-01
      7.1375459832925507e+00 -5.2854466232646080e-01
      -8.0423361439017711e+00 2.5756850119082983e+00
      -1.4384484541989037e+01 1.7956713771169555e+00
      3.4623571534455659e+00 1.5993027607840130e+01
      -3.1427977159939058e+00 -9.7776858330250516e+00
      1.4745403420291492e+00 -2.5531122060373006e+00
      1.4937606815798382e+01 7.2376590096033331e+00
      -3.6115224272261376e-01 -2.2098993268605419e-01
      1.0304067872237901e+00 1.0249299522305799e+01
      -1.9034191680872926e+01 -1.0315337219987807e+01
      -1.4007735802611458e+00 -1.1772290376239903e+01
      -2.5508027698553550e+00 1.3752934681156187e+01
      6.4218515224605643e-01 6.9916870019092041e+00
      1.1278070666325569e+01 -5.4757186914776703e+00
      8.1141937883149406e+00 -9.4658042212048255e+00
      3.0364721403152868e+00 1.6459266891409570e+00
      1.8505809299390670e+00 -2.8551803088333823e+00
      5.4514336597916317e+00 8.0071099547119946e+00
      1.1146831751663889e+01 -3.6501887143406204e+00
      2.7774763607776443e+00 -5.2878116754081601e+00
      -6.7637242345560074e+00 4.7949356651913932e+00
      -1.0057953375544779e+01 1.2421705466244456e+01
      4.4081158809709873e+00 2.7722884647634314e+00
      -6.8882492239196962e+00 -8.6625910644090176e-01
      1.1024488168676802e-01 -5.1893494613867643e+00
      4.0366439768338971e+00 1.1297743245552951e+01
      6.2894146128957651e+00 -9.6349851240239719e+00
      5.0185531210098668e+00 -3.0174569573857601e+00
      5.1711403224045212e+00 -5.7506101336960969e+00
      3.5061930530176194e-01 -1.6874613783737743e+01
      1.4479653338358691e+00 -1.1276162625181930e+01
      4.0792220375562485e+00 8.9869230922918337e+00
      8.2761660895327012e+00 9.6371803447565618e+00
      -5.9273209337534718e+00 -1.5548165145303023e+00
      6.9167155778821394e+00 3.5839772835631765e+00
      4.5102782414253095e+00 6.6601567939858590e+00
      1.0057094335431994e+01 9.2821955358738961e+00
      5.4054540782517195e+00 -1.4149893919810607e+01
      1.2771288997102703e+01 7.9139680776980015e+00
      -1.7365862037006732e+01 8.1591353051732760e+00
      1.6172461442034699e+01 -2.9201600631451979e-01
      1.3493654553334689e+00 6.4169101046683483e+00
      -2.7120157963751641e+00 2.3381975942348139e+00
      -1.5948133644377218e+00 1.9227120570967582e+00
      1.9388001348336021e+00 1.8640387467306578e+00
      1.5909784604047592e-01 1.5187189606213642e+00
      1.8271226056511622e+00 4.9916773982641693e+00
      -4.6714856137664622e+00 -2.9650902469757319e+00
      -2.5146109756321273e+00 5.6173947455880793e+00
      6.4505105877127731e+00 -3.1647930501242070e+00
      4.8038689385227329e+00 -3.9464141825008823e+00
      2.7209193814108534e+00 7.6031571997751390e-01
      -1.4017448153406438e+00 -2.9929960102484665e-01
      1.0840917119620306e+01 3.8890103002432846e-01
      7.9302173436219237e+00 2.8870512581703447e+00
      -1.7356769848835161e+00 5.0368401603625044e+00
      -2.8617459349727636e+00 1.1103583874796592e+00
      -1.8483877141472249e-01 5.3710372147974328e-01
      -5.8071088552265246e+00 -5.6098502206808218e+00
      -4.1508795332113442e+00 1.8288023661739188e+00
      5.7779778216493884e+00 6.8819731006214981e+00
      4.7125383401765761e+00 -4.9197461080646425e+00
      -6.0065030494893001e+00 1.6632834760885833e+00
      1.3512110054552423e+01 7.9102812150294888e+00
      2.8325754359561368e+00 3.7614759904293864e+00
      4.2989704786710279e+00 -1.0392796656187318e+00
      -3.7372463960713803e-01 2.8479085457110620e+00
      1.8913941502493230e+01 -1.0551932130413862e+01
      3.0874030535973212e+01 1.7228583694020301e+01
      4.7237371580028134e+00 1.0129020478647350e+01
      1.3996356040005526e+01 1.8544059771360535e+00
      2.9804346808241182e+00 5.2382486587604076e+00
      1.2355586824420477e+00 1.5155722543445240e+00
      9.1244669729796311e+00 9.6544677368254970e+00
      -1.4639279054720904e+00 -6.2008292569799277e+00
      -3.5612630631555597e+00 -4.3181114481960270e+00
      -6.0816125549443125e+00 -7.3696757621297024e+00
      2.0007954732016206e+01 1.2085923454416871e+00
      3.3836873268006435e+00 -2.5475735848185463e+00
      -3.1059210373399036e+01 6.6380400813390503e+00
      1.0306913399967252e+00 5.5017273231074535e+00
      -1.1440517599266646e+00 6.6088498222627521e+01
      -2.9289938199799388e+00 9.2792143366096569e-01
      -6.8764965867367538e+00 6.7104001795999544e+00
      1.2386689163008599e+01 -5.0560808213409816e+00
      -6.9939800509766430e+00 2.8851341012531408e+00
      1.0475485155545330e+01 6.6165967983460594e-01
      -1.0176458367504404e+01 1.7115614970599761e+01
      -1.9277744142763109e+00 -1.3197895401871675e+00
      -1.3430346252111078e+00 -7.2650100560412874e+00
      -1.2625045525997047e-01 -1.3870787079234223e+01
      2.3996917538826903e+00 -8.4056501814719109e+00
      1.0921932003961823e+01 -3.2643437012329684e+00
      1.3628116214078123e+00 -1.9997810898746271e+00
      3.2465291042117377e+00 2.1779004635395260e+01
      1.6783594153041550e+00 3.4706868690498943e-01
      3.1876251786710204e+00 -3.0812519081740812e+00
      1.6848159617229125e+01 2.5892502760850560e+00
      1.3570723183834678e+01 3.8022600830016756e+01
      -5.1308377572327011e+00 7.0153554486702117e+00
      1.0849055010943813e+01 1.3560209839353685e+00
      9.1554308245024263e+00 2.1035056528599522e+01
      7.6094063759445865e+00 4.8933399394734707e+00
      -1.1754105586989231e+01 -1.1242605020703024e+01
      2.4582464142516521e+01 -5.7771996367318312e+00
      -1.6770297392405315e+01 1.3418703392894418e+01
      -4.2429746949650182e-01 8.7593255365421374e+00
      -3.3345165747482182e+00 -2.9214132902303497e+01
      1.9142138481097028e+01 3.8928119767886362e+00
      7.2367811278432308e+00 -3.6399836883590950e+00
      -5.2602201660114867e+00 -1.2448006286984197e+00
      -7.9200118444684300e+00 -1.0145085097837118e+01
      1.0241940071219071e+00 1.2961179034081898e+01
      -6.2050333505260946e+00 -2.3168555870020260e+00
      -6.4134034718645569e+00 1.0571958165812697e+01
      -3.0965998151183785e+00 -6.9503587506157194e-01
      1.7314076908367262e+01 -5.7220438473414834e+00
      -2.5924881689026201e+01 1.0788954547602478e+00
      3.8785738613732650e+00 2.8868426087935184e+00
      -1.6030847375127770e+01 6.9630945977362106e+00
      -1.9701412977380549e+01 -2.3420928691772779e+01
      1.1437112060926891e+00 3.1545053997809700e+00
      -1.1176679325452858e+00 4.9606382744377271e+00
      1.5973167536145397e+01 2.7117102904331838e+00
      -9.8188343040887265e+00 7.4640280692658556e-01
      3.1070702070915345e+01 2.5052582802243396e+01
      3.7985326866203445e-01 1.0673521139280449e+01
      -6.9719075963715431e+00 -1.1226561623462388e+01
      7.6549487076903064e+00 1.4160049367813114e+01
      -5.3336413371838605e+00 1.9464220057362574e+01
      1.8787246649220815e+01 -1.1224370941875804e+01
      7.6255733713836911e+00 -2.2256123649352983e+01
      -1.9323503031057538e+01 3.4939851136159383e+01
      -1.2796974352181458e+00 -1.4740320910119900e+01
      2.0354843189026230e+01 -9.7948228271110238e-01
      1.9162681360388760e+01 -1.8881160029601887e+01
      -5.9929240656468956e+01 1.2047285310937220e+01
      5.6622126519055804e+00 1.8315630363841702e+01
      8.0188962098631968e+00 -1.1558785026398443e+01
      7.9428228167527894e+00 -1.7350828988428855e+01
      -1.4148469847984650e+01 5.7669248894329317e-01
      2.3758066574398729e+01 -1.6553086694945829e+01
      -2.3499141841445592e+01 4.1008670284004927e+00
      8.7020945649577310e+00 -7.5818356266664750e+00
      6.8666159889084613e+00 3.8677579575379383e+01
      -2.1617189676037576e+01 -2.8109975944752584e+01
      -2.1212371180049459e+01 1.3980860044908848e+01
      1.1573287230817874e+01 -2.5323835013327042e+01
      1.3962753206818975e+01 -1.7079543775810347e+01
      -2.7274712075987861e+01 3.0139852085575702e-01
      -1.9551317847452968e-01 -8.3358811102135437e+00
      -2.5792994874855506e+01 4.7039437972347088e+01
      -2.3177131395367116e+01 -6.2505123420735821e+01
      5.1886898300082613e+01 2.9655741521556074e+01
      2.2381704846113621e+01 -1.2533801716015971e+00
      6.1164041780372065e+00 -1.5153492470843670e+00
      -2.8518761310213985e+00 4.2622460585538056e+00
      1.8053394397317934e+01 5.2413788826968588e+00
      3.3174678203703650e+01 1.9166886638273555e+00
      2.7408563280192988e+00 4.9113818324196785e+00
      -1.5727220501876042e+01 -6.1044403950810526e+00
      -8.8807178357062533e+00 -3.3254168471875665e+00
      -1.9574638287324689e+01 1.9790212700274608e+01
      2.1041654343797522e+00 1.9686918326796285e+01
      -2.5884043862554815e+01 -6.8584451117412698e+01
      -1.3154054909864520e+01 2.0113414481600032e+01
      1.3023636524950978e+01 9.1125271627396529e+00
      -6.5763127670087842e+00 5.5074319436716204e+00
      -2.3272905863401011e+01 -1.5005878818090647e+01
      -1.7194250967288733e+00 -1.0799600667605137e+01
      -6.1039814315635574e+00 -1.5955964350641263e+01
      2.6013044192024628e+00 1.0081804954182655e+01
      1.8667573439973470e+01 -1.5475146811842531e+00
      4.0516125325435226e+00 -4.4227357085009631e+00
      -2.6139014944121797e+01 -1.0694789372074711e+01
      -1.6896785797180339e+01 1.7655882898051857e+01
      -2.6459288586794035e+01 1.9257094998574715e+01
      -1.3642261113370667e+01 -2.9684999296432995e+01
      -4.7088342857323164e+00 3.0010078187340223e+00
      5.9974530309857343e-01 -2.8707658779706229e+01
      2.0554380936569686e+01 -1.2420802004930803e+01
      -3.3979242977963087e+00 6.7302527018770036e+01
      2.9524929074758074e+01 -1.0973905588001875e+01
      7.5941207804641362e+00 -4.1808021344994216e+01
      -2.9786655297394167e+00 -8.3361813318638234e+00
      7.3731995779928172e-01 5.2616026290495084e+00
      5.0662448089744689e+00 1.4473432333883292e+01
      -3.7883254799665678e+00 -2.3286221196541224e+01
      -5.9347667556943140e+00 -2.2403082800331674e+01
      5.2894366845042127e+00 -1.8781858586835192e+01
      9.4781782584639434e+00 1.0890535438748572e+01
      2.4046255414863115e+01 2.5996958749173946e+00
      1.6428131916710896e+01 -3.3721759796930826e+01
      9.9654041222498506e+00 -2.1985557816716582e+01
      1.9659115880137961e+01 -7.5722666262662996e-01
      -6.8864301695765079e+01 -5.3892353325332358e+00
      1.1393102593522064e+01 -2.7546722681961846e+01
      -1.8057870378816130e+01 2.6256962427442838e+00
      -1.1494267224463339e+01 2.1684664690005366e+00
      -3.3010627056651401e+01 1.5836695087033176e+01
      2.7984575409723679e+01 2.8220563107782411e+01
      5.7004306298935319e+00 1.6215021788243050e+01
      -1.2300515995229778e+01 -3.3913554335959790e+00
      -1.5925544097162831e+01 -1.6333648453006255e+01
      1.9854386699693631e+01 2.9694549394362241e+01
      1.2221990907654707e+01 -1.4493535115979808e+01
      -2.4260985227172267e+01 -1.1483454884929175e+01
      1.4488376150734219e+01 -1.7870057382019230e+01
      -3.4699687175627425e+01 3.7464388026853889e+01
      -9.2927460094057270e+00 -8.1101175038349282e+00
      4.3952651299203424e+01 -1.6178343842303907e+01
      -1.1175327831528994e+01 7.6184009166656166e+00
      -3.0082246168159955e+01 -2.2576108192224080e+01
      -8.6862652080250076e+00 -1.4514337769180683e+00
      1.2359072080148781e+01 1.1572703070869451e+01
      1.2894650988696469e+01 -1.7180825973748068e+01
      -1.2852105059611443e+01 5.8998941674714960e+00
      -4.7219118200287076e+00 -1.2375797353087774e+00
      -2.9928422396207953e+01 2.9078244907735559e+01
      4.7923096406983259e+00 2.9004069098236465e+00
      7.4414260696431915e+00 9.2071371418601711e+00
      -2.0882582006395719e+01 9.2766805080661712e+00
      -6.0372498527508887e+00 7.6633390857828561e+00
      -2.4105228125275153e+00 -1.2503126792899049e+00
      2.4530656950890188e+00 1.7748980064411776e-01
      3.7266841302096929e+00 -9.2890411340751271e+00
      -1.0999984395829513e+01 -1.1767149555348247e+01
      5.1350375474648295e+00 -2.1367862482382616e+01
      2.6500680294596464e+01 3.8206186675978215e+00
      2.4562350377259271e+01 -3.7154464959704234e+00
      -3.3153234146551533e+01 -1.1227301485925393e+01
      5.2560018409912921e+00 1.9299844650669133e+01
      -2.2435472052680807e+00 1.1525359460614419e+01
      3.2737720578376482e+01 8.1837179870035670e-01
      -7.5355404154869339e+00 -8.1934768867044632e+00
      3.2398435896574078e+00 8.5965651514329853e+00
      -4.9560367946886199e+00 -6.1258925742755119e+00
      -5.3072666630483178e-01 -1.7326888842387834e+01
      -9.3301308007344268e+00 1.8100783082381252e+01
      -5.1999164617220565e+01 -1.4228148592069031e+01
      -7.2059336761159054e+00 -3.5557249215741535e+01
      -1.6387104496998802e+01 1.6168519330685591e+01
      -1.9899465005732072e+01 2.2738222234692400e+00
      2.7420491759079124e+00 -1.9275254082778184e+00
      -1.4316341478329957e+01 1.1165897366324078e+01
      3.4147830071033245e+00 -2.0294285517027085e+01
      -5.4833372354791328e+00 -1.4243012299832696e+01
      1.4382827345176013e+01 1.6415328196328165e+01
      -2.1594304768148204e-01 -2.3171818331201215e+00
      7.7031495652628266e+00 -3.7375694198925501e+01
      1.3552316529580435e+02 -3.9137208143665854e+00
      2.9133363342157947e+00 -1.9055733922889946e+01
      2.5537272925494769e+01 -1.6111374316245854e+01
      1.0584361640935152e+01 -4.2978475533573297e+00
      -1.5520222653532016e+00 7.4624828783957109e-01
      -4.2400433399019967e+01 -3.0560004677453492e+00
      -3.8138252386396005e+00 5.0175961508940778e+00
      -6.4589217624038096e+00 1.8390467612714023e+01
      -6.5066765352859296e-02 -4.8513126942828739e+00
      -3.9626732858907214e+00 1.7072596014653536e+00
      1.6735397311339547e+01 -3.5022300957921497e+00
      9.7021703209175243e+00 2.4892932567861955e+01
      -1.8151158032566720e+01 -5.4927379051388359e+00
      -6.9128166655495082e+00 9.3407887286119529e+00
      -6.1533678511512306e+00 1.8639369158939441e+01
      -4.5766923065283507e+00 -2.9633127549609148e+00
      -6.6596049845726046e+00 -9.5093285236237310e+00
      9.6086122602614257e+00 -3.5725977994656184e+01
      -3.6686640406239540e+01 -1.1533815566462664e+01
      -1.7232826187905388e+01 -3.1732352217871757e+01
      3.2355503875247025e+00 -9.4235325396391048e+00
      -1.7424612175191925e+00 -3.3365465597019246e+00
      -9.5625731209141751e+00 -1.2647409209486270e+01
      4.7581427324460259e+00 -1.0829950529199564e+01
      9.7701368668561841e+00 3.4650727474371075e+00
      9.6623846024492757e+00 1.8725886524340318e+00
      2.1882800800802116e+01 2.4062465647748232e+00
      -6.9587118657966212e+00 -4.3745168444872107e+00
      -1.9369223680952370e+01 3.6361727053792514e+01
      -1.4165999636011909e+01 -8.6925968794788822e-01
      -1.1155916968810004e+01 2.6786423341921076e+01
      9.8515303913710728e+00 5.9853270972163513e+00
      -2.0323344312185969e+00 -1.6709549841558329e+00
      6.0290008001049475e+00 -1.8474273667472715e+01
      5.3005188551804530e+00 1.2984556843772891e+01
      6.0823890853980513e+00 -1.6938995468173307e+01
      2.4235440078805979e+01 5.4164815074019783e+00
      5.7003990344600641e+00 -4.4529721873597499e+00
      9.0427424403595502e+00 2.2066458170041900e+00
      -4.4557596567650277e+00 -2.7659237837848401e+00
      2.5579550877615940e+01 -1.8000256578914147e+01
      -7.7626412913144840e+00 7.1308659073751821e+00
      -1.6473738791739263e+00 -1.1014865948776766e+01
      -1.3046077580944528e+01 -1.8254913291801220e+00
      -5.4437909031282417e-01 4.1616542287334441e+00
      -1.3994419995929036e+01 1.5936379627031139e+00
      -2.8880193117081816e+01 -3.1045251463146521e+01
      -1.7765228541985604e+01 -1.5994893515829796e+01
      -4.3392259892050006e+01 2.9114767109923485e+00
      8.8924273817226240e-01 -4.8200472846971092e+00
      -1.1139325533000896e+01 -1.2479247089634999e+01
      -6.9005356744277559e+00 -6.5971121698674091e+00
      -1.2660872425519001e+01 4.2857110409319681e+00
      -1.2964897973704961e+01 2.7140873609571581e+00
      1.6164557189922779e+00 1.9765498308354438e+01
      -2.5437349994464157e+01 -1.5299627232055702e+01
      4.0598451178100383e+00 6.1411878266044218e+00
      3.1557605908828055e+01 -2.5091471918944528e+01
      -1.6575148482868563e+01 -1.2346171198250848e+00
      4.8094695187821621e+01 9.3279496760470444e+00
      -4.6315038553835324e+00 -2.5776995300999483e+00
      -4.5354627203527249e+00 1.6841434690244757e+01
      -1.1299657968515762e+01 1.1440899126461360e+01
      2.6844206161671579e+01 -3.0062115925339654e+00
      -2.7221555204825339e+01 3.3268948508369107e+01
      1.4114517183634140e+01 2.8622379129730390e+01
      8.5656555721218286e+00 1.1373784833483562e+01
      -2.3900428171677348e+01 -8.1281491146129259e+00
      8.2568114643086776e+00 2.4724017849531791e+01
      -1.8444966082129501e+01 -8.4408166794959421e+00
      1.2736166726010264e+01 -4.0128676666482104e+00
      -2.4119005194990532e+01 -2.7312863853783028e+01
      4.3732220189847464e+00 1.5033921786600494e+01
      8.1756926232298941e+00 -1.2062493859824190e+01
      4.0522629850867764e+00 1.2589664512533860e+00
      -1.5388566611708692e+01 -2.4353046666792036e+01
      3.9516423247014361e+00 -1.5346606421645625e+01
      2.5854566598304434e+00 3.6470847672699036e+00
      -1.6740982426955620e+00 -8.6511548871050596e+00
      3.6075840333990059e+00 -1.3474060483527388e+00
      -5.8268115786316210e-01 -2.2385135259079831e+01
      -4.9542451298664156e+00 -1.6849057937348025e+01
      1.1745133574677611e+01 -1.1199843991659876e+01
      8.0943506790465172e+00 -4.3926365289395960e+01
      -9.0861179210521392e+00 1.3107665334320004e+01
      4.9839786051334860e+00 3.0170817605455248e+01
      -2.1820565816103503e+01 -8.0122221243303446e+00
      2.1190229175616455e+01 1.7742514304853696e+01
      -1.5104187052332140e+01 -7.1835235611640345e+00
      -8.5267356668592544e+00 1.1760885489233326e+01
      3.6735821846644122e+01 -1.0332589789954428e+01
      2.1475720151162495e+01 3.1807051298423552e+01
      -2.6478736346627478e+01 -2.5414673729465243e+01
      1.1447319559247896e+01 2.9301145440194983e+01
      3.7578969121218023e+01 1.1417539979011144e+01
      -4.0154924385074828e+00 -1.2376769519318316e+01
      -1.3251943129547817e+01 2.1411205095481478e+01
      1.2239278338018307e+01 -1.8454847604845117e+01
      -3.4120987096382877e-01 -5.1676639477557034e+00
      -9.8235746097867693e+00 -3.7105625475036838e+01
      -3.0028404421158211e+01 5.9341020879911177e+00
      8.3521646107262413e+00 2.7911533607260504e+00
      3.6458193426899017e+00 1.2967870358354975e+01
      -2.4601086423524304e+01 -3.7462439941081705e+01
      7.4122435178749146e-01 2.5785562684235824e+01
      1.2471310977646864e+01 3.0393734258071965e+00
      -1.3809815391320447e+01 4.7881226364864586e+00
      2.9262732800313795e+01 3.5710234223610982e+01
      -6.3454050024494322e+01 -1.7646287031445695e+01
      6.6025221097638138e+01 1.2668197125424506e+01
      -2.1204334109216743e+00 1.8039219178385281e+01
      9.0095096862751873e+00 2.1058100678080940e-01
      -4.2476589337734971e+00 -8.0772162212828505e+01
      1.2060032481248896e+01 -2.7126399961768513e+01
      4.9926551861588734e+01 1.1582931300640166e+01
      4.5818475366508729e+01 -9.2677388649934649e+00
      -5.4022564517753686e+01 1.2647857359509651e+01
      -4.4632833861806091e+01 2.9854279517983585e+01
      -2.8007721545934690e+01 -7.1819464048940631e+00
      1.7172003076391803e+01 -5.0341653470301573e+00
      1.0441881751018808e+01 1.8144728071645626e+00
      -1.9775755985169535e+01 2.1248300773676089e+01
      -3.7650181642889315e+01 -3.3485260601124892e+01
      1.5622585055550752e+01 -9.4858364100750037e-01
      1.4837928672879908e+01 2.4622485355462601e+01
      1.4058190580685437e+01 -3.2879473255136027e+01
      1.8534794449631502e+01 2.3982175576045741e+01
      -4.2754642556731470e+00 -8.8004169805196391e+00
      -4.7885779965123589e+01 1.5364885790977715e+01
      -1.2131327952558685e+01 -8.1152813392542047e+00
      -5.8727964737726190e+01 -2.9585650856118175e+01
      4.4311020102400178e+01 -4.9067884731069480e+00
      -2.4918106359253219e+01 -6.6313423895075008e-01
      -2.7832303880985371e+01 -4.6379246266835523e+01
      1.2993953888504961e+01 -2.7596208659878076e+01
      1.5936077981149856e+01 -2.1319141920551423e-02
      -2.9682951561416289e+01 8.8314341832881080e+00
      4.6430499082749682e-01 3.3737782053569838e+01
      1.1007298684364438e+01 -1.2780710516881673e+00
      9.4561408052730709e+00 1.2635453405362133e+01
      2.0959256531537232e+01 2.2883920702558818e+01
      -1.2047953137622287e+01 1.0355942058995721e+01
      -2.7446382837933605e+01 -2.9147991176693729e+01
      1.9564746726347468e+00 1.3367974631086986e+01
      -1.7961150087659228e+00 5.5518288564221638e+00
      -3.0852654084167042e+01 -3.4638469652183595e+01
      -8.6757876819715598e+00 6.8520516534281315e+00
      1.2360484127436154e+01 -1.4144143378463696e+01
      5.2789844110394997e+00 -1.5816067745757854e+01
      2.4612344391750288e+01 9.6798150499947901e+00
      1.5909940440544693e+01 -1.0393273342668833e+01
      4.6590089913831728e-01 -2.1057545839085904e+01
      -7.0528602786954808e+00 -1.0347764641587656e+00
      -1.7215176426964479e+01 9.0158631860379899e+00
      3.7602967207500564e+00 -9.0961058827462637e-01
      1.3619337707674875e+01 -1.9005241953816063e+00
      -3.3225230119216455e+01 3.5023864111274272e+00
      -1.4940751505356413e+01 5.5100838602907887e+00
      1.2207049646898598e+01 -2.9827094727081143e+01
      2.4881621269626231e+00 1.4535325075770018e+01
      1.5734151817850339e+01 -1.9503066232735126e+01
      -1.0152663853638764e+01 -8.3068985552560051e+00
      8.7893631576995479e-01 1.4201944252711108e+01
      -9.0865960775667407e+00 1.5029428557115240e+01
      2.8314397759262615e+00 -5.2510975804968263e+00
      2.3078245625696617e+01 8.4146324958304568e+00
      -5.5460496647447077e-01 -1.2445086070970790e+01
      -1.6759511855551899e+01 1.1860966173421665e+00
      6.0723485783888986e-01 1.9783294548593808e+01
      5.6992074724311109e+01 -6.6133359232938815e+00
      4.0815126522205553e+01 -1.0647195765765156e+01
      -5.0340709354149197e+01 -1.6729829052716020e+01
      2.6786081185777121e+01 1.0503756622009476e+01
      -1.5454941659938433e+01 -4.7033959801537122e+01
      -4.0355599594576148e+01 -7.0724272036615456e+00
      -1.1116949943799030e+00 1.0260452699299446e+01
      -6.7536155176715029e+00 8.2353888903573829e+00
      -1.4639847604374898e+01 2.1364407982014669e+01
      1.9137185872091081e+01 -1.4759572582121699e+01
      4.6476745832774604e+00 -7.7642679889741597e+00
      -1.0739822620294094e+01 -3.1383519487206637e+01
      3.0511668875618479e+01 1.8828822455371237e+00
      2.9162412483995098e+01 -4.1783161819943160e+01
      -1.0842048914357676e+01 3.5866344955553906e+01
      -3.0699760646440332e+01 -3.3602033756875358e+01
      2.9945531212363978e+01 -1.5352794475064385e+01
      1.3370940444283120e+01 3.5647955958321371e+00
      3.7598135248999029e+01 -1.5789786933686068e+01
      2.2365389547665423e+01 -9.5419097550293390e+00
      -9.7884540527976096e+00 -5.1624905267852235e+00
      -1.6065906610868485e+01 -3.3680267957585023e+01
      5.6938655429017837e+00 -1.2655397575508797e+01
      -5.8569793117881108e+00 1.3545391101403979e+01
      -1.1026073932141172e+00 6.7676636752655561e+00
      3.2788052209527073e+01 -1.0339477154727110e+01
      3.7326005055897111e+00 -3.2968339190748395e+01
      -6.7356773759861817e+00 6.6479566266902657e+00
      3.1093383709267560e+01 2.2528060913932212e+01
      1.2096292079091530e+01 1.1265396425603452e+01
      -3.8868069297638748e+01 -4.2056281609209428e+01
      -1.3495220960355384e+01 3.3892398895488145e+00
      3.9054000357804193e+00 -8.8780605729781641e+00
      -1.9070666885581858e+01 -1.4304695898793735e+01
      -1.9462306786830136e-01 8.1105569739629946e+00
      -5.1004709968051083e+00 -3.7256555355102556e+01
      5.1046264629850118e+00 -1.5967648584431196e+01
      3.4606274820110478e+01 1.0864886842452718e+01
      2.1896469795465855e+01 1.5279423935184107e+01
      -1.8650495930663823e+01 -5.4957176066958278e+00
      1.0756081709899468e+00 1.4950049283696798e+01
      1.9685084235368411e+01 2.3006877300704424e+01
      5.4863283968616230e+00 -2.8214275130850428e+01
      3.4315259479172880e+01 -3.7427393515727041e+00
      -1.4723045252552017e+01 1.0132796647428520e+01
      -2.7049257109042943e+00 -9.7948038578168772e-01
      2.3067008319468565e+00 1.0910690773632600e+01
      -6.7965672772226320e+00 1.6311213625665435e+01
      -2.3427254412679090e+01 -2.9622539240232353e+01
      6.3122953898205951e+00 -1.7782052993446218e+01
      -2.3302783277999012e+01 -8.5011964385894387e+00
      8.6857007447566019e+00 -1.7412369124234790e+01
      -4.9142533300141773e+00 1.5233673870692154e+01
      -4.6766448851537863e+00 -5.2281178730207776e+00
      5.4258823214507368e-01 1.6455548015681419e+01
      9.1742729771631240e+00 -1.3193885052142006e+01
      1.0075768369423544e+01 2.8354317367276645e+00
      2.8686044844651406e+01 -2.1338800753987686e+00
      -1.3295850061058879e+01 5.5885313835195696e+01
      1.8616511698267459e+01 -1.8517729115857772e+01
      2.3750507709023484e+01 3.1439975168653715e+00
      6.6430718538119507e+01 3.1572982737594309e+01
      9.6105875560720087e+00 -5.8010516387360651e+00
      -4.4528321641923220e+01 -4.2773778502911654e+01
      8.9496272273891684e+00 1.8005973293512710e+01
      3.9619194058655637e+01 -2.8979840505591365e+00
      5.5676371093803141e+01 2.2716188784293564e+01
      -2.1644040534830992e+01 1.0472170859331872e+01
      2.3057925268841192e+01 5.8136029144558332e+00
      -1.1667299557052731e+02 -4.1411880653746707e+01
      2.9960248707525778e+01 5.1868079422810371e+00
      -7.5374282051831818e+00 -2.4960454237162242e+01
      3.4516934403236910e+01 -2.0116888838762645e+01
      -1.5002214620427919e+01 5.1113349375896355e-01
      1.7581555982104156e+01 1.7451312360531247e+01
      1.6420652949792338e+01 5.8098456375324661e+00
      -1.4887902217700709e+01 -4.0460730328203409e+00
      -2.4434123378227994e+01 1.3930630720278012e+01
      -1.1322484227942581e+01 -4.9851051448265408e-05
      3.9525169234888473e+01 -3.9261323818747968e+01
      5.3935147731676683e+00 -4.0639547514691859e-01
      -2.2796014894780345e+01 5.9749651656867697e-01
      -8.3854901807475404e+00 1.4298127688209188e+01
      4.2680578766500661e+00 2.3774623203823038e+00
      -6.1716686328624215e+00 -2.3024847865594197e+01
      8.9146524679005257e+00 -1.2709717622864265e+01
      -1.4188399696295608e+01 1.3091305236168125e+00
      2.6737430144367828e+01 3.8121343484435677e+01
      2.8243908215939747e+01 4.9090050703553558e+00
      -9.3940640420507773e+00 -4.5774307524676017e+00
      -5.7815061803813393e+01 -6.0475862848333755e+01
      -2.8334717158978041e+01 1.2092963294481820e+01
      1.0134497956805507e+01 -1.9181623479053147e+01
      2.1486002616280899e+01 8.2745973545920926e+00
      8.8202574301895087e+00 -4.3983931104456069e+00
      1.3850908055410770e+01 8.6242264797065324e+00
      -3.3052638201365745e+01 -1.1710716749432716e+01
      -7.2424228411879428e+00 2.1283384351114208e+01
      -4.8011567981003624e+00 2.8855411202734139e+01
      -1.3273055472874001e+01 -2.6188529801466562e+01
      1.8446814240235927e+01 6.5783762599799518e+00
      -3.3456965375790226e+01 -1.9581074006891850e+01
      -2.1626814397287205e+01 2.5541889174805330e+01
      -2.2700817111447719e+01 -3.2335158291624730e+01
      1.0180806704823970e+01 8.5224962263647530e+00
      5.4462704685538974e+01 -1.5582934547786101e+01
      2.1935444844793455e+01 2.9529123028140475e+01
      -3.4612886614532520e+01 4.2426824971450742e+01
      -1.8342072517071298e+01 4.1510486824462916e+01
      -1.8932223643056393e+01 -7.5955411410715161e+00
      3.1873086184933186e+01 3.9379599616675613e+01
      -1.2434045513917704e+01 -1.1406139033626475e+01
      -2.2715993635742400e+01 -3.4814486706807607e+01
      -7.3538314950645427e+00 3.3063658103479284e+01
      6.1891008685228186e+01 -7.2988369206618664e+00
      -2.0082849503075540e+01 5.1934104380435194e+01
      -7.0504621703181584e+01 8.2685695596489310e+00
      2.7476367914101045e+00 2.7374171908372972e+01
      5.3652629543069068e+00 -5.8684061129345224e+01
      -3.8418075524253602e+01 -2.8740992609045211e+01
      -3.9725230555444724e+00 7.2802208931871615e+00
      2.9890764539254871e+01 1.2052159611845896e+01
      -2.6699393699605487e+01 -5.7697052883304256e-01
      3.1238876575689662e+01 -4.1208825226998876e+01
      1.4523677099170721e+01 1.5296133851445905e+01
      -2.5145955383631815e+01 -2.6563583448938164e+01
      1.0730794494244812e+01 6.6062914855900745e+00
      4.6130249407553286e+01 -3.7437968597806631e+01
      -1.8012921529010729e+01 1.3583428768757926e+01
      3.1209641356370765e+00 -2.0129315915668126e+01
      4.4393065070492568e+01 -2.0039833051586676e+01
      1.8472963958065416e+00 1.0130774853869875e+00
      -3.6011981906682664e+01 8.2964963378283301e+00
      2.9741519001201620e+01 2.0387200379988357e+01
      3.7042234689458475e+01 2.5790838603938692e+01
      5.1140115345190750e+01 2.9704287115194017e+01
      9.9069350241457013e+00 2.2710556149629820e+01
      4.3320816391971597e+00 -3.2736723015133009e+00
      6.9492108361408654e+01 1.8055316811144160e+00
      -1.0116486244998566e+00 1.5902944105599094e+01
      -7.0550205114713060e+00 -3.4220208544002034e+01
      -4.3792040268175413e+01 -2.7782215534757146e+01
      -1.7416069714349575e+01 2.2257891174915255e+01
      -5.2299761592618012e+01 1.6695123767877027e+00
      -3.7837279551984963e+01 -7.2167307766913183e+01
      7.5859366383939513e+00 1.0516831672190222e+01
      4.6418570351942030e+01 1.2046621897972400e+00
      2.4468489620793843e+01 2.7049881067880960e+01
      -1.5396723660965902e+01 6.9073537861188097e+00
      -1.3200505033946150e+01 3.1779496666839478e+01
      -4.0481243508919654e+01 -1.9459768301108124e+01
      1.1187109143371499e+01 -8.0278364348527482e+00
      -7.6811657052162428e+00 -1.5487967670786865e+01
      5.9898216728622330e+01 -4.2408441235912747e+01
      3.4031520718933441e+00 -1.6954996545390518e+01
      3.0899763275127878e+01 5.9541955615133411e+01
      -9.5396201531298175e+01 6.0793192424785705e+00
      -2.1819549112931949e+01 -1.5700885440994459e+00
      -3.1287066319226704e+00 2.1262706139683608e+01
      -2.1496353595093471e+01 -2.3261819600742420e+01
      8.1954962428793223e+01 -1.2969817885234045e+01
      -1.1370436695651650e+01 6.7913357316248820e+01
      5.5982206000613296e+01 -1.6276048393300044e+01
      -6.4311325092703664e-01 -4.7677837847973564e+01
      -4.0753383509895883e+01 4.1588441199925988e+01
      1.7469094606424679e+01 3.4407412598778912e+01
      -1.6370622899629964e+01 -6.3195764705838418e+00
      3.8165950188783363e+01 4.3363546303636966e+01
      1.1680258544154199e+01 -2.0244137603102224e+01
      -1.4704261374630519e+01 -1.7493552114914653e+01
      3.3032177755932508e+01 1.4773186387464667e+01
      2.2672581148158965e+01 -3.8979570443174083e+01
      -7.3085042436416243e+00 -5.5880503209379579e+00
      -7.3345790412575255e+01 -1.3831314435334777e+01
      6.0600814576398943e+00 1.6549751449382832e+01
      2.3482777256692428e-01 -4.8547340584685195e+01
      -2.7409451040382553e+01 -2.3946437198500337e+01
      1.9561706209986241e+01 4.4616142263428095e+01
      -1.6339869545104072e+01 -4.3199952245026223e+00
      -4.3898193503992573e+01 2.4181568622760821e+01
      -2.3084368772005316e+01 1.1566989704839365e+01
      7.6335546962018475e+00 2.1165886114934871e+01
      -3.4328053471153062e+01 -2.3853810703240505e+01
      1.8764668990783026e+01 -2.5892868395526122e+01
      3.8429660358962714e+01 1.2137901377042249e+01
      8.4095366541166072e+00 2.5558158131798514e+00
      -1.0318065602765031e+01 -1.3888492496061030e+01
      2.1692200949698321e+00 -1.8806178331612738e+01
      -3.8585192944901955e+01 4.8820160061492306e+00
      -4.0011696391673865e+01 -9.3891327016684532e+00
      2.4463781949344323e+01 -1.2875940230318500e+01
      -4.5289054988226880e+01 -1.1730549124495941e+01
      -4.4709943245217325e+01 -7.2983408804692232e+01
      2.8496817347889948e+01 3.8775978053588029e+00
      1.6219433532234099e+01 -3.3206434840128871e+01
      -9.0689924031390721e+00 3.9439526587457976e+01
      2.6822316218371437e+01 2.7750840106984406e+01
      -7.9732977446428848e+00 -1.7465940804368085e+01
      3.1425318121516952e+01 5.6507813737942882e+01
      4.5342348125253750e+01 -2.2912098373847833e+01
      9.0187217895400007e+00 -4.0211973733394601e-01
      -2.2155338013198936e+01 -3.6122866128155828e+00
      -3.7578833608845855e+01 -1.4523186720545654e+01
      -1.0769723701975348e+01 5.4647010938581367e+01
      -1.5618675440665767e+01 -1.7134063443982249e+01
      2.6153741382700797e+01 2.2845524626150347e+01
      4.5988486281889521e+01 -5.9293335973649612e+01
      7.8255650294528225e+00 -1.1464841190131507e+01
      1.0725738676183854e+01 -5.2660475103182137e+01
      2.9178140941220271e+01 2.3532155247945237e+01
      4.5105110448460835e+00 8.4497678840201385e+00
      -1.1488348023894224e+01 -2.4550100946162036e+01
      -2.7917668138693543e+01 2.3508275887839382e+01
      2.4457996004711955e+01 -1.7089471464000770e+01
      4.8401889986986028e+01 1.3259774846088176e+01
      -1.6973592080508928e+00 -2.9527379440915688e+01
      -2.6168260811341817e+01 -2.2191122453626178e+01
      -4.5988342832812627e+01 1.9924441064167567e+01
      -1.1473155389825139e+01 -7.3466550659914951e+00
      6.5209345339154714e+00 -2.3685701107360298e+01
      -1.8982189681719596e+01 -4.4807433248106783e+01
      -4.1174956226305888e+01 4.5927578889136129e+01
      -6.2717748705432044e+00 1.0578357130105591e+01
      -4.0548200340601618e+01 -5.2085242519133423e+01
      1.7494883223637789e+01 2.5736915001358614e+01
      -2.7541650829204467e+01 1.4713172104060395e+00
      -2.4619245948223405e+01 -6.5367648971611008e+00
      -3.8944408203088654e-01 3.7402808533083260e+01
      -8.0356796907049812e+00 -2.3809377990898715e+00
      -5.3983611850417850e+00 3.9457025979835016e+00
      -9.2953367528814326e+00 -9.3834083827426866e+00
      -1.7806297565698227e+01 -6.3208693753770380e+00
      1.8581156924521530e+01 -3.2682738086696389e+01
      -1.4144468192447029e+01 -3.0317829364326979e+01
      1.1403180719673577e+01 -1.0684245434544493e+01
      -3.6925273973772214e+01 2.6456369388039459e+01
      -3.7659548239148481e+00 6.0581129084572281e+00
      2.4905804568479324e+00 -8.7872486475981759e+00
      2.6270900879838926e+01 -9.2224594801507553e+00
      -1.0617150885604815e+01 -1.1845638068557724e+01
      -2.5458445577453510e+01 -1.7664436758102251e+01
      1.7170691395486415e+01 2.9122314462551460e+00
      -2.8760017007842727e+01 1.6344744392146950e+01
      2.8569604791239906e+00 -2.7251529799305551e+01
      2.2460533447128391e+01 -1.0065979038036327e+01
      1.7786931687850602e+00 -2.8930959438810390e+01
      -1.6823376514536889e+01 -1.4310978549902436e+00
      -4.0389349254670869e+01 -1.0625437427025899e+01
      -1.2220174554549352e+01 3.3117342640902507e+01
      -3.7251945166803338e+01 1.8458829158073460e+01
      1.0396993394280155e+01 -8.5383561558794749e+00
      4.7005287704099032e+01 -2.4914650103271999e+01
      -3.2632402129036286e+01 -2.9883436666124208e+01
      1.8084301168144663e+01 -1.0425786222781079e+00
      -2.6687544380738331e+00 4.2500766561351995e+01
      -4.0075350494626711e+01 -5.9615765212473368e+00
      2.2398724582652523e+01 1.7680646867698671e+00
      -7.3842001592112032e+00 -5.9840586446260019e+01
      -1.2779947274427586e+01 1.9506754321550101e+01
      1.9513786463790044e+01 6.7049786315008092e+01
      -2.1897122458442421e+01 -2.4881289121781638e+01
      -2.1893334335663265e+01 7.2987993291445425e+00
      1.9096685581396307e+00 2.9022878994377206e+00
      -9.1608857822784540e+00 6.8158447455616189e+00
      -5.5444867408447491e+00 -1.4470116844865869e+01
      -5.1708039100823466e+00 2.9661907862212153e+01
      1.3646548362615663e+00 -1.3562434713092632e+01
      -2.9415763785028325e+01 -1.2964469045219735e+01
      1.8451914076634293e+00 -2.3183994897290738e+01
      -4.3227730476809372e+00 5.5965762494908205e+01
      -9.1655689761710821e+00 -2.8558949146387530e+01
      -1.9852092280116199e+01 4.3297199905732604e+01
      1.8171727723671143e+01 4.0772998788058587e+01
      1.8700333564680252e+00 -5.4659821418065793e+00
      -1.3811005989641162e+01 -8.3759648459844414e+01
      3.7019452550626674e+01 -1.3317901240843748e+01
      2.0006843509575070e+01 8.5276661846759065e+00
      2.4827732989831521e+01 2.4463095761692934e+01
      1.0277414248644234e+01 1.3122266656229705e+01
      1.3835335565296829e+01 1.9273460590681672e+01
      -1.0859847290193912e+01 2.4232309048991297e+01
      -1.3116891832947877e+01 1.2249828590123553e+01
      4.2358853578360367e+01 -1.1345778332364333e+01
      6.2133916988173233e+01 -3.4819247664113586e+00
      -1.1163957237868654e+01 -3.7365679966258348e+01
      3.3962350717396141e+01 -2.4293497188890253e+01
      -3.2158508866027255e+01 -2.8244114952424713e+01
      -2.1698956873755215e+01 3.5606257903570402e+01
      7.7477263745230104e+01 1.8348144236162717e+01
      6.8959972558753684e+00 4.1003985730800181e+01
      -6.0880813775938210e+00 2.4423537562909510e+00
      -3.0630215246990925e+01 3.0795539792792869e+01
      3.4641760318191253e+01 -4.8097076967978566e+01
      -5.5137757331397141e+00 6.0058164688750892e+00
      6.8632879882285636e+01 2.2052878413378462e+01
      -9.5457223581099456e+01 3.9994791673888002e+01
      1.3238288657439554e+01 -1.0676510604199498e+01
      -6.5615098653333437e+00 -1.2224996820392883e+01
      3.1768986517873604e+01 -4.1015037645576307e+01
      3.5553957906406630e+01 -6.0482323933700698e+01
      -7.1915946462580331e+00 3.3133023562129846e+00
      -4.2083381278777118e+01 -3.5918122897317661e+00
      -1.6841815745278002e+01 -6.2126564344992996e+00
      -9.2553845527489116e+01 -6.5224375414208779e-01
      5.9412915667538975e+01 2.9054540226277005e+01
      -1.1428011452185901e+01 1.4961217480862713e+01
      -2.3440093190613794e+01 -1.2357269200488895e+01
      -1.0393661767056706e+01 -7.5858136878444036e+00
      2.1761824024384858e+01 9.4227505589359186e+00
      6.0850124698074226e-01 -4.8486713180651073e+01
      -2.0360264289965722e+00 2.4073886021795545e+01
      -5.3891731488249688e+00 2.4357423714878024e+01
      -5.7761655383932144e+01 6.1103811433031092e+00
      -5.3068670352406269e+00 4.0946134868466736e+01
      -2.1858561003029557e+01 -2.5121048014416889e+01
      -1.8065744443594081e+01 2.7293936074662433e+01
      5.0062064404609856e+00 3.7403078915810902e+01
      1.2524601888820291e+01 -2.0768114668227511e+01
      5.1014999751077724e+01 -6.7424377964826601e+00
      -9.1849528767770892e+00 -5.2769430045345359e+01
      -2.3456448451999556e+01 2.3404890167645338e+01
      3.8476993831585444e+00 -1.4453174384200006e+01
      2.4730727502776478e+01 3.5898700406160351e+01
      2.7098190736964916e+01 -4.4941457692458812e+01
      -8.6401019299344277e+00 -1.6348081029009172e+01
      -2.3562524886556169e+00 -7.0481379458736395e+00
      -2.0390915267361374e+00 1.7031873816953095e+01
      4.9424957865877541e+00 6.6634129796081663e+00
      -6.7015294585040223e+01 2.2365635410087425e+01
      2.7775730261843233e+01 -9.2727419337461416e+00
      -9.1006865123989247e+00 -8.8003696348146008e+00
      4.1362265808226944e+01 -5.6694544896585953e+01
      -1.7364763969109687e+00 2.3429945024094160e+01
      -5.5926634809810745e+00 -3.8969118641297342e+01
      -1.6536425566945695e+01 -2.1094669433780684e+01
      -1.3300196623264290e+01 2.9207269831369082e+01
      -1.9807504621491109e+01 1.5032778160022541e+01
      -7.3649222788603685e+00 -3.1431080201547424e+01
      -4.6718006406704431e+00 -4.4422124610369362e+00
      -6.9748552863785420e+00 7.5942672656223245e+00
      -6.7716331094913524e+00 -2.6515544819442006e+01
      -2.7791474541517065e+01 3.8512648733403758e+01
      4.2229303168847110e+01 -1.7261176084368937e+01
      7.1459993445554926e-01 1.0465774823686326e+01
      3.8001909432796225e+01 -5.5531477548303974e+00
      -1.0689626870672038e+01 -5.2200674234607343e+00
      1.8742392332918412e+00 -4.8953867985953764e+01
      -3.1486679150571497e+01 -1.6588173573091982e+01
      1.8530243292407253e+01 -9.3104476661429167e+00
      -3.4447253911880757e+01 3.8518324031436897e+01
      3.0330057163610742e+00 1.7235927708554926e+00
      1.0758564388421071e+01 3.9240796324916429e+00
      8.4069190834400409e+00 1.6270702613213561e+00
      -5.2982078220416557e+00 5.1552231137992015e+00
      -8.6254854417129394e+00 -2.7924507617117034e-01
      2.6663260554563308e+01 -1.3390201114994539e+01
      -1.3850846366075501e+01 1.2281263883076617e+01
      1.2286640898296842e+01 -2.8446806635590402e+01
      7.0440327879897922e+00 -3.3547706051096263e+01
      2.5760577528707557e-01 1.4113114887465983e+01
      2.2599597193742678e+01 -1.4227160522408397e+01
      -2.8283400611830086e+01 6.8281901164077696e-01
      -3.2814647690471006e+01 1.0058891069871327e+01
      -3.7789184879118828e+01 -5.2337503006454632e+01
      3.9149423112802602e+01 -6.2174677037639148e+00
      -1.5260889216221509e+00 -4.8648262209911167e+01
      -4.7200893434714160e+01 1.7653181624176248e+01
      4.3678804624433923e+01 -3.6683482030213298e+01
      -3.8401573709101648e+00 -1.4245943639632253e+01
      1.9562537147380994e+00 1.7184876575433531e+01
      4.4106787824147197e+01 2.2069230677537282e+00
      -3.3402580104897566e+00 -1.3894282838781210e+01
      1.7709599529978465e+01 -1.5741837274315616e+01
      -2.0270437689334059e+01 -8.3973582018178750e+00
      -7.8694408912529177e+00 2.0080304806221509e+01
      -2.3161170215846099e+01 -2.3646982232263678e+01
      4.3225546451878509e+00 2.0967716453962087e+01
      2.8179257537732457e+01 -3.9891256469713355e+01
      2.1176602810610202e+01 -1.4103810513017255e+01
      1.7223239612676405e+01 1.8588949971557908e-01
      -1.0278041362477150e+01 3.5873034075688388e+01
      -3.6941494505014937e+01 1.7952361293750730e+01
      -3.1407008295049912e+00 -2.9120401159883741e+01
      -3.9685965869622237e+01 8.5524489315836778e+00
      -3.0993972855030525e+00 6.0237113170635510e+00
      1.6854953941495236e+01 -1.8174476359965477e+00
      -6.9821471170294513e+00 1.6985839912757928e+01
      -2.1182925055579929e+01 -1.8381318106034154e+01
      -3.7521646924374963e+01 -7.1645446716276728e+00
      -5.8316652369420279e+00 -2.4700043755170420e+01
      2.3874785446581942e+01 1.3980056260217333e+01
      1.9691037934005386e+01 -8.3884605372932512e+01
      -2.3008606870796232e+01 1.9385011245869705e+01
      7.4003849821602392e+00 8.0691006120744664e+00
      -2.0069855525388423e+01 -1.9906380474158581e+01
      1.4578636148104680e+01 4.9132112859837733e+01
      -4.1825159147206826e+01 -2.1775370175133862e+01
      -4.0770167173889590e+01 -8.3910790478688480e-01
      3.2106461703335214e+01 1.6202784843891450e+01
      1.0615549835309153e+01 6.5737287499758835e+01
      6.4862459103238130e+00 -1.9536904577672747e+01
      -4.3146295971802346e+01 -2.6023204141669325e+01
      1.1992994503831873e+01 -2.0129185713580394e+01
      -2.7225108231820673e+01 -5.4129791013349774e+01
      2.4863038452084423e+00 1.6344680295335157e+00
      1.8792038469006418e+01 4.3932479604377704e+01
      -1.7115939151879003e+00 1.8216976896892219e+00
      -1.3555307509229200e+01 -1.6531897504290921e+01
      3.2442825629829393e+01 -4.7687367807029686e+00
      9.5898962860988508e+00 -6.6419348840930908e+01
      1.2376043564776472e+01 2.8121864986725470e-01
      -4.2016011574979899e+01 -2.7160165792291451e+01
      1.9484734460085129e+01 -2.3592473068871158e+01
      -1.2918083316252188e+01 -1.0181312158968222e+01
      -3.0990862014323660e+01 4.4718638850352006e+00
      2.9466847516216308e+01 1.3590330717530911e+01
      -2.3384595828811534e+01 -1.4342699253049570e+01
      4.3883971803179655e+01 -1.2133358778682043e+01
      -2.2280291659331041e+01 6.6207346046847393e+00
      4.4949641667516062e+01 -5.5001920315450166e+00
      -3.2090901129325914e+01 -3.3190664639861623e+01
      1.6129743963984897e+01 2.6254978677767436e+01
      -6.9880617858992666e+00 5.7598225268099101e+00
      2.0889229681677840e+01 5.4568475206786111e+01
      2.3688711236038515e+01 -6.9650124968471072e+00
      -6.9798597047651203e+00 -5.6597906309273270e+01
      1.8148994856349880e+01 4.9168862299466191e+01
      -3.0203668978419717e+01 -1.2308318414157151e+01
      1.8168597575405286e+01 4.1193966276236779e+01
      -1.6016347767222271e+01 -8.0268625082800384e+01
      8.5500819289171961e+00 1.1561043720073004e+01
      -4.9307115542977503e-01 1.4298675522060700e+01
      -8.1364220521002508e+00 5.5602677238394676e+01
      -6.6628625711279419e+00 -4.1266038689191028e+01
      3.5034732962130349e+01 -1.7983218242508563e+01
      -3.6226317337708082e+01 5.5511176319666049e+00
      -2.8513933778916916e+00 2.1075164014496668e+01
      2.2950471639112134e+01 -4.5329011464370069e+01
      4.9759963961398633e+01 9.1664008027913049e+00
      7.5306154064377990e+00 -4.0981654249187130e+01
      1.9634744848473101e+01 4.5741784496837901e+01
      1.8336208775529510e+01 3.1510994705646738e+01
      -2.2336196506244704e+01 -4.7952357591711667e+01
      2.4866897204836981e+01 -1.0547253545450221e+01
      2.7282574309921806e+01 -1.4328811885243121e+01
      1.5652131144756076e+01 1.9827294145754475e+01
      -2.1832725980518557e+01 -1.0738913435134350e+01
      3.0192415297335330e+01 3.4273818744627018e+00
      3.8718647015986228e+01 -4.4983482547438115e+01
      -5.7775534413708328e+01 -2.7024575134540047e+01
      8.2132076760690218e+00 -4.1800744940565151e+00
      7.3212879657768104e+00 1.5781900256690902e+01
      7.6645074427067676e+00 1.7942644047735659e+01
      -1.9173827022538763e+01 -6.7607188966404399e+00
      -3.9248585632069968e+01 -4.7514977381914363e+01
      6.3852828468864153e+01 1.4596831415356224e+01
      3.8851671070665574e+00 5.5510790066035902e+01
      4.0716803480094171e+01 -1.4022482962318444e+01
      -2.7058806863838754e+01 -1.6085468458592612e+01
      -5.5185671958251943e+00 -1.7023232522772155e+01
      5.9033540184609002e+01 -1.9682075640522271e+01
      8.2708304104604906e+00 1.1986126093582005e+01
      -2.3779260670837044e+01 -1.7681093842175642e+01
      -2.8298836829094569e+01 2.0394657632361376e+01
      -2.0860552771947503e+01 1.4298685582825449e+01
      4.1290771092879709e+01 2.4964417740192903e+01
      -1.1441223927214159e-01 -3.6391936115171418e+01
      -3.7798112568248364e+01 8.6211963058056540e-01
      -5.4909141090657783e+01 4.1885353476008573e+00
      5.0466595428833848e+01 2.3340111173798643e+01
      1.7442950737914153e+01 4.1940703538771924e+00
      -4.3853638751476787e+01 -2.0001584554185786e+01
      2.9417032510702892e+01 -1.1659523093212508e+01
      -1.7304672479703196e+00 5.1219872803504369e+00
      -8.0972991227394466e+00 2.0063535609621823e+00
      3.2483976683216831e+01 1.3815759703862749e+01
      -2.6227791096716938e+01 -2.7093978543208208e-01
      -1.5744580523635883e+00 -3.7942974816376633e+01
      7.0433075156259841e+00 -1.3390995693450863e+01
      7.9046156748697340e+00 -8.3348346876877866e+00
      -1.3537547247374771e+01 -1.5997709439900774e+01
      -1.8713504262076619e+01 -1.8923777413297287e+01
      -1.9157186725246562e+00 -2.7247402640420249e+00
      -2.7933231686694381e+01 9.2098854508366279e-01
      -1.0166765853905364e+00 4.9842976338332790e+00
      -1.5577142364696378e+01 -2.4286967719665913e+01
      -2.4723406299149375e+00 3.6231318253016312e+01
      -5.4276037341055117e-01 2.6111288520002183e+00
      -7.6336027620633806e-01 1.1759632418757967e+01
      -2.6987793692853906e+01 -1.4670605175711904e+01
      -2.3442305468626405e+01 2.6369702952281431e+00
      -6.5508591233718363e+00 -2.1967698956558351e+01
      7.1658240008386205e+00 1.3215115738705085e+01
      1.4706636197932061e+00 -8.8727775084465073e+00
      9.0428959863719935e+00 3.9288553016395276e+00
      2.3972705488093403e+01 -3.1061954734892417e+01
      -7.7498957087300724e+00 -1.8504237714437857e+00
      2.7044747299371458e+01 4.2592425280621903e+01
      2.0865910105620706e+00 -2.0118707632222574e+01
      1.3579225730749386e+01 -1.2552459778276445e+01
      -2.4131973423197074e+01 -3.4247467521953752e+00
      -4.0754291399200042e+01 5.5772335212693029e+00
      3.1308843711803775e+01 -2.4071269306986238e+01
      -7.0292869908959883e+00 2.0891168112760027e+01
      1.9989741118044215e+01 2.7628723241200653e+01
      1.7159893111884056e+01 1.4877691977802998e+01
      -1.0400279155778046e+01 1.2520068191105391e+01
      1.5882369383686672e+01 2.7153508531676110e+01
      -3.2418108136118899e+00 4.1842330626363704e+01
      -3.7577145271219003e+01 7.2593233753815705e+00
      1.6945546970439331e+01 1.5248297432616427e+01
      -6.5189554882884693e-01 -4.1405607455058444e+01
      -2.5626633403365272e+01 -2.8931756885012798e+00
      5.9034462256230157e+01 -3.4510507880638158e+01
      -1.9631568583409180e+01 1.1756417500481449e+01
      3.4429817420416824e+00 -5.1014064567148232e+01
      1.1556167386876092e+01 4.7842341514531498e+01
      2.3641761097713513e+01 1.5277713083195209e+01
      1.7397044842415884e+01 4.4166659765721992e+00
      -3.4012943515406015e+01 -2.8959230329362300e+00
      2.7280468925347240e+01 1.6129716672398580e+01
      -3.0584746638145042e+01 -3.9553271273514330e+00
      6.9516737755108522e+01 -4.3707300639168469e+00
      -4.1614298773441156e+01 -7.7521962579877561e+00
      -7.6950760662038373e+00 -7.4598590439518819e+00
      -3.2702515282272969e+01 -1.2241106005637334e+01
      2.3207523767986981e+01 -1.1597635724743641e+01
      -2.6237826880684540e+01 -2.7289783783213981e+01
      2.4129952425650757e+01 -1.4104450054187287e+01
      -1.9885665880815662e+01 -5.3671618847154638e+00
      -1.7614863799521746e+01 -2.1619478912969763e+00
      -2.8513315550711557e+01 2.6579886111174879e+01
      3.7736301713869381e+01 5.8187453190936695e+00
      -5.5827494216797868e+00 1.9221511305530552e+00
      -1.9898271525730451e+01 -1.4689149198562300e+01
      1.0998770705359910e+01 -2.2599431641673707e+01
      -8.8913134306481076e+00 -8.0741690116299498e+00
      -2.2163415184779488e+01 1.1110893662343306e+01
      2.2221893561290528e+01 -3.9931058768027341e+01
      4.1497726720114931e+00 -3.0323830143448536e+00
      4.3578050320760502e+00 -1.2912144295417232e+01
      8.0112986159006461e+00 -5.7853512735641104e+00
      2.7292013169871996e+01 1.2581808939166697e-01
      -1.3256406437299211e+00 -2.3661111486458395e+01
      -1.6592715192606089e+01 2.2062668030553407e+01
      -6.8417100556691892e+00 -1.4095346842614873e+01
      -2.3283294317292885e+01 -2.2330554024359039e+01
      -9.0131679344534010e-01 1.1322031685574547e+01
      -1.5605292397842042e+01 -2.3423270539822202e+01
      8.9008384026790086e+00 -1.1409599229468457e+01
      3.2956164020862190e+01 9.3179205715716371e+00
      8.5519608471009221e+00 3.0631599288313343e+00
      -1.4414913581417490e+00 8.2519011640838946e-01
      4.3262109871359904e+00 -1.1503358598370655e+01
      -1.0441433375391476e+01 -8.0023721110141128e+00
      1.5354628629102997e+01 1.1871972048715913e+01
      2.2229900851634103e+01 -7.1666269858020017e+00
      4.0440509074679811e+00 -1.2041423933048148e+00
      1.2125302850547632e+01 4.2117663958709711e-01
      -3.7823495743418860e+01 -1.0436607837323431e+01
      2.2849193479831356e+00 -1.3175049805462606e+01
      6.6612726262364825e+00 -3.1256658839003549e+01
      -6.4822611949899187e+00 -4.8791617417399046e+01
      -1.9905128627506443e+01 -1.4060356547302488e-01
      -3.0313634958298817e+01 -3.0744322932280332e+00
      -1.4741711663884014e+00 -6.9776793247646944e+00
      2.9991149753089353e+01 2.3802121318168062e+01
      -3.8140696914381977e+00 -1.6639836319362974e+01
      -8.8955559739465500e+00 1.1089702798793658e+01
      4.6756525209445901e+00 3.3299953357408633e+01
      -4.7069509971343031e+00 5.7039852790689444e+01
      1.7686306589466511e+01 -4.4780189107890521e+01
      -9.2016337068966259e+00 -1.5972173427117248e+01
      1.9693947164276288e+01 -2.1735785353187986e+00
      7.8808699925343024e+00 -2.6842790698647693e+01
      -6.6471689456216634e+00 1.1297617398409685e+00
      -2.7491337785507080e+00 -7.8424192290560510e+00
      -5.7633694779432012e+01 1.1882160869177875e+01
      -2.4575848874622794e+00 3.5293794403880831e+01
      2.6283785224975201e+01 2.0764547260012531e+01
      -1.6924155018368847e+01 -5.4415000153653645e+00
      -6.4304007276457993e+00 -1.1469980590590881e+01
      -1.2993017948351921e+01 -1.3530399212499814e+01
      2.0088293765202618e+01 -3.2349225809115374e+01
      6.3773135080979584e+00 2.4564553864927102e+01
      -2.5667679379892455e+01 -3.0098006621638838e+01
      3.0936368371501981e+01 -1.1942106420858297e+01
      -2.5099022187490821e-01 -1.6337174956542516e+01
      -1.4076710054187599e+01 -1.8619434922725112e+01
      1.7283036615859050e+01 2.3849457024172263e+00
      -2.6107848586370128e+01 3.5295337592990852e+00
      -3.5486880301289986e+01 -2.6161587463666521e+01
      1.1555870041423546e+01 -1.0390946394584519e+01
      6.9543603205553222e+00 -1.2477484759395560e+01
      -3.6936327256420709e+00 6.3985680816098602e+00
      9.7422617829270024e+00 9.6803219860921175e+00
      -5.4771162065791068e-01 -3.0432030878418487e+01
      -3.2257850957384475e+00 2.4086441576670559e+01
      6.0648184202915990e-02 1.0449955255052940e+01
      2.3634131678990485e+01 2.0235014754918954e+01
      -3.2443678541036718e+01 -4.0498361323794796e+01
      -1.6010797794752097e+01 1.8170992054727858e+01
      -2.3883000939197450e+00 1.2026248413774763e+01
      -3.6521832926914861e+01 -3.0269128781519412e+00
      1.0121523188655955e+01 -1.5626604007326048e+00
      -1.0186708420566871e+01 -1.3597649645539018e+01
      5.2786441056950908e+00 -1.1389091479660660e+01
      1.8704059620989543e+01 1.6291724804600388e+01
      1.7011204113778529e+01 4.2686314011143818e+00
      8.4565815053088489e+00 -8.6965820861102650e+00
      7.6741066077522353e+00 -3.7526761083504678e-01
      1.6687554804741267e-01 1.9924129228651022e+01
      8.1852269870413463e-01 -2.7297052673692797e+00
      1.7457800492697761e+01 5.8327478479041215e+00
      -2.7321602020630941e+01 1.4837680598530833e+01
      -1.5638672424977269e+01 -1.3443568420284495e+00
      1.0212074291215403e+01 -3.7600877766114809e+00
      -1.0595939952281032e+01 8.0684780273014827e+00
      2.3270209552355496e+01 1.6436441028902877e+01
      1.8012584670110865e+01 1.1847992614274229e+01
      -5.1188062294984434e+01 -3.2419653258757783e+00
      2.6476883205447773e+01 1.1713316659082903e+01
      -8.5085635316914416e+00 -7.1905179086209881e-01
      -2.2805234363889351e+01 -1.4300175750753134e+01
      -1.5541993395002493e+01 -2.8485321298287971e+01
      4.2621679755046493e+00 -6.7505194351672693e-01
      -5.6350224739898039e+01 -1.4752396004779673e+01
      9.8828689595756956e+00 -1.2800581669964538e+01
      4.1836747065201783e+00 -3.3192451733534917e+01
      3.1930655423552814e+00 -2.4906622290718790e+01
      -9.5460554102705899e+00 5.3168809568071921e+01
      2.4832784407752804e+01 3.1848925714019458e+01
      -2.6187860253535238e+01 -8.1408525755161136e+00
      -1.3796697378295347e+01 1.0185731231781054e+01
      5.5147542515915923e+01 -1.3380277484761963e+01
      8.0208311896399955e+00 -1.2977851083206047e+00
      9.3168362150971031e+00 -2.1967345463033972e+01
      4.1517012187848215e+00 4.3680173775760103e+01
      1.1858294568269493e+01 -9.0948941283513101e+00
      -2.8478613679604241e+01 -7.8416901010710545e+00
      8.5570496561723601e+00 -2.5237752652580325e+00
      6.6728887768668734e+00 -4.0265828929690606e+01
      2.3243088092524236e+01 -5.1260312676182602e+00
      -9.6606626228758739e+00 -1.4475834832310621e+01
      -1.5444909044314681e+01 4.3277890333934984e+01
      -5.7393533866044081e+01 -2.9115116160023465e+01
      5.4895530957678815e+01 6.3424683443072016e+00
      -6.4324659962420455e+01 5.3151044120344437e+00
      -3.2591917767433380e+01 -3.1348149880855541e+01
      2.6679389174593332e+01 -3.8101016430942671e+01
      2.2249774617150543e+01 -2.1918354463688548e+01
      -2.4520783407791825e+01 2.1743777784960636e-01
      2.0974857408362677e+01 -2.5112424201277520e+01
      -2.4598364110827625e+01 -2.9260331076153825e+01
      9.6338666423686217e+00 -1.2876295991287591e+01
      3.0125514991676020e+01 -1.9447167918590520e+01
      -1.0324685793955449e+01 2.7098676854543307e+01
      -4.0897785019487173e+01 -2.8254443179606219e+00
      -4.7306243384777789e+00 3.0386406673802721e+01
      2.1416465411693308e+00 -1.1158479820488219e+01
      -6.8023716870222790e+00 -2.0559095109010187e+01
      -5.3803326915393797e+01 -1.0457738774488618e+01
      3.6811303520091883e+01 -1.7635001754082477e+01
      1.3830591204819717e+01 -1.4812627969818880e+01
      2.0655937394399370e+01 3.7017979976987481e+00
      3.5313198224686424e+01 -2.8302925994491202e+00
      2.5380053122704236e+01 3.1438647492230674e+00
      -3.1108282856067412e+01 -2.5174082896916758e+01
      -4.3490804983011387e+01 2.4904688678828332e+01
      8.7586086974130783e-01 -3.2742965427282698e+01
      3.6981455022459868e+00 -8.7079265464282241e+00
      -2.2206020673477386e+01 7.4249609805447143e+00
      -2.9370584992305236e+01 6.5153950134877716e+00
      3.2430478250694068e+00 -5.7962286409775842e+01
      -4.5887267943660035e+01 5.4034322965059438e+01</_>
    <_>
      4.1287189375927333e+00 5.6060939023641261e+00
      5.9527122275824995e+00 -1.7327873524234771e+01
      6.2073348313274801e-01 9.3236248785695128e+00
      1.6230385319319286e+01 -5.8095184356546445e+00
      8.7657018266664704e+00 -5.3815704694104411e+00
      1.6913211197361839e+01 1.4142875419740442e+01
      7.6030273979950511e+00 2.6443039064555066e+01
      -3.6873699769738502e+00 1.0093495240350363e+00
      1.0753288301754855e+01 -2.0922551980643632e+01
      4.6274762953110188e-01 9.6237760658562337e+00
      -3.8589036218442274e+01 8.0404837094426131e+00
      3.4532025132979172e+00 4.4503121098592491e+00
      1.8325772135702522e+01 5.1776834884723314e+01
      1.8947620115092736e+00 2.4062633996008103e+01
      1.2770753703842702e+01 -3.5279674394136551e+00
      -1.0357165900973806e+01 3.0532074049813410e+01
      8.3563053521111872e+00 -7.5995336921598184e+00
      -5.8814522434480709e+00 -1.9656323235819844e+01
      3.2469406095215255e+01 1.8331348910795356e+01
      -1.6939721657086086e+01 -1.3473824849407146e-01
      3.0491988459619250e+00 6.1480712604509700e+00
      -1.0832540149242991e+01 1.6687324211525862e+01
      -1.9011202300999468e+01 -2.1086012433965251e+01
      -7.0442349054665359e+00 1.0271563855184754e+01
      4.9562550165994210e+01 9.1193421434568975e+00
      4.7357922301272373e+00 -8.5810804359723765e+00
      -3.8526044144175368e-02 -1.2945012322626825e+01
      2.0326049503887344e+01 1.2183161223190965e+01
      -2.6436587100011479e+01 -6.8573523455875511e+00
      1.3903700352129324e+01 -6.1554840982324306e+00
      6.3479543814199531e+00 4.5417782572813520e-01
      -8.1502981250764195e-01 -1.8770218521069769e+01
      -4.1955290035208321e+00 -1.8591036692040280e+01
      7.3072555374239894e+00 1.6830156262295194e+01
      3.0446302224153334e+00 -1.5162592054710421e+01
      1.9858064073241895e+01 -1.1103946099972744e+01
      1.1747383859615668e+00 3.1200624211582962e+01
      9.1522117962984932e+00 -2.6318747109956484e+00
      9.2368326470435171e+00 1.2905297320944751e+01
      2.1070556474199011e+00 1.8246339287988935e+00
      -2.7725306188606558e+00 2.6755397433921715e+00
      3.0009063936395237e+00 9.6025929442695257e-01
      -4.5064592995400066e+00 -1.0131515698835436e+01
      1.7867048170042903e+01 1.3406906215931436e+01
      3.3546402302244989e-02 -4.2163624029883726e+00
      -7.8777149273994658e+00 -5.4336949311745579e+00
      -1.5745392153493970e+01 1.2792577923457948e+01
      5.5761462325025910e+00 1.3625390248372293e+01
      5.0448552016707673e+00 3.7105908400490550e-01
      -2.0306148234379194e+01 2.0358542506969918e+01
      -7.1669649601845045e+00 3.7847780329085308e+00
      5.0141167407138232e+00 1.1755423013725700e+01
      8.4121872448911827e-01 7.1087298445830234e+00
      7.1225770659477439e+00 1.7307962205382001e+00
      9.6757665814944556e+00 1.8837248155245740e+00
      -7.5162008910877240e+00 1.3748186460221966e+01
      -5.4686938511007845e+00 -2.0912953080648369e+00
      8.8722767523689843e+00 -3.4180244725279474e+00
      -9.3674930718625120e+00 1.3160105950028386e+01
      2.1134759250335250e+01 -1.3622446107832098e+00
      4.5134851785971030e+01 1.2109899738104792e+01
      -1.5470104369169526e+01 8.2694282463299199e-02
      6.4063751867089662e+00 -1.9578308304823057e+01
      -6.9685687401168090e+00 2.6599535884363352e+01
      -1.0902827456499503e+01 -4.5853346443284995e+00
      4.6213086479100216e+00 2.2036607560296932e+01
      3.5087464323023371e-01 2.7384365800488332e+01
      2.8978057575952949e+01 2.8102646434819003e+00
      2.6307421827199562e+00 -1.3150115218671901e+01
      1.3071002448155811e+00 9.7310210615424868e+00
      3.6317842903652267e+00 -2.6733570428737544e+01
      -9.7215568726486055e+00 -7.6963119766545409e+00
      4.3212074187839900e+00 3.4546697915488402e+00
      -7.7615516775102380e+00 2.2652637986546655e+00
      -1.0420284375554669e+01 1.2430668035509033e+01
      -2.9083086552858890e+00 -5.8770180771820568e+00
      -1.5422262660391816e+01 1.5440350087010005e+01
      1.1553454012655353e+01 8.6611992857611728e+00
      -8.6771664640898702e+00 4.6916259998185197e+00
      8.1427271956903340e+00 6.5022130983581938e+00
      7.5094757795588345e+00 -1.4454994453719689e+01
      -2.7106591859730473e+00 1.8038198114831268e+01
      5.2170136000014269e+00 -1.5992615239263617e+00
      -2.5471078738476940e+01 1.7431808601761333e+01
      -2.3292797732639162e+01 -2.7828124487704322e+00
      1.0818366713584751e+01 9.3941816879731359e+00
      -6.4757542473416685e-01 3.0673285731797161e+01
      4.0991237005696464e+00 -4.8482948863327460e+00
      1.2146210380586615e+01 -2.3907025062180174e+00
      1.3483979786159576e+01 -5.1078210370963832e+00
      -9.8648536661208841e-01 -2.0513079749644994e+01
      2.0201043577953715e+01 -1.7156886634649915e+01
      6.6895618349857866e+00 3.6144322823918258e+00
      -1.3713643642763229e+01 -4.3716436268826753e+00
      2.4428964436777992e+01 -1.7099346535288078e+01
      -7.8921676458490060e+00 5.6600529532904647e+00
      1.1145263418837352e+00 -1.1022583521425590e+01
      3.2248445537919803e+00 -1.9315253641329477e+01
      1.2972252054575619e+00 1.1959241251592994e+01
      8.0035038812249635e+00 -1.2512385126648230e+01
      -4.8850255109332297e+00 2.0508827609325149e+01
      1.0637141478688608e+01 3.2253519822072723e+00
      1.8584371276806923e+01 -1.4568298693531803e+01
      -1.1376595344392511e+01 1.2243216868634461e+01
      -2.2166599378687493e+00 -2.0894172530074751e+01
      -4.4241020417072185e+00 8.9545298924252059e-01
      -7.5061134786942354e+00 1.4442670141842331e-01
      5.0242489049792045e+00 -4.5898657265818157e+00
      3.1916185944856444e+01 4.7132679223527871e+00
      -1.2442235461033230e+01 -2.0742044939964646e+01
      9.4723225799713742e+00 1.7442810273425071e+01
      6.9435248793103295e+00 -1.2187922745668931e+01
      1.4485955222267355e-01 -1.1299287855079269e+01
      5.4199766586125735e+00 7.6892167360057311e+00
      1.3183799572740007e+01 6.8685610937312633e+00
      1.2774259458532825e+01 -4.4043181158419999e+00
      -8.2728667986566489e+00 -1.5297287995375916e+01
      1.8633948574365196e+01 -4.3039672694270434e+00
      -1.0310966138908963e+01 -2.3856943264654142e+01
      1.6530003904373530e+01 1.9862225461817187e+00
      1.9900484952152816e+01 7.2009660003067903e+00
      2.3268271715489362e+01 5.0244711052016369e+00
      -1.1271116902842072e+01 1.5372266912100883e+00
      -2.5631017039504984e+00 1.5961589249760200e+01
      1.7793060178977107e+01 -1.8518697942295365e+01
      -2.2468769178904196e+01 -2.1722853174805746e+01
      -5.4061663171033523e+00 8.1610834025558876e-01
      -2.2030102757096302e+00 7.1263855945686105e-01
      1.4607991366352222e+01 8.7544398447462406e+00
      3.0320005124469024e+01 -5.3199446093786014e+00
      1.2622366552805055e+01 3.6311024461284919e-01
      -1.6992057106034601e+01 -6.5862787715069713e+00
      -5.3221380755528100e+00 2.6011540916143034e+00
      1.7344422920150773e+01 6.1168258309311945e+00
      1.8989700019476377e+01 7.3993435252414992e+00
      -9.6851768691349722e+00 -2.3587043699096513e+00
      -1.5212643510250267e+01 2.1156602835149205e+00
      1.0992829228354259e+01 -4.8896283300985105e-01
      1.7339415182906588e+01 1.4049071845557263e+01
      -1.6511775964550357e+00 1.6932096878940683e+01
      1.5976360901500675e+01 3.9509938399301658e+00
      -1.9944555689141268e+01 3.0603413536474410e+01
      8.1269945812787139e+00 1.3683427195741263e+01
