<?xml version="1.0"?>
<opencv_storage>
<opencv_ml_ann_mlp>
  <format>3</format>
  <layer_sizes>
    57 36 25 10</layer_sizes>
  <activation_function>SIGMOID_SYM</activation_function>
  <f_param1>6.6666666666666663e-01</f_param1>
  <f_param2>1.7159000000000000e+00</f_param2>
  <min_val>-9.4999999999999996e-01</min_val>
  <max_val>9.4999999999999996e-01</max_val>
  <min_val1>-9.7999999999999998e-01</min_val1>
  <max_val1>9.7999999999999998e-01</max_val1>
  <training_params>
    <train_method>BACKPROP</train_method>
    <dw_scale>1.0000000000000001e-01</dw_scale>
    <moment_scale>5.0000000000000001e-03</moment_scale>
    <term_criteria>
      <iterations>10000</iterations></term_criteria></training_params>
  <input_scale>
    5.6366820662151000e+01 -2.7286193771363663e+00
    4.2411593994655782e+01 -2.6879707281372567e+00
    3.4025524442914794e+01 -2.4466041537634204e+00
    1.8960955117929458e+01 -1.4639681183759314e+00
    5.6409149677207369e+00 -5.9849937262300013e-01
    8.8877707655274314e+00 -5.8867680846539538e-01
    2.0264465535012945e+01 -9.0113138391769221e-01
    1.8051992008077889e+01 -7.5892138805598930e-01
    3.4531845038673993e+01 -1.3682216690721998e+00
    3.7134400597194819e+01 -1.5952531536459862e+00
    3.7071758738882131e+01 -1.9113716761695183e+00
    3.6553217500481530e+01 -2.4952787032064663e+00
    3.5930868238920944e+01 -2.8289638661056609e+00
    3.8413931749150223e+01 -2.9776649266972552e+00
    4.2037473864468808e+01 -2.8758644030703189e+00
    5.0273564121710152e+01 -2.6164968787293561e+00
    5.6366820662151000e+01 -2.7286193771363663e+00
    4.2411593994655782e+01 -2.6879707281372567e+00
    3.4025524442914794e+01 -2.4466041537634204e+00
    1.8960955117929458e+01 -1.4639681183759314e+00
    5.6409149677207369e+00 -5.9849937262300013e-01
    8.8877707655274314e+00 -5.8867680846539538e-01
    2.0264465535012945e+01 -9.0113138391769221e-01
    1.8051992008077889e+01 -7.5892138805598930e-01
    3.4531845038673993e+01 -1.3682216690721998e+00
    3.7134400597194819e+01 -1.5952531536459862e+00
    3.7071758738882131e+01 -1.9113716761695183e+00
    3.6553217500481530e+01 -2.4952787032064663e+00
    3.5930868238920944e+01 -2.8289638661056609e+00
    3.8413931749150223e+01 -2.9776649266972552e+00
    4.2037473864468808e+01 -2.8758644030703189e+00
    5.0273564121710152e+01 -2.6164968787293561e+00
    2.2525077737671775e+00 -1.2937814898623889e+00
    3.2895298639183439e+00 -2.8384724959866774e+00
    2.5965674297035859e+00 -1.9178274401508320e+00
    3.3881445927445322e+00 -2.9519517588714010e+00
    2.3147077075861691e+00 -1.1974595879243126e+00
    2.3843744291338025e+00 -1.7888945899220976e+00
    2.4398772378719786e+00 -1.4488213761129654e+00
    2.5321219413356952e+00 -6.1706059750046438e-01
    2.3802090394934905e+00 -1.1700200728042631e+00
    2.2412692831808267e+00 -1.6051055515892751e+00
    2.3138850798867336e+00 -1.6261806104088292e+00
    2.4908765497872869e+00 -1.2634796443015432e+00
    2.3810508960688552e+00 -8.0820091540786199e-01
    2.3813483807159286e+00 -1.5004360596848434e+00
    2.8649973207719994e+00 -2.3087131272566230e+00
    2.2441076845045713e+00 -1.5846955159075955e+00
    2.3747250654377501e+00 -1.0747309693363369e+00
    3.0317984899868677e+00 -4.3726330383366541e-01
    2.3200518838751840e+00 -1.0950982103959659e+00
    2.9322554607351332e+00 -2.5292928986420531e+00
    2.2762693834959964e+00 -1.2928678384041719e+00
    2.9961472859997529e+00 -2.5022384262927067e+00
    2.4782276546261852e+00 -1.7073145369541145e+00
    3.6061095735839817e+00 -3.2006245454274547e+00
    2.4914303822361159e+00 -1.7842560980911306e+00</input_scale>
  <output_scale>
    5.2631578947368418e-01 4.9999999999999994e-01 5.2631578947368418e-01
    4.9999999999999994e-01 5.2631578947368418e-01 4.9999999999999994e-01
    5.2631578947368418e-01 4.9999999999999994e-01 5.2631578947368418e-01
    4.9999999999999994e-01 5.2631578947368418e-01 4.9999999999999994e-01
    5.2631578947368418e-01 4.9999999999999994e-01 5.2631578947368418e-01
    4.9999999999999994e-01 5.2631578947368418e-01 4.9999999999999994e-01
    5.2631578947368418e-01 4.9999999999999994e-01</output_scale>
  <inv_output_scale>
    1.8999999999999999e+00 -9.4999999999999996e-01
    1.8999999999999999e+00 -9.4999999999999996e-01
    1.8999999999999999e+00 -9.4999999999999996e-01
    1.8999999999999999e+00 -9.4999999999999996e-01
    1.8999999999999999e+00 -9.4999999999999996e-01
    1.8999999999999999e+00 -9.4999999999999996e-01
    1.8999999999999999e+00 -9.4999999999999996e-01
    1.8999999999999999e+00 -9.4999999999999996e-01
    1.8999999999999999e+00 -9.4999999999999996e-01
    1.8999999999999999e+00 -9.4999999999999996e-01</inv_output_scale>
  <weights>
    <_>
      -2.9902327595240585e+00 -8.6202255520005522e-01
      1.0007521885204305e+01 6.2211093974995650e+00
      -3.6416979679355630e+00 4.3982265608944454e-01
      -8.6143700390210209e-01 1.2921323794423303e+00
      -3.6148344717354841e+00 1.2322390760126265e+00
      2.3819331395593561e+00 -5.2118118607137887e-01
      -1.2520267214470173e+00 3.6692130460228105e+00
      -2.9008667871665041e+00 -1.9831910134342423e+00
      1.8072724311903652e+00 5.4758689488355419e+00
      1.9287044538635489e+00 6.3783798161556735e+00
      -9.0345331341403305e+00 -8.3764392111897190e-01
      -1.6741143231920206e+00 -1.1312296442864909e+00
      2.1201871946457698e+00 1.4670808680298468e+00
      -1.7388223549934236e+00 1.7527278018165728e+00
      4.5454160151774294e+00 -1.3535734986764526e+01
      -2.0989446975446011e+00 2.6240297735991907e+00
      4.4923030928632528e+00 3.7561509695675475e+00
      1.3212922481797431e+01 -1.4416399804913198e+00
      -3.7230249141065364e-01 -6.1063828319236146e-01
      1.8560255662115697e+01 -2.1236530955014872e+00
      1.6189202508198666e+00 1.6787660435889533e+00
      -5.4506143060293855e-01 3.9559891571623753e+00
      1.8427324799410716e+00 6.4405641604482033e-01
      -2.1791560721323435e+00 -1.0413932348812143e+00
      -1.3324589861359339e+00 -4.8519234413198498e-01
      -1.0502875109360226e+00 -2.0199217214798626e+00
      -1.8606890812888728e+00 7.9040993411488081e-01
      7.2737791150761388e-01 -9.6556432833772599e-01
      3.0415408326775744e+00 -1.1589735382075346e+00
      -4.2993318376300165e+00 -1.3471588669835846e+00
      8.5438877417747516e-01 9.5723234241992694e-01
      4.2531153612824546e-01 1.1660188895008055e+00
      4.1875173898939810e-01 -2.2408331719665444e+00
      1.4643299426909262e+00 4.9356479042476098e-01
      -2.2288082906009676e+00 2.0757440588448176e-01
      7.9059448309612081e+00 -1.7766947373794986e-01
      -5.6245292830511211e-02 -9.4793964700246547e-01
      9.0532129396134859e+00 -3.7729070474239248e+00
      2.3555403370434074e+00 5.2172739103780783e+00
      -1.8217709730443363e+00 1.7763803703549483e+00
      2.1209904148527938e+00 1.8141664096968537e+00
      -2.0448584157683900e+00 -1.0389897970992874e+00
      -3.6673615169807422e-01 -3.9470104211045187e-02
      -4.6772191376998897e+00 2.1832232322396652e+00
      -5.7986401455776854e-02 -2.6997761140372281e+00
      -2.5135447008710216e-01 -2.5958894389529132e+00
      -3.2295845670550979e-02 -3.0351399848409943e-01
      -2.1715652650476169e+00 -6.1297204963227447e-01
      5.5950628406791936e-01 2.9096540606435900e-01
      -4.2003113633938627e-01 2.1523535378672234e-01
      1.3944987828791894e-01 -4.5325486239797081e+00
      2.0491215744614366e+00 -3.7567692419883320e-01
      -2.7703907849328284e+00 -2.9248956370339823e+00
      1.3129678710046139e-01 -1.8445695833613643e-01
      -4.7259161405191430e-01 -3.0178144783571603e-01
      8.7209521713589822e-01 -2.2835732852890978e+00
      -2.3797638644696376e-02 5.5326913815957768e-01
      2.8575891761853898e+00 7.1567151810033958e-01
      1.2540512061713476e+00 -7.1195153877718154e-01
      -3.1058966140391381e-01 -3.5562681771400190e-01
      -1.2185491191977078e+00 -1.8823498977185324e+00
      -4.1023770967508694e-01 -1.7527977799688277e+00
      -8.6238392316479919e-03 -1.3236868164703346e+00
      -3.7831546187441868e-02 -1.9218801637363851e+00
      -8.9920550904373509e-01 -6.2048014022968012e-01
      -8.2598509577370249e-01 -6.6867312979524999e-03
      1.1500171993208070e+00 1.4470726327714950e-01
      1.3703816733909242e+00 3.8953606167765198e-01
      -6.6187173874024996e-01 7.3124292900631749e-01
      7.2622550113861900e-02 1.2123527462751977e+00
      -4.5426194774374915e+00 -1.9908766841187113e+00
      7.9692853241689704e-02 -4.6071540178172188e-01
      3.1210095104225732e-01 1.5752595680904726e+00
      2.5974659574800496e-01 -6.8816956407603791e-01
      1.5408571841493959e-01 -5.9204767301589176e-02
      -7.1198870182534291e-01 -1.6828577549422787e+00
      -5.1198163125438201e-01 8.1028810071078400e-02
      -6.4339991089328225e-02 -5.9622878037714511e-01
      -1.1934527433773807e+00 -2.9106779921209797e-01
      1.0840417320712081e+00 -1.8186420339760989e+00
      4.4324397938298045e-02 -8.6513253670145907e-01
      -1.0106583145288980e-01 1.0146885680506086e-01
      7.8203050812408959e-01 7.8117915686427897e-01
      1.0293822379085511e+00 4.2158305050594896e-01
      -9.3514789154645428e-01 -7.4182998360556618e-01
      3.4708453645452514e-01 -6.3252148417956811e-01
      8.4127335200334274e-01 8.1989831286934423e-01
      1.7861444163927482e+00 -2.1454108289158680e-01
      -4.2931683953720334e-01 -1.0871895869986537e-02
      1.1316101122595135e+00 1.0250210851675923e+00
      -2.0517742498405236e-02 6.0322890649965943e-01
      -8.1060947086829413e-02 -3.4499728520640233e-01
      2.1028003284702645e-01 1.9474446638991869e-01
      -6.0808801975859195e-01 8.0683361678636911e-01
      4.0204408052466417e-01 1.2113412603388806e-02
      5.9870082578049905e-02 -1.6722113415874354e-01
      -3.7141768141461956e-01 2.5853994466712821e-01
      3.8211058307080392e-01 1.7945039271562733e+00
      -7.3985526796388479e-01 -3.6541495607376034e-01
      -1.2346354348883261e-01 1.0136783327941761e+00
      -6.5010054251088056e-01 1.8182005946355986e-01
      -2.1195877348123335e-01 3.1808040512017932e-01
      -1.2988927110226531e-01 -1.9917475381779715e-01
      -3.8816119562006579e-01 -5.1951550730267762e-02
      2.5427330959949224e-01 -1.1010351964885745e+00
      8.3940921212156572e-01 2.2651883869599687e-01
      -8.8749887730457444e-01 -1.2566307314238589e+00
      8.9033577100461003e-02 4.2170208396579967e-01
      1.6938529108469474e-01 -7.3794660213142826e-01
      1.2898743307443366e+00 3.0331856380826849e-01
      -8.4348554820231247e-01 -5.7798849882551828e-01
      2.2061547333998988e+00 1.3985653954874568e+00
      1.6187008444509656e+00 1.2762181247772575e-01
      1.9973190283486570e+00 -1.5212585311214272e-03
      -7.6315999444781801e-01 5.3187220667045058e-02
      -1.5793415925589764e+00 1.3388347859759808e+00
      -2.6093560654256343e-01 1.5964825737989154e-02
      -5.4866043505393736e-01 8.4979256152629423e-01
      -1.0414116129236226e+00 -2.2751984477776258e-01
      -9.9375218830866763e-01 -2.3657631490100233e-02
      5.8755689391161880e-01 2.8816174165804742e-01
      -1.9935869568400832e-01 5.4981397001277443e-01
      -9.2624302847432205e-01 -1.7868218328099110e+00
      1.5590415111002189e+00 2.0617508445739860e-01
      -1.2886884170451758e+00 -8.5342542266950616e-01
      -1.2674100022136023e+00 -3.2768355126290205e-01
      7.2867243158664619e-01 -4.5216846249113790e-01
      -1.9536941469896314e+00 2.8687374858646129e+00
      1.3389945513471295e+00 -3.3563139557768928e-01
      -3.2089873359671112e-01 1.4274960045005749e+00
      -3.4542430787713269e-01 -4.2606243342253469e-01
      2.0343736336753597e+00 -2.2499611603214525e-01
      1.7434116781880806e+00 2.1130657414319870e-01
      6.7942571502245350e-02 -2.2300431000080523e+00
      7.6615086429976909e-01 -6.5837486477731855e-01
      -6.3350870661979897e-01 2.3907152978937329e+00
      -5.2148587910181998e+00 -6.5284487958336343e-03
      5.6650523011547338e-01 1.3839894099545977e-01
      1.6762324509183760e-01 -2.6250085489990910e-01
      -8.3791443602034865e-01 -1.8523758994698986e-01
      -3.6243102537035288e-01 -2.1003339150077478e+00
      1.6596757826895547e+00 3.9496437117054733e-01
      1.1797854436253623e+00 -5.8938103337557568e-01
      -1.4412814387403847e+00 -3.2240610454333640e-01
      4.0268063102287416e-01 -9.2289595917109435e-01
      -4.9607639811306559e+00 2.7972747683405501e+00
      8.0486002746764485e-01 -2.6876594090895964e+00
      -8.9685882034994524e-01 -3.6410651633543347e+00
      -3.9503866880158252e+00 -1.0537834698800885e+00
      9.4263404495631731e-01 2.1658152239224711e+00
      2.1591088918223114e+00 3.1797193501007834e+00
      8.6226217734949095e-01 2.5822891999921511e+00
      2.0028349131053163e+00 2.2971118119477105e+00
      7.5409297344005288e-01 1.4622436111843269e+00
      -5.0292926321397644e+00 1.2705331354081903e-01
      2.6935554955789334e+00 2.9005359530795821e-01
      -3.9997362622019472e-01 -1.4976421177486401e-01
      -2.1072963156664692e+00 -1.7853629223934225e-01
      4.5993635683614070e-01 -1.8835796926048360e+00
      -3.2226352589361826e+00 -1.5418930186448760e+00
      2.4175360719058521e+00 -5.2331740361287438e-01
      -3.3887586585558549e+00 -2.2255108056764836e+00
      -1.7768801222038930e-01 -9.8222688784886614e-01
      -5.8347948597339778e+00 6.3982128028282466e+00
      8.1937871603432599e-01 -6.4567523513213665e+00
      2.1271256255774977e+00 -6.0280411820777806e-02
      5.0665864682351780e-01 -4.1203212462080013e-01
      5.1789165614469024e-01 5.9608540755921890e-01
      3.3608466362601846e-01 1.4095188726929628e+00
      2.5018468853439688e+00 3.5988598344887914e+00
      1.2861806800173619e+00 2.1653863703226213e+00
      3.7893054752885746e-01 3.1886472439567086e+00
      -1.9351888408877220e+00 -2.7387147879383006e-01
      2.0993822216641824e+00 -8.0815933602480727e-01
      -4.5223769808268627e-01 1.7053636345294002e-01
      -2.7136147710849863e+00 -1.6204995901087449e-01
      1.4192563368219013e+00 -9.8427235989133588e-01
      -2.9357245768838225e+00 -1.6480932498538980e+00
      6.6217498482311310e+00 7.9512532166356231e-01
      -2.2290299576044150e+00 -1.8400790772474747e+00
      1.2662306543783028e-01 -9.7028651976860103e-01
      -3.2212570476752491e+00 -1.6378315511596253e+00
      3.3903450614577452e-01 -8.1729732145041034e-01
      3.4571957622100111e+00 -8.3923348822759392e-01
      2.0556763976890025e-01 -3.7454915873952596e-02
      -8.2080117321335078e-01 6.1708089080778461e-01
      1.0773779703007371e+00 1.3124418260822652e+00
      6.1289598919697752e-01 3.4285151210547432e-01
      -8.3604386165820599e-01 2.1736601070612758e+00
      6.9520847511535450e-02 -3.0320452874976955e+00
      1.1509639163345607e+01 -1.7785781031584808e-02
      -1.0315233876271854e-01 -6.1633438229241465e-02
      4.4748796008992064e-01 2.5492376924993787e-01
      -3.5816798096623514e-01 1.7060426104985682e-01
      -6.5853056923343556e-01 4.2897593285880760e+00
      -1.0742196096792140e+00 -2.2793050342517649e+00
      2.0256204326629033e+00 2.8245798308805812e+00
      -3.0964086735664695e+00 -4.3565460933288440e+00
      6.0235339604984184e-01 -4.3243889519170614e-01
      4.8677256676478244e-02 -2.2096416783620301e+00
      7.7840950664704589e-01 8.2803829930951578e-01
      -9.7436432906482651e-01 -1.4077915045568290e+00
      3.6116865932760611e-01 -2.7645462833411188e-01
      -1.6253887632659492e-01 5.5531992050466472e-01
      5.4117147314715686e-01 6.3503065083744192e-01
      -3.8887377693349989e-01 1.3734310097976901e+00
      7.3632588376921615e-01 5.7736335372022773e-01
      -4.3487576200590350e-01 -2.5002280138119186e+00
      9.0356481239228739e+00 2.9961912999408791e-01
      -2.3778658411106898e-01 1.3074050900835665e+00
      -3.8912943253430998e-01 8.1929494285512938e-02
      1.1018689408322868e+00 -4.0064432495651287e-01
      1.1408867822905462e+00 4.8232217336611942e+00
      4.5163404008539898e-01 -1.2497084135258232e+00
      1.0495717288088129e+00 4.7489320968558257e-01
      -7.2580038057094531e-01 3.6642229060441539e-01
      2.6910934715688617e-01 5.2718037454582867e-01
      -9.0098971367270542e-01 -2.0132934576173867e+00
      -7.0684716172746498e-01 9.7859563925572357e-01
      -7.9100903292204650e-01 -5.2565297881528930e-02
      -4.7473428305103932e-01 2.9726130527379774e-01
      -6.8401903058660773e-01 1.7755429991049074e+00
      1.5627198248879894e+00 -9.4190631537970249e-01
      -4.0248203558103164e+00 -1.0490817746288648e+00
      5.0938226760935335e-01 7.3702841607928926e-01
      1.4766686752482075e-01 -3.0955687103773606e+00
      6.5096033154030373e+00 2.5172201392635492e-02
      -5.0614234145275516e-01 -1.7849287250981100e-01
      4.8348384120157406e-02 1.1463656930908432e+00
      3.6260361796704728e+00 -4.3891526340290188e-01
      -2.2998509046498417e-01 7.9176771279245441e+00
      -2.0154760568460456e-01 -8.7970938254648079e-02
      -1.4072878603916901e+00 5.6123041738993900e+00
      -1.6290562648157536e+00 -2.1631155199253163e-01
      7.8766477599710838e-02 -1.5721754635176139e+00
      -3.8293277184312111e+00 -4.7616138265037353e+00
      2.4949157668118283e-01 2.3582458387278766e+00
      9.9138288028084509e-01 1.7593589589005592e+00
      2.8631582664709399e-01 9.9806016578007223e-02
      -2.1780948458339160e+00 1.0168138926080679e+00
      7.7737084698428782e-01 -1.6885981991780261e+00
      -1.8484744192402263e+00 -2.8139790281828061e+00
      1.0669463136016961e+00 6.7729361311410241e-01
      -3.9105491652237055e-02 -3.1322271380273721e+00
      1.1180058734185064e+01 -1.4036605705937549e-01
      -8.7078154904596194e-02 -1.1521202977568150e+00
      3.2183106499654557e-01 9.7963893679377334e-01
      4.9540467773652386e-01 6.9706020031350757e-01
      -1.6936353712332664e+00 9.8113667001404252e+00
      3.3443176694996528e+00 -3.9448935320103612e-01
      -7.3554628756254048e-01 1.7542907770211600e+00
      -2.8193796462837022e+00 1.8633727419960617e+00
      -1.2610982832190427e+00 -4.9757105913722102e+00
      -1.0473923338203354e+01 2.1078199395799397e+00
      -2.9927604979304562e-01 -5.3821535973453116e-01
      -6.3113057493909430e-01 -1.8686981996508052e+00
      -8.6213493996346091e-02 -1.0647389864510621e+00
      3.1770178398561566e-01 8.2519586048082660e-01
      1.2471578051319632e+00 -2.3226274500748865e+00
      -1.7794450746585306e+00 -3.5197244694407668e+00
      1.2246307594569357e+00 -2.4906359870331700e+00
      7.8834742098201127e-01 -1.8505176131398988e+00
      -5.9958405131376020e+00 -2.4512429255132977e+00
      2.6349725425163433e+00 -5.4699360175037404e-01
      -4.2887771071266761e-01 5.2371886931598666e-01
      5.8277331915177366e-01 4.7897543871720777e-01
      -1.1088204026475974e-01 4.6519069712107806e+00
      -5.4238041003921111e-01 2.1775783749037825e-01
      2.7302776108125033e+00 1.5700117829528486e+00
      -4.8007318391016094e+00 1.3838616331366429e+00
      -1.4566439698473552e+00 5.3323435959247245e-01
      -7.3026002525912990e+00 7.0489516963950178e+00
      1.3358927385519177e+00 -8.7175461328654913e-01
      -6.7786910085329799e-01 1.4864833019717323e+00
      -1.5973465703947274e+00 8.3878407928728560e-01
      -3.0626955052306655e+00 6.4203516739727295e-01
      -1.5746225798056690e+00 2.4449102522904725e-01
      8.6728473139667255e+00 7.8222911552803476e+00
      -8.5436407873828191e-01 3.8757744575317581e+00
      7.5173810469671121e-01 7.7871122543660765e-01
      -1.5469278173198360e+01 -6.9790932550087303e-01
      -3.9020500514494807e+00 -5.8463300832123999e-01
      1.5790629045108302e+00 1.1881657134325991e+00
      -9.4962646279153795e-01 9.1843749586039536e-01
      -9.4431126674648844e+00 -9.3811053933680295e+00
      -1.0065475522091025e+00 2.9993655905550844e+00
      7.1545296527765130e+00 -5.9259584823451517e-01
      -2.6522909527075256e-01 -1.0273520920212850e-01
      -2.9784670227445416e+00 -9.0219044935926374e-01
      1.0018267799293447e+01 6.2541837987417717e+00
      -3.6114254277573399e+00 4.6644423952370168e-01
      -8.5537506615226111e-01 1.3431722256399679e+00
      -3.6339350148989653e+00 1.2097939998936795e+00
      2.3852796477655573e+00 -5.0938919844104436e-01
      -1.2816462284922447e+00 3.6275164497274890e+00
      -2.9014261220309514e+00 -1.9828682888130338e+00
      1.7931040794353137e+00 5.4565094193106134e+00
      1.9611078785893736e+00 6.4213635343576456e+00
      -8.9741742994570348e+00 -8.1745578070407787e-01
      -1.6709677466097199e+00 -1.0789681782796572e+00
      2.1231253670600467e+00 1.4461406546957960e+00
      -1.6941263548225958e+00 1.7113950397405988e+00
      4.5554588982654112e+00 -1.3505048372126760e+01
      -2.1112921471560204e+00 2.6191188870896860e+00
      4.5359624323081089e+00 3.7564919069014304e+00
      1.3233215539278468e+01 -1.4693840258088848e+00
      -3.7930534808997929e-01 -6.1412140230591727e-01
      1.8545260038648646e+01 -2.1445148251311941e+00
      1.6695092377438316e+00 1.6832716269294319e+00
      -5.4846223190098964e-01 3.9574064172200192e+00
      1.8224279220218618e+00 6.6244481124940369e-01
      -2.1669149724936156e+00 -1.0414908228307507e+00
      -1.3892860021277353e+00 -4.2943523362764957e-01
      -1.0181081959747751e+00 -1.9697550233465815e+00
      -1.8615774268980534e+00 8.0196269076697713e-01
      7.1778542543580903e-01 -9.8635014522500120e-01
      3.0322890990324689e+00 -1.1586270210432628e+00
      -4.2974339347561079e+00 -1.3387568393186278e+00
      8.4331258780078233e-01 9.1903310662164772e-01
      4.5925226822033172e-01 1.1380162645811065e+00
      4.3106928536473332e-01 -2.1967250906794096e+00
      1.4532470631823389e+00 5.3921793029615672e-01
      -2.2419079704237492e+00 2.2421645859705411e-01
      7.8872530071210667e+00 -1.6083586366382377e-01
      -5.4606920348395600e-02 -9.5559254599915477e-01
      9.0830305163324656e+00 -3.8028519726657115e+00
      2.3277553492320053e+00 5.2054859243335718e+00
      -1.7999940739223270e+00 1.7809179493764471e+00
      2.1114582935857662e+00 1.7557454808952719e+00
      -2.0304443311572244e+00 -1.0340261086662808e+00
      -4.1502576046226353e-01 -2.2193637591849925e-02
      -4.6707265139938325e+00 2.1789996517657531e+00
      -8.6153828828594639e-02 -2.7368250107964687e+00
      -2.8224262880561518e-01 -2.6478066724164315e+00
      -8.2885250817887543e-02 -3.0383571240834606e-01
      -2.2243210469402337e+00 -6.2350100555238275e-01
      5.7249938556286872e-01 3.1857551685502189e-01
      -4.2748384105726389e-01 2.2595056494196605e-01
      1.5930728792314475e-01 -4.5023291831047940e+00
      2.0204609536754226e+00 -3.9856690900352726e-01
      -2.7485998910455440e+00 -2.9494263885015162e+00
      1.5489579034436862e-01 -2.1838906003680683e-01
      -4.5319025585475459e-01 -2.9580489606692384e-01
      8.7878672343752018e-01 -2.2849773659455277e+00
      -3.1011423221226814e-02 5.8044294649079131e-01
      2.8667879223296655e+00 7.1564054420855461e-01
      1.2299309395102878e+00 -6.9043801640060498e-01
      -3.0490610645444655e-01 -3.8115963619532761e-01
      -1.2201766590993748e+00 -1.8544499185995682e+00
      -3.8498429121882732e-01 -1.7802117498136212e+00
      -7.4866107263972604e-03 -1.2723756629228273e+00
      -6.7807373976469437e-02 -1.9024719333692266e+00
      -8.8041218974637292e-01 -5.9280134384377681e-01
      -8.5299898710590671e-01 -1.7727603157811696e-02
      1.1336179451087554e+00 1.2784079757334776e-01
      1.3877424009541637e+00 4.1119151962006317e-01
      -7.0789043599734436e-01 7.3270839896193196e-01
      5.0581912542228664e-02 1.1663549002498401e+00
      -4.5888726126685961e+00 -1.9639039792512050e+00
      4.2853959646583728e-02 -4.4602692923138820e-01
      3.5613539190546128e-01 1.6032545943883509e+00
      2.6495020246990497e-01 -6.6966302403320666e-01
      1.6106682292494265e-01 -1.6347083691712287e-02
      -7.2697413419015888e-01 -1.6842212511824388e+00
      -5.1102872210845252e-01 1.1133246415688641e-01
      -8.3996285906239462e-02 -5.6727967269332868e-01
      -1.1605802148279136e+00 -3.0894972466701492e-01
      1.0394637939981082e+00 -1.8319323361690403e+00
      8.8961673454654250e-02 -8.5640376699972154e-01
      -1.3466484802441264e-01 6.9302482795995310e-02
      7.6961150190273953e-01 7.8938074335380515e-01
      9.9448263923096514e-01 3.6154854790432006e-01
      -9.0624957437605624e-01 -7.6200786406514864e-01
      4.1350384413435809e-01 -6.4185466937037683e-01
      8.4690088747175285e-01 8.5074373966482453e-01
      1.7811861418521577e+00 -1.6512598620772900e-01
      -4.4070106240239981e-01 1.4733977527822592e-02
      1.1656233217107177e+00 1.0839684354727048e+00
      -1.9326814248904239e-02 6.0568133754920450e-01
      -5.5527253408853020e-02 -3.5045643017047640e-01
      2.3608696110054467e-01 1.9290184204062258e-01
      -6.5695623797759606e-01 7.8357045863836039e-01
      4.3026112674203837e-01 -3.7553511421754122e-03
      1.1162417713669617e-02 -2.0656652629394609e-01
      -3.8858181230338712e-01 2.8465760322195061e-01
      3.3049419405159774e-01 1.7877954244135434e+00
      -7.1330529004277743e-01 -3.5628527295199836e-01
      -1.3944076258043245e-01 1.0241851954218619e+00
      -6.5766006787077047e-01 2.2946939865871754e-01
      -1.7920748477084195e-01 2.7639629183518977e-01
      -1.3610259960060964e-01 -2.0033841899076865e-01
      -4.1299476747519592e-01 -6.6600125951917916e-02
      2.7046844435347267e-01 -1.1010025499801908e+00
      8.0833748123342919e-01 2.0691388806573147e-01
      -8.6843624440943001e-01 -1.2737800597046360e+00
      5.6030772828455921e-02 3.9560676800329464e-01
      1.3771110746533427e-01 -7.5298182721952922e-01
      1.2926608964440551e+00 2.7632175018194094e-01
      -8.7475422780656853e-01 -5.3260985873055378e-01
      2.1767951678746713e+00 1.3441650017820936e+00
      1.6326002973456442e+00 1.2160066813973310e-01
      2.0009843475434823e+00 -1.2373259540923552e-02
      -7.7151517132145564e-01 9.2616030801867671e-02
      -1.5653056017848983e+00 1.3280002743409665e+00
      -2.1751362179686748e-01 6.7088703598892810e-02
      -5.0271078066633212e-01 9.0558789003152040e-01
      -1.0078585727693270e+00 -1.6969719115576123e-01
      -9.7633392219825010e-01 -3.0721936411061797e-02
      6.4484021140698033e-01 2.3796783505404889e-01
      -2.2039030574124724e-01 5.3727217066971744e-01
      -8.9209006857707385e-01 -1.7346903284908861e+00
      1.5902849062153750e+00 2.2656871950781890e-01
      -1.2478344336822311e+00 -8.0381833076577403e-01
      -1.2385818073735881e+00 -3.0948183923007522e-01
      7.2155350805167418e-01 -4.5436591856062875e-01
      -2.0107776304158871e+00 2.8933262309613319e+00
      1.2968326635333185e+00 -3.3849698205919554e-01
      -3.2157766707585983e-01 1.4358395391814882e+00
      -3.7502374128324584e-01 -4.1873799334456252e-01
      2.0504417804218411e+00 -1.8364657482438268e-01
      1.7366782336733804e+00 2.3235664686966140e-01
      9.3681132327556871e-02 -2.2266730736361127e+00
      7.5931066276840642e-01 -6.5714706692459346e-01
      -6.7414367022238209e-01 2.4342156494853286e+00
      -5.2392576670754245e+00 -1.5005167686400665e-02
      5.9449356597953762e-01 1.8005167770066000e-01
      1.8596120504160082e-01 -2.7527259025772038e-01
      -8.5879626191848357e-01 -1.9954791690479284e-01
      -3.3875942710514118e-01 -2.0935738468348877e+00
      1.6386761244483650e+00 3.9454638956080618e-01
      1.1804473019500883e+00 -5.3512568583195208e-01
      -1.4311960274394100e+00 -3.4691420958618480e-01
      4.4116976151713055e-01 -9.6026842600755191e-01
      -4.9114547225929766e+00 2.8131132970124257e+00
      8.5407000337919203e-01 -2.6856089340804465e+00
      -8.7995500860794640e-01 -3.6194594728900107e+00
      -3.9822250956948477e+00 -1.0304787271850111e+00
      9.1561165776744891e-01 2.1598405473309370e+00
      2.1339659617807381e+00 3.1961102507881405e+00
      9.0967983619717074e-01 2.5881883986979215e+00
      1.9691913074777301e+00 2.3103480706771191e+00
      6.9450451643534961e-01 1.4837191987053104e+00
      -5.0423976367616152e+00 1.2801638687650391e-01
      2.6731414426345124e+00 3.2023459618711719e-01
      -3.4461694688130684e-01 -1.5633462581489319e-01
      -2.1374556384930705e+00 -1.7654778243035374e-01
      4.3539280311456158e-01 -1.8618223329080441e+00
      -3.2349044252670436e+00 -1.5895314988483127e+00
      2.4710110282246083e+00 -5.6727944392932994e-01
      -3.3852230404144650e+00 -2.2249536232040881e+00
      -2.2791114886957295e-01 -9.7273925355455815e-01
      -5.8100962021467675e+00 6.4199083030371122e+00
      8.5608416942956667e-01 -6.4082669495369586e+00
      2.1740366278014331e+00 -2.8967286721841436e-02
      5.1517631880628800e-01 -4.4418371202803492e-01
      5.5931721944263402e-01 6.5395467723704404e-01
      3.4921745918708719e-01 1.4467545466572187e+00
      2.4734941659905263e+00 3.5625489159143471e+00
      1.3359571961095478e+00 2.2205498250400719e+00
      4.0658839106548228e-01 3.2071421016198354e+00
      -1.9103280881126550e+00 -2.8824045974909279e-01
      2.0670450081438765e+00 -8.5067460129761707e-01
      -4.9376008083750661e-01 1.6662797408694816e-01
      -2.7091230187526905e+00 -1.2367412325626261e-01
      1.3954767353956341e+00 -9.9543576715061832e-01
      -2.9066909882840517e+00 -1.6744090547344659e+00
      6.6480037011872906e+00 7.8924183009919679e-01
      -2.1855662385504742e+00 -1.8497748419931856e+00
      7.6982948835653028e-02 -1.0069683988408440e+00
      -3.2291693743471557e+00 -1.6103148485594256e+00
      3.4240396595351047e-01 -7.8800415129878598e-01
      3.4730451648526239e+00 -8.7646272767889288e-01
      2.4408442391523064e-01 -9.3376336301939547e-02
      -8.3510441714858030e-01 5.7096706375614714e-01
      1.0764989207029390e+00 1.3277929772829042e+00
      6.2452530177571275e-01 3.2211696641663673e-01
      -8.2871018607133529e-01 2.1778412064771424e+00
      3.8017860798767955e-02 -3.0586908377199262e+00
      1.1530673446269272e+01 -1.1030762703176926e-02
      -1.3651029295707681e-01 -4.1751057853975607e-02
      4.5684292173180974e-01 2.5782458360963406e-01
      -3.7436520774168303e-01 1.7425003996526406e-01
      -6.4173524323351927e-01 4.3006225644753773e+00
      -1.1164660853498303e+00 -2.3228502055180407e+00
      2.0547260999951145e+00 2.8349378851622458e+00
      -3.0988506753113514e+00 -4.3596915647837990e+00
      5.7032933101025962e-01 -4.2350865211906835e-01
      6.8106475857013710e-02 -2.2456840167183243e+00
      8.2486047179558486e-01 7.9697937666996144e-01
      -9.7607399613800272e-01 -1.3994766285172922e+00
      3.0419807973719615e-01 -3.1153539215058029e-01
      -1.6390446582906854e-01 5.3053296961465735e-01
      5.1127901039584067e-01 5.9259915470425950e-01
      -4.0919516463874739e-01 1.3446544204713746e+00
      7.3176932170795661e-01 5.9256491450855686e-01
      -4.6643155337069842e-01 -2.5380594510991195e+00
      9.0363648641871652e+00 3.4080282592025901e-01
      -2.5005971650210801e-01 1.2897716784293856e+00
      -3.7238079678102243e-01 1.3700475483306346e-01
      1.0830298067837831e+00 -4.0161148215503012e-01
      1.1435886663746890e+00 4.8367954180137218e+00
      4.7767871305776577e-01 -1.2676325659448529e+00
      1.0680731921364399e+00 5.0029474545957153e-01
      -7.8284021989062735e-01 3.6808733065458404e-01
      3.1304904334307948e-01 5.8130281592568400e-01
      -8.9624574223745856e-01 -1.9621156139180169e+00
      -6.5814074228616248e-01 9.8812060459333828e-01
      -8.1169088926368316e-01 -3.0276615256881776e-02
      -4.8393080238911385e-01 3.1204964024828336e-01
      -7.1492484906536158e-01 1.7400446202547535e+00
      1.5654046614840977e+00 -9.5267757937036102e-01
      -4.0797957270113354e+00 -1.1058002157501983e+00
      5.3422147541462095e-01 7.9416846208300962e-01
      1.5374587921979746e-01 -3.0336984177676110e+00
      6.5384036572993676e+00 5.5394559621825809e-02
      -5.2772580924625412e-01 -1.5163014798888580e-01
      7.8863403791947020e-02 1.1726461737223484e+00
      3.5604780829328058e+00 -4.2273288004012433e-01
      -2.6616664394153211e-01 7.9126429665178124e+00
      -1.4458244583521973e-01 -5.3169162358087080e-02
      -1.4521691573768254e+00 5.5824210999385508e+00
      -1.6306492528808634e+00 -1.8060326600885354e-01
      7.1835644602932569e-02 -1.5533315322896641e+00
      -3.8682224677468233e+00 -4.7788384647033286e+00
      2.5160453889132695e-01 2.3339676356019812e+00
      9.8765564626235469e-01 1.7890870789710718e+00
      2.8387046904378033e-01 1.1227095740229365e-01
      -2.1242334608333020e+00 1.0204322954889704e+00
      8.0831500818431901e-01 -1.6601854408608394e+00
      -1.8383170400083009e+00 -2.7903699675221789e+00
      1.0239484699164880e+00 6.4893938039166843e-01
      -6.3237598290822677e-02 -3.1201445824784608e+00
      1.1155515807048648e+01 -1.7550002000968612e-01
      -7.8218057886402098e-02 -1.1663601863903892e+00
      3.1817910754078282e-01 9.3642358045962160e-01
      4.6501646174667166e-01 6.9372777112324924e-01
      -1.6610491699646324e+00 9.7563353048903743e+00
      3.3370174016822411e+00 -3.6736558254537161e-01
      -7.0625968084169743e-01 1.7920136691009976e+00
      -2.8498157298942624e+00 1.8636539744191214e+00
      -1.2720905890539542e+00 -5.0145752279937978e+00
      -1.0490634314083428e+01 2.1393834034720061e+00
      -3.0447162150083901e-01 -5.0544205170165790e-01
      -6.3354436057796204e-01 -1.8173063057759749e+00
      -1.3915623646001879e-01 -1.1132287094790956e+00
      2.5935619583308467e-01 8.2720707777727009e-01
      1.2013425719569246e+00 -2.3355442545312428e+00
      -1.8059531141165592e+00 -3.5623787441589942e+00
      1.2804627308792000e+00 -2.4911608291373870e+00
      7.9806470047513078e-01 -1.8199244778692059e+00
      -5.9752069090116064e+00 -2.4441602898193082e+00
      2.6760129613677588e+00 -5.0945167611082487e-01
      -4.3487530147593584e-01 5.0372358977470921e-01
      5.6142434169931410e-01 4.9193285669957465e-01
      -7.5367697448137635e-02 4.6577892237982441e+00
      -5.0375590015933058e-01 2.3796358108638452e-01
      2.7359286975043893e+00 1.5886134690430074e+00
      -4.8252103249059823e+00 1.3820151833348298e+00
      -1.4224638941807830e+00 5.4015903797820131e-01
      -7.2909754772977244e+00 6.9923362645739795e+00
      1.3329304372558766e+00 -8.4886304095331588e-01
      -6.8088029621228041e-01 1.4896300578498534e+00
      -1.6179710903995432e+00 8.7303369422213772e-01
      -3.0778569358992285e+00 6.4176472747451097e-01
      -1.6198209357074793e+00 2.4240487126029853e-01
      8.6745709706285385e+00 7.8470310371585947e+00
      -8.6806312635257676e-01 3.8823507850003836e+00
      7.1731252308970139e-01 8.0031187914308088e-01
      -1.5509873664165903e+01 -6.8209849748362572e-01
      -3.9421372364234180e+00 -6.2409042975741646e-01
      1.5600683637638939e+00 1.1550490531358164e+00
      -9.8594694625175816e-01 9.7314284337527868e-01
      -9.5102400282182309e+00 -9.4101029123439108e+00
      -1.0189579541014382e+00 3.0244834074670277e+00
      7.1745260269438935e+00 -5.3664941356326834e-01
      -2.6607742629701520e-01 -1.3158898236563640e-01
      1.4718012918218946e+00 5.5386112599602844e-01
      6.2327695951606188e+00 -3.0302945294887276e+00
      7.2489733960112201e-01 -2.4116291447705715e-01
      -5.7290623395810965e+00 5.0491657004841395e+00
      2.5874715327058944e+00 -1.0800482265232947e+00
      -1.8548221240502547e+00 -3.6220394160944189e+00
      2.1224265525182956e-01 8.4044766414548311e-01
      -7.1070154882965619e+00 7.7078838549595474e+00
      -3.2863601799490516e-01 7.8848130268835899e+00
      -1.8974172542740102e+00 -1.1282774799402375e+00
      1.1451316764492716e+00 3.5352130309785013e+00
      -6.6225119905797456e+00 -1.1434484987799270e-01
      -2.2274376923142780e+00 -2.2185394690404485e+00
      1.6603664079385725e+00 -2.2302407258272949e+00
      -2.8365695753811244e+00 -2.2270722453974026e+00
      2.5876979417630280e-01 1.2308669663598766e+00
      -2.2940914659674050e+00 3.2774778004854856e+00
      -2.9210553105557753e+00 -2.1494105640981780e+00
      3.8320458669562754e-02 1.7162310094202804e+00
      7.2844357395697532e+00 -4.2814274149158535e+00
      7.1189073517430412e-01 6.8119806544130701e-01
      1.7799202562674519e+00 2.8563052604842358e+00
      2.9199106353534021e-01 5.4702770126316469e-01
      1.7266772504912922e+00 -3.4512197498719821e-01
      -5.0559004688772569e-01 6.0465750470269262e+00
      -2.6825907222196248e+00 4.1936883315331333e+00
      1.2882808631314699e+00 -4.5990226319123484e-01
      8.2642872928586608e-01 -5.9413462527999006e-01
      -4.3530067640226511e-01 -8.4573053598546655e-01
      1.0664617178475007e+00 -7.3760367835617169e-01
      3.9896375150352142e-01 3.9609162474705445e-01
      -1.4724636884548030e+00 8.0736672978326440e-01
      -1.1888618554873731e+00 -1.9638462848801101e+00
      2.4043635162144326e+00 3.8114574966136927e-01
      -1.4733668581848778e+00 5.5235366535653495e-02
      -8.6861493135705259e-01 8.5761647168029564e-01
      -1.2663837249264340e+00 -5.1070476007560373e-01
      9.8123576049501686e+00 -5.2236771781425544e+00
      -5.8204946335953289e-01 -4.2515407122698851e-01
      1.0168028938841669e+00 6.9401592803398646e+00
      -4.2309986230299925e+00 1.6640104356854097e+00
      3.8689729434792191e+00 -2.8189411017292261e+00
      -2.2773867062511219e+00 7.6667314114411189e+00
      -5.2873840408187487e+00 -9.1934610360396896e-01
      -2.0372937791243189e+00 4.5972566494155709e+00
      3.0248100266062385e+00 8.7278530669956140e+00
      -7.2413962984365972e+00 -9.0256046782895194e-01
      -1.4593242182166661e+00 -1.4799311651590510e+00
      3.1941557958825734e-01 2.8426124926349011e-01
      -3.8763383248835490e+00 4.9946021712917799e-01
      -1.1194225568978295e+00 5.4782826340528663e+00
      -2.3985547707379147e+00 -1.2586927757703084e-01
      -2.0863816014102081e+00 2.2243082301366384e+00
      -3.8657188412251307e+00 -1.5126800465767145e+00
      -1.1140387024914649e+00 -1.1205948031841351e+00
      1.2289823762659201e-01 -1.4187706699665933e+01
      8.1922811122300210e-01 -1.3208086920603204e+00
      -3.9735953310136601e-01 1.6060801139920962e+00
      -3.6503045126513611e+00 6.1261424256730868e-01
      -3.4463437600257238e+00 -3.7837766635744219e-01
      -1.3281291236566033e+00 1.7970724413489276e+00
      -8.4956895225306406e-01 -4.2606639071629795e+00
      1.0622341387645982e+00 4.6622273064225811e-01
      1.9460943164188469e+00 1.4768747599279735e+00
      1.6636116441479015e+01 3.5160844577129785e-01
      1.2050046476842153e+00 -2.7930727216469109e-01
      6.3143483914689569e-01 7.8648542837333768e-01
      -1.6228442780587811e+00 1.2300089189084571e+00
      -1.7511373460981170e+00 1.3150820134595975e+01
      -1.3774244716049773e+00 1.3679892806990841e+00
      -2.0365842460869907e+00 -2.3394537452745268e-01
      -3.1599261943030688e-01 -1.9068981391873168e+00
      7.1105745663117767e-02 -2.8257897696664100e+00
      -3.7159056054678496e-01 -6.6765134398129327e+00
      -4.1242412329339153e+00 -2.9960648786375703e+00
      -1.4316958511326734e+00 -2.7425084857033002e+00
      1.6609064101234139e+00 -1.8608076522831171e-01
      -1.4835389642886154e+00 4.7783552484737744e+00
      3.0469298147442698e+00 -4.9244018118098709e-01
      3.1268171788832162e+00 -4.1556417366404910e+00
      -3.1845307169224610e-02 -3.3726571130851761e+00
      -2.2342763670766264e+00 2.2558609288795775e+00
      1.5381881399979772e+01 -4.0500348185474673e+00
      7.6746655069292267e+00 2.5679153552667415e+00
      6.7063628776240991e-01 -1.5935987999954713e+00
      -1.4163533584199335e+00 -9.5870714944839441e-01
      1.2882886363251878e+00 3.9237133170810887e+00
      2.3482953091437473e+00 -4.3881207441587866e-01
      1.0299415874413105e+00 2.0177129777048721e+00
      1.7408736624550773e+01 -9.6815943274862715e-01
      2.1561350106887760e+00 -1.9448603650784837e+00
      1.8991741471140391e+00 -4.4519915112840431e+00
      1.0407857844848338e+00 1.8484894100158069e+00
      -2.2899402492964538e+00 3.3067803727408775e+00
      5.7484091935594774e+00 1.5697629094371155e+00
      7.0228590792085133e-01 9.9246225845136327e-01
      1.3529593571205440e+00 -1.8896451525643663e+00
      -7.3200901746351228e+00 -1.8660420017095596e+00
      1.7648690326514682e-01 -2.6515991233020078e+00
      7.7664895355248065e-01 9.7685929352945500e-01
      -1.5975665420428047e+00 -1.5636214180785886e+00
      -4.5765088651769057e+00 -1.8838672768375850e+00
      2.4736946124131358e+00 1.2771110062677178e+00
      -6.7471290389741967e-01 6.8976397518615706e-01
      -1.9644690939392132e-01 1.9580054369771613e+00
      5.4218086942737802e+00 5.7900638177874364e-01
      -1.4361209268282344e+00 2.9058037857140456e-01
      -3.0471860234771646e+00 9.9450928089582324e-01
      -1.5560585173169085e-02 -5.3191332362913657e-01
      1.8289208303767579e+00 -3.1391021567549235e+00
      -2.3626916406598824e+00 5.7312498295301753e+00
      5.7668191431428983e+00 2.2668039172142835e+00
      -3.2691471111217196e+00 1.1406387607464976e+00
      -1.2662819297892070e+00 -3.0803525958282130e-01
      -4.6760176680383925e-01 2.5279568900953406e+00
      1.4217552469079726e+00 -1.5320826806940752e-01
      1.3503836280336980e+00 4.5988998949112743e+00
      1.6729932768317497e+00 4.3898283274061054e+00
      -3.4437895357915300e+00 -1.1483543339793143e+00
      1.3953485364783252e-01 -1.3326841103189724e+00
      2.9520878479748260e+00 9.2109845075677665e-01
      -3.3795065232889310e+00 1.3924049321967642e+00
      -1.0529445291446589e+00 -5.6228100951181725e-01
      -3.5784995183066366e+00 9.8842375670389740e-02
      1.1272721191502222e+00 -9.1707428373621003e-01
      3.4987220119147788e-01 1.4803915576800104e+00
      -1.5704931413590819e+00 2.3121903266563104e-01
      -1.6247315939226778e-01 -7.6101465030190933e+00
      -7.8691146626990027e-01 5.1988726777206784e-01
      2.5288912001108432e+00 5.2419176762795439e-01
      9.0995783316296752e-01 6.4168715106828880e-02
      -2.3264662651423498e+00 4.0954996560273083e+00
      1.7647722609957426e+00 1.1521740771813063e+00
      2.2580667597363040e+00 -1.0418330496608113e+00
      1.2859232860275482e+00 3.4965826146998293e+00
      5.8883824419155717e-01 2.0420238957697410e+00
      2.4900957600873075e-01 -1.4704544298722848e+00
      1.2096115742700375e+00 -1.7819531794881147e+00
      1.1444291530739064e+00 1.0814770134845808e+00
      -7.7232446935979304e-01 1.3142058522606392e+00
      -2.5226894465451002e+00 -4.5065263489131346e-01
      4.3172259064432446e+00 1.0777300092991491e+00
      -2.4537769698457144e+00 4.9756901908354656e-01
      5.0130265246167782e-01 1.7717631834228200e+00
      -4.6931321109605309e-02 -7.1313516416546330e-01
      -1.5158658272269427e+00 -2.5670122657328087e+00
      1.5510168513066274e+00 1.3680124214265559e+00
      8.2790898559564263e-01 1.4736616030085317e+00
      -3.3049361058937312e+00 -3.5984963477874882e-01
      -4.8691413794490073e+00 3.5822708258865454e-01
      -1.0463112355882617e-01 2.7980735422178484e+00
      -1.1571104949403668e+00 -2.8219591138138429e+00
      -2.2602176268852725e+00 -4.0269863576387026e+00
      2.4665267064376009e+00 3.6331260937525691e+00
      -2.4909288627493331e+00 -1.2513379270690541e+00
      -2.3651536701959479e+00 -2.6968644093050327e+00
      9.6008553606884628e-01 9.1992521931702675e-01
      -1.8803195637966779e+00 1.7255388163290137e+00
      -4.1752515502730221e+00 3.3855432463128770e+00
      -1.4721560166860148e+00 4.1012301260278701e+00
      -1.1501161435068215e+00 -1.6926969157226563e+00
      1.3939623034287656e+00 -4.7751833889115485e+00
      -3.4285697391509018e+00 -2.1853865247363569e+00
      7.4611729687861506e-01 1.0672118334647589e+00
      3.4553919406408302e+00 -2.1285756310398360e+00
      -9.0528365173451797e-01 -1.0555739196173664e+00
      -2.9890395394585463e+00 -3.5381536961170457e+00
      -5.0564833459692231e+00 -6.6017094051084524e-01
      -5.1921046083090170e+00 9.0656359512924634e-01
      2.2741188414409122e-01 -6.1961505712597875e-01
      3.0441781316095642e+00 -3.0156725698866684e+00
      2.1644194615010965e+00 -8.8288908908298114e-01
      5.0228624051640280e-01 -3.9196938722035459e+00
      -2.1563736785133152e+00 -4.6177936682457972e+00
      -1.7873533077827913e-01 3.1632935017329129e+00
      -1.5015280336966190e+00 3.3156592321610008e+00
      -5.7429052053921525e-01 3.2758808683248928e+00
      -4.9932597182600373e+00 4.2016087672974782e+00
      -1.8189738333990400e+00 -3.1453227211696695e+00
      -7.0547654074749400e-01 -5.5773585364249536e+00
      -5.7271565706626957e-03 -1.0402736338306982e+00
      -2.9436737209881039e+00 -1.7956628288074252e+00
      3.0838213066003251e+00 -3.0516809705895986e+00
      -1.4259244947782859e+00 1.5208308711456844e+00
      5.0730906317164113e+00 5.9391695852899740e-01
      -1.9231183436653509e+00 -1.3834179427792517e+00
      1.1811862475465638e+00 -3.3273741383576945e+00
      -1.8202287287844441e+00 -4.8771226722930887e+00
      8.7852304857963459e-01 -6.8001574727470544e+00
      -3.0075929071420898e-01 1.4031801276900080e+00
      2.5384408012132273e+00 -4.0063005762851001e+00
      -2.7761787876092607e+00 -1.1358195679816241e+00
      4.3639727369573406e-01 3.0018961524394450e+00
      -1.4074314463225184e+00 2.4556248512309873e+00
      -1.1832613995223172e-01 1.4640619664598455e+00
      5.4260854647215739e-01 5.1427383433307890e-02
      -1.7725149967075136e+00 -6.5523296465783654e-01
      -7.5935572008802144e-01 5.8471577791946494e-01
      9.8357105039145865e-01 1.9618800238657219e-01
      7.0417183140091346e+00 4.7983750256219887e-01
      -7.8540185436858104e-02 4.9215303294103983e+00
      -8.1213110540684841e-01 3.4450107263942167e+00
      3.5743386083102182e+00 -1.5224333777408205e+00
      -1.1884202581399737e+00 9.7070636093600682e-01
      -1.7372493480609845e+00 -3.8510269329537374e+00
      -1.4249202184302445e+00 -4.5646354207685402e-01
      -4.7760190244911973e+00 6.2719016926405322e+00
      -1.2561282031490861e+00 -4.1778023538822850e+00
      1.5255858138588547e+00 -2.3601478115440955e+00
      -4.6295794922339759e+00 -1.5484658364981455e-02
      2.0235087430834597e+00 2.2938571829451009e+00
      1.2653034812427237e+00 1.8651262663039603e+00
      -6.2750677360261009e-01 -1.1417919110253956e+00
      5.5735438029356814e+00 3.4580467538718307e+00
      -2.4775436709393239e+00 5.1336787844793417e+00
      8.8175076284421516e-01 -1.4303849028317548e+00
      3.1029254430067681e+00 1.6146274396746154e+00
      4.2439430648562961e+00 -4.7526418389679881e+00
      -2.5692690518554091e+00 2.0008235935645975e+00
      2.4963235994404784e+00 2.9536697127277973e+00
      -1.2017412463981139e+00 -4.1006574265713684e+00
      3.0737157089611946e+00 4.1027250552062577e+00
      3.2655596519402157e+00 -5.4938830240364633e-01
      3.6257809553663722e-01 2.7989138161095144e+00
      1.1433960322174157e-01 7.4646250464741133e+00
      -3.8819423375533537e+00 -4.2839958529112349e-01
      9.1257534397938567e-01 -1.7611811246711301e-01
      -2.7319627967119002e+00 3.8910967888846415e-01
      -8.3935534656152400e-01 6.0650487741679171e-01
      3.8054669545945663e-02 -6.0791599802218738e-02
      -3.2640876346369216e+00 -1.3680851377489982e+00
      4.7937309279547169e-01 3.7493375986882294e-01
      -9.1399340775064875e-01 -1.3505977619340273e+00
      -6.7415320342667201e-02 -7.2539377275008837e-02
      6.5878404506924304e-01 -1.5215542903896382e+00
      8.5485402037736113e-01 -1.1627110248032633e+00
      -2.6439487983112744e+00 1.7019948127460838e+00
      -6.3557390314965045e-01 2.2404336404557812e+00
      6.3402872860262061e-01 -9.1918898870237631e-01
      -1.7775485294542320e-01 1.9676655610825189e+00
      4.6183808156078987e+00 6.4732677002351402e-01
      -2.1051722749611110e-01 2.5754211050505278e+00
      -6.0837267002661939e+00 3.4177980311189132e-01
      -4.3148907197073783e+00 8.0575487164815718e-01
      -4.6795242689576633e-01 -2.0645564769487458e-02
      -1.4400440539738459e+00 1.9041372991725394e-01
      1.1613321476253786e+00 9.0952718208116889e-01
      -2.1683848420557701e+00 1.8619826558675825e-01
      -1.0462085968123396e+00 -1.5743672481660786e+00
      2.2208621320897373e+00 3.3284845471497926e-01
      -2.1244507218957414e+00 -6.7942392201835999e-01
      1.4376748928260004e+00 3.9791913762898490e-01
      8.9652855985723778e-01 -5.2532423410666595e+00
      6.3250954964825619e+00 -6.0236331173246327e-01
      1.5749988014949503e+00 2.7138467897960816e+00
      -1.6514593943310864e-02 8.8041792035522837e-01
      2.6077907520346524e+00 1.8210409167972499e-01
      -3.3988596975339180e-01 -1.1943691287632378e-01
      -8.2963293541221039e-01 -1.1580940465134928e+00
      -2.9407179315324194e+00 2.0120695077962381e-01
      -2.4707739462642069e+00 -4.4239249715578337e+00
      -1.6252030807499004e-01 2.6431919154193801e+00
      -1.0803140596377694e+00 -2.1535494122053794e-01
      -3.2600447558901311e+00 -1.1624290911677358e-01
      8.1584448955019651e-01 -3.2748369712994513e-01
      -1.3209619688787908e+00 -1.2849552775213929e-01
      1.9800925016320796e+00 3.5085473488032948e+00
      1.3117225439667981e+00 -3.3670249499110336e+00
      -2.9269211909538315e+00 -6.7527061926343201e-01
      -8.5007874852501448e+00 6.1674458576798674e-01
      -3.8948955083221808e+00 2.4155334060494216e+00
      -3.3859948792146373e+00 -1.8127068659198378e+00
      2.9930029943525471e+00 -2.7151643579649836e+00
      4.6312716773369317e-01 4.2493694347684940e-01
      -2.0726955401504972e+00 -2.3315673666086405e+00
      -2.0907236212764202e+00 5.8281688774380107e-02
      -3.6414249288734908e+00 -1.8660783782465109e+00
      -1.6939292801563154e-02 -4.3666169345831074e+00
      -4.4269450176214659e-01 -3.1630330676245015e+00
      2.8044314265950181e+00 -4.0530508619039818e-01
      4.6184466199176857e+00 -5.8361611975613528e+00
      -2.7734866301693653e+00 -4.0758051595692093e+00
      2.1456222994956740e+00 4.4494433186064111e+00
      -1.6012697706709933e+00 4.9336689103347222e+00
      -1.2978309921140216e+00 1.9960697214425365e+00
      -1.8485295273884474e+00 3.7512247998292163e+00
      -1.9290872726388195e+00 -4.7362323823662340e+00
      7.4961773729075176e-01 -2.9323847717387186e+00
      -2.2414478715925883e+00 1.5389840142971343e+00
      -3.6437722307100482e+00 7.2678148060501746e+00
      6.8750876376194606e-02 -1.1334564235158549e-01
      -9.1238534038418417e-01 -6.5209544684418896e-01
      -2.9970796263411614e+00 -6.7927883934323552e-01
      2.4367368803850549e+00 5.9472261398272130e-01
      -1.1245797637724491e+00 -4.0917741961550771e+00
      2.7415455221431113e+00 -4.3241539420982029e+00
      4.7455045647965983e+00 -5.0537994071870351e-01
      4.6910933185105030e-01 -2.9944065934965125e+00
      1.0944322991980562e+00 -1.3908436794217938e+00
      -9.9019233788757333e-01 8.6990476640373138e-01
      -8.1061310189054589e-02 1.3594039511586835e+00
      -2.4870468056274730e+00 1.0924491103148115e+00
      1.0962564710163918e+00 -1.0801170303427108e+00
      3.7676876417104643e-01 4.3505923727705929e+00
      -2.1243544894305125e-01 7.4716652525474103e-01
      8.3396691679380585e-03 -5.8742032736847416e-01
      -4.9182395368779241e+00 -6.6384690218794795e-01
      -5.0559735007268296e+00 -1.1420138170183858e+00
      -2.4811029051410227e-01 -4.1239249709133992e+00
      -2.2863841864928608e-01 -1.9945969891660795e+00
      -3.8273336716538164e+00 -7.0736108932840047e-01
      2.9332424683719438e+00 -9.6783666822092307e-01
      -8.8383339067254441e-01 -7.2598042724912576e-02
      3.6933738193040000e+00 -1.5981120298348432e+00
      3.3482833437140385e+00 -6.4497893926675181e+00
      5.3115167636803449e+00 6.7466761991554297e-02
      8.3811181362340292e+00 1.2971067272930477e+00
      -1.4559894996343042e-01 -2.6879072015282408e+00
      -8.5810816700561698e-01 4.6046945341446988e-02
      -1.0722565383236833e-02 1.8977891284473181e-03
      -1.1793825314953184e+00 1.1309148623777914e+00
      -5.2527980562371512e+00 2.8744983392260983e+00
      4.6423122422141150e+00 1.5693739117937355e+00
      -1.8268654747533606e+00 -4.9598908496403171e-01
      -1.3781091901212534e+00 -1.8479191595011857e+00
      -1.1366892256352061e+00 4.2849021436956205e+00
      3.9024165535651917e-01 -1.1803627700217483e+00
      -4.5099709371204701e+00 -3.1149460649868659e+00
      -1.2095665626650387e+00 7.1286647135511583e-01
      -1.8258790890933763e+00 -1.6323993867143742e+00
      4.3192856985230610e-01 -2.5760253289215753e+00
      3.4950605867550038e+00 -4.2790062315468891e+00
      1.2447499107135485e+00 -7.6493929960603548e+00
      3.6024793916909452e+00 1.5525172264821194e-01
      3.3436837160738193e+00 -3.5035910979168128e-01
      9.6725462500315351e-01 -1.6402719272230301e-01
      2.5146182797304095e-01 3.9873714427196111e-01
      -9.7734144939206669e-01 -1.6273896160214141e-01
      -2.0456083669109861e+00 1.7708416295902392e+00
      -1.2865653194434550e+00 -1.8330034354072136e+00
      3.1001557603629326e+00 2.9103022335445616e+00
      -3.1793319723509578e-01 1.2778212626447081e+00
      2.8494076123272953e+00 -5.0516133151129141e+00
      1.8605141511659296e+00 -4.0202959468017002e-01
      -1.8161135492508311e+00 -8.1881480742032409e-01
      -3.0500876473877414e-01 1.7204669384450180e+00
      -2.0504600850452550e+00 1.6373219958540033e+00
      -1.2425173875275954e+00 5.4040866462552267e-02
      1.7508964297334431e+00 -6.1225249844827168e-01
      -3.8326550312345509e-01 1.5387241846350228e+00
      4.2638435369661176e-01 -3.3427640124457723e+00
      3.7082328951369836e-01 3.5495780212269112e+00
      -2.7227917596105429e+00 -2.9391873367306474e+00
      -7.0003903567793668e-01 -1.5462822659765050e+00
      1.0657056175231969e+00 1.4817837046701656e+00
      -1.3301838751097923e+00 1.6206948840657085e+00
      -4.4968018245564956e+00 4.2855362756643158e+00
      -9.5224585349144242e-02 -1.8302625125179619e+00
      1.0651280732226525e+00 3.1271426478477404e+00
      -3.3043185416866865e+00 -3.2630449767627490e-01
      -5.7487160389660641e-01 -4.9556256694694484e-01
      -3.3452875098147867e+00 -5.5802442360880089e-01
      -3.8747753005561059e+00 5.3600420230514068e-01
      -3.9106453348249098e-01 -1.2970071873961562e+00
      4.5298859551377017e-02 1.0983662471865510e+00
      -1.1197016673197784e+00 1.9073054339265620e+00
      3.3923358689820717e+00 -4.0770636718753589e-01
      1.9687692186222669e-01 3.6848488693037268e-01
      -2.5505614062636401e+00 -1.1906507139350766e+00
      3.7064435616705993e-01 4.6635896000307109e-01
      6.1653817487038705e+00 2.8399513038514539e+00
      4.3155979273849940e+00 -5.4197123531853952e-01
      7.5068416835138929e-01 -1.8809640966049701e+00
      -2.1481793966064444e+00 -8.5492035478164374e-01
      1.0933390853414731e+00 6.6160960869326377e+00
      -7.9485697374612485e-01 4.1561629131206237e+00
      5.1707793354151832e+00 1.7562256492037909e-01
      -5.3661591624137785e-02 4.8898495439904559e-03
      -1.1091386199941982e+00 -1.8024953409823288e+00
      9.0802381791122819e+00 -1.2288957957206879e+01
      -7.1313811049337483e-01 2.4689542631954593e+00
      3.0958554653866338e-01 -1.1398535504125267e+00
      5.4843317931426161e-01 1.0151492941977287e+00
      -3.3827097590784669e+00 -1.4375126486721962e-01
      -1.9533573725414033e+00 -1.3629655263582379e+00
      -3.7961065915498935e+00 -5.8632104981857376e+00
      -1.1292714861851707e+00 2.6933640208080512e+00
      -2.9249563629554309e+00 9.6715403625147633e-02
      6.9413994645685895e+00 2.2712023037823609e-01
      7.9707816567360601e-01 -2.0493752890971177e+00
      1.2421993996710543e+00 -3.1146566558540667e-01
      -2.6016990119654579e+00 2.1450279727324308e+00
      2.0850688798380482e-01 8.6354116294414904e+00
      -1.4209527530719641e+00 3.0536364934245506e+00
      -3.0355325326034266e+00 -1.6456281016359211e+00
      6.0498205707082209e-01 -1.7131999862505309e+00
      -1.1229862489425451e+00 5.5103831613479393e-01
      1.9459869141684616e-01 2.9009163530303090e+00
      -9.0936912783230506e-01 -5.1771279796335028e+00
      -1.2091504451653481e+00 -2.0102111135423657e+00
      -1.5292410781129968e+00 7.7406454062212926e-01
      -2.1909723158563419e+00 1.3557666669534838e+00
      -5.1281687817203347e-01 -3.6996471273824222e-01
      -7.2034610027279733e-01 -2.6698585162519910e+00
      2.6675256466246128e-01 -4.7523580375192047e+00
      1.9809691157134235e+00 -2.4214238125899188e+00
      3.9558174299416371e+00 -1.2404618311504108e+00
      2.2437062507599652e+00 -6.4127299137771254e-01
      -3.5158153743861265e-01 2.5312953850082981e-01
      -1.8799827588244313e+00 2.6702903888354446e-01
      8.0366224747673209e-01 3.8714965011203666e+00
      -4.5699991421179927e-03 1.2731030755193800e+00
      2.4492327160998144e+00 3.5643605490519117e+00
      9.4920064090892120e-01 3.4135466328580222e-01
      -6.8187036965453873e-01 -3.0213693237950101e-01
      1.5534912509227802e-01 -1.3294250423288592e+00
      6.3860603708733565e-01 4.0997123565351146e-01
      2.8260553408801803e+00 1.4235150497414095e+00
      -3.4845241573197381e+00 9.6286517544625116e-01
      -2.2069161960709418e+00 -6.4905608447139509e-02
      -2.2066831690723583e+00 1.2220821871571073e+00
      7.4360401334821180e-01 -7.0268604148453839e-01
      -5.9640583804347147e-01 5.4422003030843946e-01
      -4.1869828889487665e-01 2.5057758365987426e+00
      -2.3656639849583705e+00 -1.6346695103886131e+00
      -4.7931810348035930e-01 -1.4741787780911035e+00
      1.6515688410502412e+00 1.4486345539001320e+00
      -1.3489157505944407e+00 -1.0539631879821237e-01
      -7.6728907854969752e-01 1.5728119492105801e+00
      3.5624749653175170e-01 6.1493414207469188e-01
      4.4778191777108546e-02 -8.8683662134490401e-02
      9.8793556132204441e-01 1.0568540952980032e+00
      1.6210285078067459e+00 -1.7184702975530824e-01
      -9.1099684711342199e+00 7.9525831328246943e-01
      -3.7657754183959411e+00 5.1138598426141046e-01
      2.9770377532119356e+00 -5.0669363654608048e+00
      -3.8593633163034979e-01 3.8032086509421104e-01
      3.3302585684577152e-01 1.3151016176664319e+00
      4.5363949631816949e+00 1.2233704425632981e+00
      2.3789972552718901e-02 -8.9105094800212170e-01
      6.9069787586608045e-01 -5.9005696777187584e+00
      3.6146553994973452e-01 1.6795962650391840e+00
      4.2269019996643536e-01 1.2957104592040145e+00
      7.1036698358116075e+00 -6.4892430459961847e-01
      9.1417506567651274e-01 2.1348110366091172e-01
      1.4303089000471452e+00 7.3691249975757678e-01
      5.5469210785718781e-01 4.1557224019933720e-01
      9.8330679865134929e-01 5.1452566209333135e+00
      1.6360543121141828e+00 8.9592065280215460e-01
      1.1432659755607772e+00 -4.7904869771269498e-01
      5.5209646786388056e-01 -6.8281513890864058e+00
      7.2207856489220310e+00 -2.3633528373584594e+00
      -3.0915658865757916e+00 -7.1113725535434336e-01
      2.8393730337591658e+00 5.2477081951475979e+00
      3.1324147040644559e+00 2.2764559966542536e-01
      8.8605541705438673e-01 1.1190386268617558e+00
      4.0788039907412665e+00 3.1035591050840283e+00
      -6.3940728789314729e+00 8.4493906703808042e-01
      -1.4484365003080434e-02 4.8811707075601953e+00
      -1.2256032957569700e+00 -2.3990945153671697e+00
      7.8538928985197920e-01 -3.1187153157979410e+00
      -4.7648818600087992e+00 8.0949635229999983e-01
      4.1097961986735942e+00 2.5110708474458412e+00
      -1.6493821025899407e+00 2.2304584901258280e+00
      -2.1589296896625005e+00 -1.6687152286267282e+00
      7.4548909670154284e-01 1.3200244694776135e+00
      -3.3674035011310806e+00 -3.3428926917100101e+00
      -1.0724783114887616e+01 -4.1406729688751467e+00</_>
    <_>
      -1.1859056864811868e+00 -2.0402266883958688e+00
      2.0288048520188182e+00 -7.0974985401965951e-01
      1.2656470578301116e+00 -7.6591244388212998e-01
      -5.8945925836445294e+00 1.5245155439416822e+00
      -8.4600828990882848e-01 -1.6730620493102693e+00
      -8.5081743709151303e-01 -5.0285388649525542e+00
      -1.2531003723162222e+00 6.7068764953983813e+00
      5.2784509628473897e-01 -1.8668941984044312e+00
      -1.5345855037857592e+00 4.0153007921456823e+00
      1.1977669102508779e+00 -5.7486242379579511e-01
      2.1985939066630220e-01 -4.4270684890310905e+00
      7.4033998676123760e+00 -4.6692425095970369e-01
      -6.2592959235982415e-01 4.3506839333819523e+00
      1.0358361360816390e+00 -2.2380001427589176e+00
      -2.4953215818531639e-02 -2.5548187395211848e+00
      -3.3597957789923014e+00 2.1970517252328912e+00
      -2.4764640280078365e+00 7.5710497425311574e-01
      3.2960073167180082e+00 1.4552879865055033e+00
      2.1790456795719231e+00 -1.9886973015229614e+00
      -5.5822604965428253e+00 3.0438159049918972e-01
      -1.8113000753035950e+00 8.0209774786282562e-01
      1.5688443049297089e+00 6.0900753024832079e+00
      4.8353200061647117e+00 -9.5764581125254333e-01
      6.9134428575318640e-01 -1.5821601324264567e+00
      -1.8568411846419808e-01 1.0749496293340333e-01
      7.8288215943949346e+00 1.2996234724017479e+00
      -6.4736717348198344e-02 5.6594884836874315e-01
      4.1102163631136008e+00 1.1884336234443136e+00
      7.1055647404963262e-01 1.2048796816326202e+00
      9.8336994770963237e-01 -2.6993161702191180e+00
      -5.9183067591829852e-01 -4.6834020018460798e+00
      3.1911523118853493e+00 2.5229240873376533e+00
      -8.3971519538015880e+00 5.6509873674266096e-02
      1.6420986245952367e+00 -3.6221540737397331e+00
      2.2564282646557179e+00 -3.5855148718138072e+00
      5.8023476711331288e+00 -6.5159872570372934e-01
      -7.1920990843190706e+00 -1.0053929744807141e-01
      2.5874212588192952e-01 -2.5207138565451155e+00
      -6.2035945701464458e-02 2.0362921460076775e+00
      5.2819889437855916e-01 1.1421781563135061e+00
      2.0875485325522254e+00 -7.0629618929147386e-01
      -4.3656557323365608e-01 -9.0694028228268699e-03
      1.0173800890101847e+00 -2.5902782779777467e-01
      3.0009956737330850e+00 -1.4993039841295228e+00
      -2.7128839589889306e+00 4.1657479426913131e+00
      -1.5951891068613125e-01 -2.4943011823959751e-01
      1.5294945785489062e+00 -1.7411147374719296e+00
      4.2899499328916697e+00 -3.9818092529151143e+00
      -1.1451246341689771e+00 8.5380013952081999e+00
      1.2379185978359401e-01 -3.8972635736298761e-01
      7.9745073931111889e+00 1.8884399627152311e+00
      -6.6981361430750563e-01 5.8887571708606778e-01
      5.4471070150167895e+00 -2.4105354330865612e+00
      1.2669925497131711e+00 4.4480365798087984e+00
      3.1474420987871832e-01 -3.9412838309124210e+00
      -1.6834491239818010e+00 -9.9551077983505454e-01
      1.9384949284659867e+00 3.0921847453400928e+00
      -3.6134717762501229e+00 -4.8985565954580172e+00
      1.3523703152218207e+00 -3.8153318437942207e-01
      5.6878743939918301e+00 -4.5164656011255842e+00
      4.3313626540406158e+00 -4.8687682010767774e-01
      -4.0137815052146335e+00 -8.3539936730507824e-01
      -9.6861262157916031e-02 4.0075228660358464e+00
      -1.4927688744145020e+00 1.9209912675720748e+00
      -1.0682361334593999e+00 9.7165221351248099e-01
      9.7755473061816511e-01 1.0622385746496565e+00
      1.9498988850974812e+00 2.9654301103313615e-03
      -9.4084243015082070e-01 -1.5564284310104530e+00
      -8.6951399668077709e+00 2.6005721088760860e+00
      4.0639639818287669e+00 -5.8321627705997647e-01
      -1.4421648461615801e+00 7.0361038639344420e-01
      -1.1967344348610578e+00 4.4121579977354504e+00
      -2.7656565666332535e+00 3.1735940377874510e+00
      -7.2434821903093527e-01 3.6312119551063935e+00
      6.9531641250063270e-01 2.2366718570376704e-01
      3.6699651113313712e+00 -1.7768283523259806e-01
      7.8349012454315248e-01 -1.0212151233030013e+00
      -7.9377406818924801e-01 6.9887878117660307e-01
      5.0071858397897417e-01 1.2953744840666621e+00
      7.9981999664420966e-01 -8.7217458314750551e-01
      -1.0285944043253317e+00 -4.3249586479397824e+00
      2.7886047744192752e+00 5.5868144910126665e+00
      2.3624268359168941e+00 -1.8865707304334167e+00
      4.4184233785444155e-01 -7.6912675637967187e-01
      5.2475204239451689e-01 -4.5332398381518173e+00
      -3.2245312901938479e+00 2.2572028210533155e+00
      3.5847821604132233e+00 4.2881251813118693e-01
      1.2845959614572983e-01 5.5210793473681082e-02
      3.3667876280351661e+00 -9.8119046513523711e-01
      1.4204856736529679e+00 1.0501385096382894e+01
      1.3742859699172179e+00 -1.9320835999855690e+00
      1.7333507801731589e+00 8.4582384773824015e-01
      -3.0924882643158074e+00 -1.5268902201350909e+00
      -1.8779119979417012e+00 5.4403097052143163e+00
      4.0383045099773751e+00 -6.9326639644683281e+00
      9.8704049932520155e-01 1.8879976286485661e-01
      -5.1322570508442205e+00 3.4637393667723471e+00
      -1.5594873145119875e-01 8.1447966736228068e+00
      -1.9803338521630362e-01 6.7650888837047063e+00
      2.6017083839300409e-01 -4.2388573550481187e-02
      1.9243113335630628e+00 3.4869463215418071e+00
      8.3322584628793084e-01 4.2119698636905810e-02
      2.4910484114958481e-01 3.9487814870657374e+00
      1.2282883815769199e-01 3.5865285775506242e+00
      -1.0272552421627394e+00 -4.1518786098728988e+00
      2.8555004814069513e+00 2.8429703914333424e+00
      3.1069174359136698e+00 1.9917747026466499e+00
      -3.9177111289089819e+00 2.1084455920119392e+00
      -4.0218651515617726e-01 3.1355493981107205e+00
      2.9344816748063614e+00 -6.0053681495607574e+00
      3.9661878750145965e+00 6.7726217780184628e-01
      3.3998000548919474e+00 5.2568387321917293e-02
      2.0089501927258880e-02 -4.4962051489494215e+00
      -1.0729151520322517e+00 -1.1490669297972356e+00
      -7.7471128553067203e-01 3.1256534632735629e+00
      1.8465167384754921e+00 -1.0587196644340446e+00
      2.8538003241216141e+00 -7.8801815154914856e-01
      -2.1613260218119379e+00 -2.1029332625069306e+00
      9.7538185716996706e-01 -1.6348977909727502e+00
      1.0157501126536281e+00 -3.7680192416349754e+00
      -9.8301176032572254e-02 -1.9583708179508239e+00
      2.9268055709627605e+00 -5.4274268518934510e-01
      -3.4950043204440511e+00 3.3923606008625731e+00
      -2.0706823758085371e-01 -4.4013178097396644e+00
      -7.5829508396442113e-01 -1.5332195527948211e-01
      4.2737913196563326e+00 -1.9975493978987002e+00
      1.8039365930027882e+00 -8.3934294178920887e-01
      -1.7811885026234724e+00 5.1890482492295309e-01
      -4.1697573810145263e+00 -1.8558819021113628e+00
      1.3762332148805703e-02 7.5749262784519455e-01
      1.3252427932721962e+00 -3.0587831770164091e+00
      1.6937698399329950e+00 1.7261120628161870e+00
      -2.6678012836153447e-01 2.8099154391611361e+00
      -4.3725322048823605e+00 -3.1296196762788124e+00
      -3.3409878016264920e+00 3.7045309255036987e+00
      -5.1123081260004388e-01 1.4843571379384524e+00
      3.8180810489574175e+00 -1.3962538162257700e-02
      -3.7517681990965163e-01 -2.0620911753146989e+00
      3.4573445090374605e-01 1.2390630246833210e+00
      1.3055164149869536e-01 -2.1590869417751430e+00
      -1.6139234727423992e+00 1.8713864105371887e+00
      -1.6331634258542462e+00 -4.1540179116629111e-01
      4.6328511529408791e+00 4.7850152975795551e-01
      -5.1030354972466361e+00 -2.2234748271035540e+00
      5.8138832738084012e-01 3.4127749551894317e+00
      -1.3307213398510293e-01 5.6343185996409961e-01
      -4.7420011035948102e+00 -1.5183285929329740e-01
      -8.4335320130156288e-01 -1.1629278811643917e+00
      1.6450550407781445e-01 7.1811325639001193e+00
      -6.6588946230662888e-02 -1.7697591160835707e-01
      -6.8281540098367719e+00 1.6190305120948720e+00
      3.6694863237055659e+00 2.7052865930061026e-01
      -1.5225335484165792e+00 3.9828984909479290e+00
      1.9032630700703526e+00 -7.9565209413031801e-01
      3.8697949859761144e-01 1.3862246973838397e+00
      -1.3351633040447302e+00 -8.0626830137057084e+00
      9.9139157244505416e-01 -3.2789923092164819e+00
      -1.4045473020376005e+00 7.8224842429728558e-01
      -2.2795603710965202e+00 -1.1099213060564239e+00
      -6.8478825795209950e+00 1.1500049416133875e+00
      -1.1851941109898554e+00 1.9083143993609302e+00
      8.5179140469981185e+00 -2.1006196587156745e-01
      -3.4410783780583665e-01 -2.6920058902466035e+00
      1.1036214458235849e-01 6.9798361132386733e-01
      -5.3866560721820567e-01 1.6813951467805595e+00
      5.5360432009824634e-01 2.6628517976470145e-01
      1.3788552606889277e+00 -2.9196586886037107e-01
      -2.3077729671847829e+00 8.8983381418471741e-01
      -5.4437019335813375e+00 1.0310550775042486e+00
      1.4695591425057590e+00 -1.1152348448083853e+00
      9.1485712863240554e-01 3.6517081913610111e-01
      -1.8454444006104362e+00 -9.0299332839108148e-01
      -2.8018254849916930e+00 -1.1514029830210388e+00
      -4.7932307404420788e-01 4.9970822216349040e+00
      -2.7644069839078358e+00 -6.7206548455365289e-01
      -8.7778538773259758e+00 -1.7337373565266367e+00
      -4.1469830261660521e+00 -1.3708029179410139e+00
      -4.9950264887217504e+00 -1.0880197271118655e+00
      1.4026573333698085e+00 -1.1054405270499861e+00
      2.7579540017920462e-01 8.4379609822053459e-01
      4.0213759488285997e-02 3.4205526164837825e+00
      -2.6489155788448970e+00 -9.3480505110129919e-01
      4.8315258573650279e+00 -6.4486612945593005e-02
      -4.1888592459335969e-03 7.0440713045836978e-01
      -2.6060657801983718e+00 2.5036677417871815e+00
      -7.2714425527736042e+00 1.7700447152625103e+00
      5.3657705179072757e+00 7.0154766723405232e-02
      -7.9987439822310891e-01 -6.4917741077198761e+00
      -1.2155635878606101e+00 -3.0600548849596604e-01
      -4.8666144483779616e-01 -2.3922357613339216e+00
      4.0158901973227093e-02 2.2344712001938799e-02
      -1.5827572703879503e-01 -1.1325933311667702e+00
      1.1840715349791544e+00 -1.2780308190672929e+00
      -4.0514498624603217e+00 1.9528637573041716e+00
      9.4999106803980482e-01 5.7022983867281496e-01
      -2.9223964163117415e+00 5.1240542832761238e-01
      -1.8037549391645049e+00 -3.6872180909866055e+00
      -2.4434576417075351e+00 -2.5644168553576869e+00
      1.1575654755557931e-01 7.8466130149615654e-01
      -1.2740662162934084e+00 -4.1946152857935920e-01
      -3.7680517549905185e-01 1.2066484996789741e+00
      -2.2130973389856012e+00 1.2526334075212091e+00
      -6.3541021412658676e+00 -2.1906122463351623e+00
      1.0261278802273233e+00 -1.3801904588337486e+00
      -1.0548340697238023e+00 1.6223384542985748e+00
      2.3390730559543726e+00 -2.5398974599549828e+00
      -7.9582949778086609e-01 4.0941312060449073e+00
      3.5841852357387185e+00 4.0940855163740963e-01
      1.4200334461495121e+00 -4.7445657211995256e+00
      -2.2553171543378445e+00 2.3297266263802969e+00
      -2.0696510841604292e+00 1.1378676047745206e+00
      -7.2005576008653085e+00 7.8594643871065462e-02
      -1.0474184072508138e-02 1.4137736640728198e+00
      -5.9546486472412152e-01 3.8386160295684961e+00
      6.6612842755106039e-01 6.4347863828106322e-01
      -5.3736441054022421e-01 7.6045382148221641e-01
      1.5065078694499439e+00 -7.6430667504428595e-01
      2.3224062630807469e+00 -5.3587373958397333e-01
      -7.0345487911485449e+00 3.1488736764529608e+00
      4.3794073466115835e+00 4.2077696155703102e+00
      1.8099075500467512e+00 -1.8073142105555620e+00
      -5.2986115936549227e+00 1.1509240189739856e+00
      -4.4128574873376678e+00 3.5617383632003813e-01
      -1.7647712040184108e-01 8.2562180061245112e+00
      -1.3574139473720941e+00 -1.2902416196329608e-01
      -3.0124831685193770e-01 1.3242538370406041e+00
      -3.6173155638712866e+00 1.0738419796310250e+00
      -2.9368098175589781e+00 5.0874136147662075e-01
      2.7116631833745686e+00 -2.3033139740073771e+00
      2.3029028181905731e-01 2.2446973089699820e+00
      -9.2311150833194577e-01 7.7010173001867681e+00
      1.8785770036996514e+00 -3.5969287586446943e+00
      -5.9642121830958272e-01 -3.5643468195152268e+00
      2.0914005236227511e+00 -1.3300376949848531e+00
      -1.6811158222129168e+00 2.0472320357870908e+00
      -8.7613963709139897e-01 -7.9333855150898314e-01
      -7.5265090203503755e+00 8.2195787265679399e-01
      8.7447427939910527e-01 -1.2062268120563637e+00
      -1.5643992520969228e+00 3.5431605462568724e-02
      -3.9822012596522682e-01 2.8638237700784273e+00
      3.0556498346762493e+00 -8.0567590957042601e-01
      -1.0638665399707983e+00 2.8879179903138591e-01
      -6.5507638773101429e-01 -3.1331485510655530e+00
      -5.0691327493068785e+00 1.3877316921363334e+00
      -1.1752202861623011e+00 -1.1453954890797700e+00
      -1.6865701455112190e+00 2.9747765899127609e-01
      2.7191356565688922e+00 -9.9455176957285374e-01
      -7.3629388565304654e-01 -1.0259276091740607e-01
      -1.6958289933399417e+00 -4.2829287547793822e+00
      1.1827454808152429e+00 -2.5303429637778396e-01
      2.5580018417004591e+00 -1.3566873362886792e-01
      -1.3896683667375109e+00 -3.6387495480509136e-01
      -3.8108679068745204e+00 1.0288728603538821e+00
      7.4365248661239891e-01 1.1926916498530007e+00
      -1.9622762655809700e-01 -1.0392222773858186e+00
      -1.2841643733582961e+00 3.2184373332458343e+00
      -5.2478939921801837e-01 -2.1547959158798469e-01
      -2.8412075724414496e+00 -1.6930811480231513e+00
      1.2733002410624712e+00 1.1037054203869507e+00
      3.3760672789142676e-01 -3.8555720842723135e-01
      3.2741118259931938e+00 3.6380594434274849e-01
      -9.8073217408247544e+00 -1.1208444899627351e-01
      1.8582066897962382e-01 -2.9229538905336367e+00
      -2.1857079300357025e+00 7.0716246374486991e-01
      -2.2437711430924216e+00 2.3541275908040071e-01
      -1.9304382551070498e+00 2.8211033462925866e-01
      -5.9234766529649063e-01 -1.9827640019094239e+00
      -1.2205254283396254e+00 -1.6273986953167010e+00
      -1.7570538999132850e+00 -8.8258341333308510e-01
      -2.9813471099558271e+00 1.9556802646437434e+00
      -6.6439673454904230e-02 -1.2006023861855182e+00
      -3.7753846222391765e+00 -5.7511543892681143e+00
      2.0945444499908805e+00 -2.6572022458921185e+00
      -2.4315367460191797e+00 -8.5040542105418490e-02
      -1.7893867281673181e+00 -2.5732183715399812e+00
      -4.1093830841194325e+00 -1.1000467400862211e+00
      1.2112068734347525e+00 -1.2314247830287439e+00
      -3.5225718608936232e+00 -2.6659446915240079e+00
      -1.6938564877506590e+00 -2.7901029612765678e+00
      -7.2924407819632642e-01 1.4771052866474670e+00
      5.8064233943006582e-01 5.0632673154733494e+00
      -4.6734445839149172e+00 -6.2110256780288653e+00
      1.6315313471887012e+00 -3.9855412559771868e-02
      -2.2405129852429644e+00 3.5195220946904753e+00
      -4.3342762720507357e+00 1.4140233523913091e+00
      -1.4944684571488458e+00 -2.2890295999294188e+00
      -4.2764769008937638e+00 -4.2078843138475186e-01
      -5.8693352727619974e-01 -3.0130734688362355e+00
      -2.2386679435871804e+00 6.0290583464620406e-01
      3.2575691235721821e-02 -3.0601501181109325e-01
      -6.0549047677327872e-01 -1.9381637516448018e+00
      3.0123997330188002e-01 -1.4501727308417849e+00
      3.7366736834501556e-02 -2.0334033322222052e+00
      -8.2806513744365233e+00 -1.5967782639466834e+00
      1.9761006564492143e+00 -2.2891583981695725e+00
      -1.1721458357181072e+00 -1.3634028030908045e+00
      -2.7414336604020031e+00 -2.4494657607286769e+00
      1.1483941670477953e+00 1.7434717229483960e+00
      -1.4541235083249291e+00 3.1560586488685938e+00
      -1.9254514431778667e+00 -1.3304837618862884e+00
      9.6364756661495465e-01 4.0636910403101034e-01
      -1.6782377799416419e+00 1.4139978302248251e+00
      2.5182997032309724e+00 3.4877307426837882e+00
      1.6338741248637823e+00 2.2165996509366539e+00
      2.5126559565013222e+00 -3.9912692878634064e+00
      2.4881506725423068e+00 9.8931223368972343e-01
      2.8029478055153070e+00 -4.5991509059577740e-01
      -1.5177546192803490e+00 2.5010343220561411e+00
      2.6663457280951648e+00 3.3347216656880074e+00
      -3.5324547725921024e-01 -9.7074997406478084e-02
      6.6504476524620126e-01 2.3203806624728145e+00
      -1.3404418448782087e+00 3.1730314751447923e+00
      2.3869226761381559e+00 3.2520304367010198e+00
      3.1990867688205555e+00 -1.7382638516151876e+00
      4.2734174565890592e+00 2.6037394342081133e-01
      3.4703299856838927e+00 1.3026889289833117e+00
      3.5043257771697062e-01 2.9734930097948222e+00
      5.6765828250211214e-01 2.0776223311783313e+00
      2.4527312889064237e+00 2.9565523982003733e-01
      2.0309143428939431e+00 2.2061478365367412e-01
      1.5471357977185021e+00 1.2953439979998649e+00
      5.8386049609659585e+00 1.9704420313365032e+00
      -1.5812795594907374e+00 4.8771633963369032e-01
      2.8314969246456179e+00 -6.3650657273358280e-01
      2.4030086777235380e+00 2.1040524850582303e+00
      1.3276604448360241e+00 -1.6031925603060206e+00
      3.0964401250871332e-01 -5.9162335276993516e-01
      -1.1004073349314385e+00 1.4654954293080455e-01
      6.5862310604133500e-01 -2.3159595220714806e-02
      -2.0867738467179328e-01 -1.3877141824723096e+00
      -4.0963654618933604e-01 3.9276134654685748e+00
      2.5738468856677462e-02 6.2245115026699382e-01
      -1.9386115397469086e+00 2.3375523952922067e-01
      -6.5566830901790907e-01 -2.2728377009065501e-01
      1.3412184587888806e-01 -3.5001677300405176e+00
      2.1676274354847966e+00 3.6330384421192363e-01
      7.1639794910663235e-01 -1.4122801396676532e-01
      -6.2446629533045794e-01 4.6626971878005889e+00
      2.7833175174396287e+00 -2.4118437178969820e+00
      3.4780656805573900e+00 -2.1819560953305447e-01
      2.5202780624027876e+00 1.4544722212387273e+00
      5.4496124976229854e-01 3.3390831895253843e+00
      1.1822014334804655e-01 4.9140933318136053e+00
      3.5502657459754912e+00 -2.9753092152382860e-01
      -9.2201242780263071e-01 -3.1373570216387653e-01
      6.4786028200868195e-01 2.5136260667655015e+00
      6.6555689328247363e+00 4.9710691297508243e+00
      1.1544675507105970e+00 -1.2548355072254549e-01
      4.1986434480020343e+00 -1.5916567656870388e+00
      2.8523827548642608e+00 2.9665056404008476e+00
      -1.5999243106090975e+00 -7.3564416228199681e-01
      1.0740952841422158e+00 -6.4919502551336894e-01
      4.5319683046081680e+00 1.5387314413170246e+00
      -1.2247177363484463e+00 -1.3887745607530624e+00
      -2.5228640223216714e-01 1.6122454221478890e+00
      3.9832038976645827e+00 2.4208412198668516e+00
      -2.6094892600243280e-01 -1.6938719156958542e+00
      7.2625703675764113e+00 -5.8275251294700980e-01
      -2.7967923733997577e+00 -3.3894140162525845e+00
      4.7207911795576889e+00 4.8733892369515341e-01
      -4.3256500002801568e-01 1.8546475816579262e+00
      1.3477876653431111e+00 3.1589160497531232e-01
      -1.4147582561648911e-01 9.5415583623378852e-01
      9.3374685288013537e-01 -4.7422965728175004e-01
      -9.0777615039533202e-02 5.2542645489291262e-01
      8.7454478560798421e-01 9.7234638806579135e-02
      8.1883900275147004e-01 1.1665006001772621e-01
      -1.3493701646753026e-01 4.9903826637294957e-01
      1.0712909442081751e+00 1.0882061640282088e+00
      2.4152919767108689e+00 8.1727019179975302e-01
      1.4976078562594706e+00 8.6472791824177875e-01
      -4.4845062923642565e-01 3.5681601721948200e+00
      1.3625588843586232e+00 -1.5756481289253879e+00
      -3.4613630860377076e-01 -1.0409412158008273e+01
      5.2322954520397180e-01 3.6150295257645397e-02
      3.6782708011001768e+00 2.7617850450431219e-01
      1.5897643173845146e+00 5.9797026514877105e-01
      1.4693640227454681e+00 1.8982395731394579e+00
      2.4642341774360768e-01 2.8740695052636123e+00
      4.1014282136599756e-01 -4.8426001344914882e+00
      -2.0317838441293006e+00 4.4175692691937289e+00
      -5.3350826315763204e-02 -5.8098682204440900e-02
      -1.7316596575431889e-01 2.0989482335472209e-02
      -1.5339182833128877e+00 3.5861231980871322e+00
      2.8851617787575945e+00 -4.7228305771102361e+00
      1.2696104584375487e+00 7.1884281704782102e-02
      4.5759343794602056e+00 -1.1264861124213335e+00
      -6.5333075342351887e-01 3.8858493371352747e+00
      2.3014140729354318e+00 -4.1786803379671930e-03
      4.1553213793642063e-01 3.6212974724886615e-01
      5.9003227533037739e-01 3.6836851781089912e+00
      -5.5965864267367560e-01 1.7301018257864242e+00
      1.0604515526871365e-01 2.1656488393746263e+00
      -6.0237861060664146e+00 -8.9132597448146345e-01
      -3.2568867457439370e+00 3.3118321319506094e+00
      -7.8854067376522163e-01 3.5040727683695678e+00
      -2.6774197570578046e-01 2.9934898689441996e+00
      -1.3365051172275251e+00 -1.3078101258886740e-02
      3.2848318767409768e+00 -1.8511739328501897e+00
      -2.1118755165945322e-01 1.1038948388065795e+00
      -2.3298128648675727e+00 8.6012164939034463e-01
      -2.0165609353929534e+00 4.1397719215491641e-01
      -6.4923659292357296e+00 1.0942306749886865e+00
      1.0706866092943681e+00 -5.0149574195426416e-01
      -4.0015019312245786e-01 3.3434564838609298e+00
      7.6677954828370906e-02 5.1562033171947981e+00
      -2.2594115006268045e+00 3.4235301659119486e+00
      4.2419880013351312e+00 9.9268949124981951e-02
      9.6967738302916562e-01 -5.5765309116752559e-01
      4.0262747821838213e-01 2.4203374762482150e+00
      2.3673110520913578e+00 7.5092014672583607e-01
      -4.5342625049826770e+00 -9.0473912621588859e-01
      -1.3306437520679590e-01 -5.9241493386997170e+00
      -1.0692355706215777e+00 -1.1017718582103846e+00
      -9.2694829655686942e-02 7.1439223837608845e-01
      5.8623745389173398e-01 -1.9633758193095661e+00
      1.3275885182265432e-01 -3.9591297912761952e-01
      2.3047241323723764e+00 -3.4682413163810426e+00
      5.8846280222514089e+00 1.8533936033142509e-01
      9.1401129121433700e-01 1.8363483594437322e+00
      -3.8470471641804762e+00 1.1566501898547858e+00
      -2.3683598595549098e+00 -3.9031365386088042e+00
      4.1049300567702112e+00 -3.3795341150545903e+00
      -4.8297441166460703e-01 -5.5721863533875182e-01
      -1.4213536130958646e+00 -7.5963693368563234e-01
      -1.0832824739922451e+00 -8.0537545917808484e-01
      -3.1927811155275532e-01 -6.7009684230118594e-01
      -2.2708146287832678e+00 6.1684184764809677e-02
      6.7995142839644984e-01 -1.4996793858722870e+00
      2.8613976492512816e-01 3.2931557893246137e+00
      -1.4035203826997931e+00 -5.8053716404829536e-01
      2.3393340587465794e-01 -7.1355868599402039e-01
      4.9660443680315964e+00 -1.7150701818235958e+00
      3.0516372557101895e-01 -1.3245074943931825e+00
      -4.4802580597948554e+00 -6.1968749716077398e-01
      -6.3301380998141799e+00 1.1612272975998281e+00
      -5.0989233950780442e+00 4.1488381952117859e-01
      -1.9055187359477815e-01 1.7987220488474631e+00
      -1.3258351807616258e+00 -1.0120079181338291e+00
      -1.6119889916502366e+00 1.3321201134366307e+00
      6.1806232592205979e-01 -2.7383675047563480e+00
      1.2084965862720507e+00 -2.2832776671065624e-01
      -1.3673918033505621e+00 -1.3570532375369775e+00
      4.2318495707040693e+00 2.1173729216611506e-01
      -3.4279046890862552e-01 -4.3477157149676477e+00
      -1.6107592779402613e+00 -1.5462836136687537e+00
      3.9910938351939551e-01 -8.7733438716707697e-03
      -2.8670392937027773e+00 2.6300775818962641e+00
      -1.0356607167273886e+00 -4.0276275819696261e+00
      5.5563954882742982e-02 -5.9563085633616997e-01
      -3.8701128006451935e+00 3.8389821458822748e+00
      1.6107586791201486e-01 1.9311207380631714e+00
      8.7002195480931732e-01 4.9998868142594670e+00
      9.8973163245858231e-01 9.2131445146066293e-01
      -1.9979169764989602e-01 -4.6695547571184610e+00
      1.1878431538489668e+01 -1.8485307258350849e+00
      2.0926199472825913e-03 1.1303889084467732e+01
      -1.8954384315418167e+00 1.6098364732269790e+01
      -1.8768131891789157e+00 3.3105671664315088e+00
      -4.6562376944263688e+00 6.4722456488566005e-01
      -2.0115501556931031e-01 3.5262278479656137e+00
      2.3868466419026086e+00 9.1622639106635906e-01
      5.7865863431643727e-01</_>
    <_>
      -1.7932863458677117e-01 2.6490547658966540e-01
      2.4282091752971909e-02 1.0682944983526747e-01
      -2.1642649089590651e-01 -1.2180937584320996e-01
      1.9866929671132474e-02 -5.0425238390394020e-02
      -2.7808477933981116e-02 1.0297451174549161e-03
      -4.6355820524911734e-01 -7.4894524409958196e-01
      1.0894287661809224e-01 1.2733293827666370e-01
      1.0272684757191617e+00 1.0799602745982549e-01
      4.9045279521281730e-02 -8.2453543477912089e-02
      -4.4444678118489907e-02 -6.8748561687125530e-03
      1.4120490372628662e-02 9.0066379791433759e-01
      -1.8619996394976177e-02 1.1938497456229382e-02
      1.6252837640602869e-01 7.5149066919118518e-02
      -1.1019761416648624e+00 -1.0233206539776361e+00
      1.1184922500075172e+00 6.8362853613690173e-04
      4.6013081903288960e-01 7.5039870879459181e-01
      -1.0889973086801162e-01 -1.1999175157465190e-01
      -1.0543083449012367e+00 -1.2042493158398404e+00
      -5.2564427657840522e-02 8.2229293396255912e-02
      4.1123650805196067e-02 1.0927199968325567e+00
      5.4157283987660021e-01 -5.5920554339015627e-01
      8.8546226545356585e-02 2.0203922906087041e-02
      -1.5551817163899237e-01 6.5983099353348604e-02
      5.9376624830639615e-02 -9.6248403127644377e-02
      -7.5796397464106477e-02 -3.3751635200916295e-03
      -1.1409219279400189e+00 -8.7260547354213247e-01
      1.3746716224041807e-02 -9.3148135219917239e-01
      -1.6120891453741452e-02 2.2389364884658685e+00
      4.1848299587110283e-02 1.5085585925651976e-02
      -2.4689660514205004e-02 1.4804621844116288e-02
      -3.8846264424358656e-01 -7.1106128482931086e-01
      1.0563675621510986e-01 -4.8018306227394104e-03
      -1.5936167918424460e-01 1.1488772641995435e+00
      2.2074760447247765e-02 -1.1262215103026577e-01
      -6.4479602150790932e-02 -5.4409359824053455e-02
      4.0016193141673145e-01 4.6044706378813038e-01
      -6.1256629441891038e-02 -1.8047470707364913e-01
      6.4711968379025514e-02 -1.2535013436826197e+00
      -5.2054597784148393e-02 1.1414431485822706e-02
      3.9708962933979575e-02 1.0346411810412270e+00
      3.8051020927303121e-02 1.0155538531190438e+00
      4.4517800506828136e-03 9.5104816675593851e-01
      1.2594436800724351e+00 -2.2489913004325248e+00
      -6.7915070890885110e-02 -2.1805763084271169e-02
      3.1317949632491862e-02 -2.8305074995127053e-02
      4.5118940631409882e-01 -4.9645692052295187e-01
      -6.2986784497430351e-02 -2.3040045471065099e-02
      7.3507265230149332e-02 -7.9396697878851952e-02
      -2.2247003250816916e-03 3.3997646386944767e-02
      3.5477962795197923e-02 -1.7066396622477595e-02
      1.1443619058514833e+00 -4.5277937120961599e-02
      3.3193015337482090e-03 -1.0756033965136664e+00
      -2.5928958006270562e-02 1.8066463875042134e-02
      6.2160631218078147e-03 -1.0201366091782130e-02
      -1.2467760438190083e-03 -5.4319537830475294e-03
      1.0829637798940788e+00 1.9210224789334609e-03
      -1.6633822719043208e-04 1.2165632489435339e-02
      5.0512943469269538e-03 -6.7521368765755870e-03
      -1.0909405813994659e+00 -4.0957059367312332e-03
      -2.9619174128366387e-03 -1.2452907757013239e-03
      -6.6464934244313212e-01 1.5302414192986382e+00
      -8.3324760717017388e-02 -1.1613006431069847e-02
      -8.5619700881766081e-01 -1.6837503226096305e-02
      -2.5057744895463040e-02 1.1017141644828757e-01
      6.7280668016283060e-02 -1.4867669056537273e-02
      5.7783977515301255e-01 -7.0315388704979098e-01
      1.0419028516893235e-01 1.2805409106080493e-01
      -1.5303816494000588e-01 8.1593761392836681e-02
      5.6203319542320024e-02 -7.8272620299914886e-02
      -5.7914326180698396e-02 -1.4857997700717955e-02
      -1.7641155342837594e-01 9.5761940628176323e-01
      3.0763413463069881e-02 8.8327749530295940e-01
      6.7319969797158138e-02 -1.1688904657193246e+00
      4.2869562023254678e-03 -2.8228035023036290e-02
      -1.1930401334059362e-02 -3.3298223722127832e-02
      4.2767030555558277e-01 -2.5906859194664561e-01
      3.1154037262919217e-02 1.1411913603539787e+00
      -6.0116996052765777e-02 -6.7063356628013437e-01
      -1.3262368983782181e-02 -2.9124638111185704e-02
      -1.3390370342349142e-02 1.3948020371193432e-02
      3.7658720726408812e-01 7.2309514231491634e-01
      -1.0891791532884071e-01 8.1808705967632983e-03
      1.4635492599279523e-01 -1.1515516028907147e+00
      -1.1057333352185912e+00 1.1988620212313658e-01
      1.1549556983877260e+00 6.0665915226567051e-02
      -1.2012077151706861e+00 -5.7932063932779401e-02
      3.8345116205035078e-02 5.8086039106414071e-02
      -4.4954724417328978e-02 -6.1005141778674669e-03
      1.1390431971034227e+00 -2.7040417234950022e-02
      -1.7642516003865821e-02 -2.1594251689069085e-02
      -4.5237964079731058e-01 -4.2960940813626702e-01
      -1.1823996785369500e-01 -3.9667332314901688e-02
      -7.6722323504593049e-01 1.1798154124493820e+00
      -3.3157864935910678e-02 1.4401859011289656e-01
      6.1101247150564128e-02 2.5264592403579415e-02
      -1.0756720052615323e+00 -1.1958487318529908e-02
      -1.4007672657097004e-03 2.1747995100139118e-02
      -5.1060385368535324e-03 8.2767641418679816e-03
      4.0452201458337760e-03 -9.3492946708022121e-04
      3.2678706344675865e-03 1.0888730527425348e+00
      6.2706899795273593e-02 -1.1552406576688319e-01
      1.2813563603871838e-02 8.7624082330499398e-01
      1.1170025498521197e+00 -1.1816121416937000e+00
      -2.2460776954972311e-02 -3.9550083436496457e-02
      1.8040169279264513e-02 6.4454859031804557e-03
      -1.6511297731721467e-01 4.3006428463890016e-02
      1.0818554916917809e+00 1.2279837830636738e-01
      2.7995652375588424e-02 -1.0675730709105824e+00
      4.2956926389607020e-02 5.7194646065205405e-02
      1.5415334015161083e-02 5.9304824653050141e-02
      -1.6340770221866068e-02 -9.0318277674255498e-01
      1.6905924751049871e-02 -8.9126932132553068e-03
      -1.6310896172940401e-01 -7.9065231103886524e-02
      1.4620219940116813e-02 1.0204891890940868e+00
      -2.9506343707634899e-02 -1.4245223922901170e-03
      1.2075986140835371e+00 4.7773395692398433e-02
      -1.7725512078823259e-02 -8.8249326766019251e-02
      1.2699062742370604e-01 -2.0926207295437663e-02
      -1.1374784695381206e+00 6.2399125145076468e-03
      -7.3545198927539752e-05 -5.4632264970107779e-03
      -3.7315539481178289e-01 -8.5478436517866463e-01
      -1.0192422020066134e+00 -1.1084463146589819e-02
      -3.6630038577593388e-01 2.2676638224581476e+00
      1.1234159255560536e+00 -1.0482000565596326e-01
      -5.6268465541094360e-02 -1.1220160348135781e+00
      -1.7309696165228159e+00 -2.2150588716503300e-01
      -2.1025657700208615e+00 -2.1437757569498945e+00
      -1.5323606135705321e+00 -8.7113353291181062e-01
      -1.9493535860838325e+00 -1.6926165926240428e+00
      -1.7519648668269368e+00 -1.8764273118768693e+00</_></weights></opencv_ml_ann_mlp>
</opencv_storage>
